0.630815 0.617183 -0.475561 
0.623667 0.533838 -0.575375 
0.570088 0.549436 -0.618803 
0.619689 0.670058 -0.429948 
0.533894 0.533395 -0.677392 
0.478227 0.571744 -0.698141 
0.663486 0.675269 -0.374680 
0.655824 0.726690 -0.326751 
0.422323 0.597704 -0.732794 
0.530170 0.488044 -0.731517 
0.565187 0.431107 -0.754581 
0.714601 0.666402 -0.326631 
0.609150 0.779536 -0.321375 
0.770299 0.628216 -0.305667 
0.604734 0.829426 -0.271460 
0.557756 0.882057 -0.266663 
0.366064 0.630743 -0.760058 
0.505850 0.929659 -0.272974 
0.617818 0.384634 -0.746206 
0.813860 0.573585 -0.316529 
0.796275 0.655778 -0.245954 
0.309912 0.659110 -0.792342 
0.478395 0.986623 -0.241330 
0.469839 1.038437 -0.193979 
0.254217 0.683609 -0.828367 
0.480613 1.079043 -0.137102 
0.474489 0.512451 -0.767628 
0.585865 0.485887 -0.670903 
0.427974 1.125505 -0.145498 
0.852125 0.630227 -0.210913 
0.278390 0.627061 -0.863266 
0.582478 0.530054 -0.626123 
0.598056 0.351235 -0.805316 
0.372913 1.166350 -0.162816 
0.198203 0.719782 -0.851903 
0.648961 0.302296 -0.801607 
0.644111 0.257652 -0.856228 
0.264811 0.588558 -0.921000 
0.189246 0.771769 -0.804816 
0.328549 1.162059 -0.217711 
0.828642 0.686659 -0.175360 
0.902946 0.622053 -0.162432 
0.952927 0.572056 -0.160934 
0.259569 0.544165 -0.975788 
0.898814 0.577393 -0.216259 
0.133030 0.801105 -0.836106 
0.272772 1.187098 -0.253235 
0.518381 0.431046 -0.807584 
0.183877 0.822125 -0.755465 
0.253122 1.242717 -0.214243 
