-0.968842 -0.175529 0.188509 
-0.980686 -0.184524 0.095946 
-0.958899 -0.245262 0.194707 
-0.965464 -0.137304 0.247901 
-0.946166 -0.275365 0.257411 
-0.960715 -0.105655 0.310955 
-0.933012 -0.314258 0.314981 
-0.980240 -0.237978 0.049660 
-0.995430 -0.078079 0.089569 
-0.980851 -0.287663 -0.000649 
-0.919743 -0.365026 0.362379 
-0.934414 -0.257672 0.357361 
-1.007382 -0.058494 0.022684 
-0.927214 -0.239557 0.425332 
-0.981411 -0.337534 -0.050775 
-0.977124 -0.401867 -0.079808 
-0.967249 -0.471655 -0.074145 
-1.019769 0.004352 -0.007266 
-1.031897 0.068676 -0.034011 
-0.967143 -0.523933 -0.121758 
-0.906455 -0.409694 0.415559 
-0.954105 -0.580471 -0.081342 
-1.041876 0.069732 -0.104006 
-0.969712 -0.035525 0.311854 
-0.894265 -0.473696 0.443039 
-0.982107 0.027266 0.281792 
-0.979063 -0.504718 -0.188756 
-0.983869 -0.536075 -0.251951 
-0.883298 -0.541954 0.457892 
-0.946481 -0.650035 -0.091478 
-1.055128 0.112192 -0.158974 
-1.063808 0.103631 -0.228626 
-0.996045 -0.472000 -0.279266 
-0.994326 -0.279305 -0.088756 
-0.975752 -0.104909 0.204702 
-0.961638 -0.022898 0.380958 
-0.878807 -0.509017 0.520302 
-0.866507 -0.532859 0.585726 
-0.964426 0.037738 0.417227 
-1.062752 0.048147 -0.272448 
-1.069352 0.026485 -0.339434 
-0.961175 0.076541 0.476250 
-0.854030 -0.559083 0.650198 
-1.063142 0.182033 -0.151355 
-0.952064 0.082053 0.546154 
-1.034120 0.127729 0.004819 
-1.072934 0.251882 -0.156371 
-1.017905 -0.053646 -0.047672 
-0.941371 0.075020 0.615697 
-1.082513 0.080707 -0.382871 
