-0.743983 0.524361 -0.420162 
-0.740072 0.603693 -0.304710 
-0.766510 0.469475 -0.458632 
-0.812290 0.434319 -0.417788 
-0.859051 0.392902 -0.384651 
-0.758097 0.621837 -0.238786 
-0.800957 0.596656 -0.188498 
-0.726504 0.487523 -0.514074 
-0.897302 0.334482 -0.395786 
-0.687486 0.503374 -0.570875 
-0.678689 0.474214 -0.634689 
-0.831815 0.596120 -0.124877 
-0.811792 0.649667 -0.083261 
-0.926851 0.276768 -0.423999 
-0.874173 0.572304 -0.073511 
-0.884704 0.599520 -0.009103 
-0.680419 0.434407 -0.693105 
-0.720390 0.452103 -0.582039 
-0.880512 0.406484 -0.318659 
-0.967700 0.219215 -0.428354 
-0.930299 0.547270 0.004716 
-0.909160 0.513649 -0.091829 
-0.891810 0.630523 0.054050 
-0.774742 0.708263 -0.069343 
-0.846435 0.465081 -0.298532 
-0.755572 0.761320 -0.026711 
-0.643904 0.558871 -0.575430 
-0.605406 0.617239 -0.564893 
-0.977192 0.503576 0.034581 
-0.565364 0.675146 -0.558300 
-0.523820 0.732318 -0.555987 
-0.966690 0.181993 -0.488467 
-0.770638 0.670419 -0.136886 
-0.896657 0.663907 0.116195 
-1.021890 0.449563 0.043779 
-0.799764 0.513202 -0.321033 
-0.921641 0.672507 0.181784 
-0.699798 0.381229 -0.735490 
-0.477471 0.770466 -0.593358 
-0.433909 0.825984 -0.597840 
-0.732375 0.816538 0.010878 
-0.999893 0.123493 -0.510269 
-1.068704 0.407486 0.075998 
-0.391714 0.849367 -0.649539 
-0.690360 0.873406 0.011734 
-0.962642 0.652128 0.235669 
-1.046464 0.083819 -0.474813 
-1.093035 0.044144 -0.439359 
-1.108807 0.349603 0.069570 
-0.708315 0.583027 -0.403247 
-0.981939 0.668614 0.301668 
-0.999187 0.085977 -0.570203 
-0.345031 0.889992 -0.683747 
-1.146605 0.291103 0.057364 
-0.686988 0.356653 -0.800543 
-0.991470 0.055634 -0.633604 
-0.302379 0.914598 -0.734496 
-1.007309 0.598065 0.244727 
-0.964423 0.050113 -0.698704 
-0.255757 0.963044 -0.756389 
-0.248064 1.008022 -0.702372 
-1.193425 0.248943 0.089466 
-0.963428 0.012876 -0.758807 
-0.636853 0.531204 -0.633271 
-0.215559 0.981531 -0.811547 
-0.268497 1.022997 -0.636356 
-0.665670 0.929319 0.047288 
-1.012944 0.610520 0.275905 
-1.226954 0.190403 0.068281 
-0.534812 0.675177 -0.622069 
-0.618797 0.975219 0.020904 
-0.926696 0.369304 -0.280127 
-0.614081 1.017694 0.077239 
-0.671344 0.335504 -0.866178 
-0.987724 -0.042860 -0.794907 
-0.684770 0.286164 -0.915018 
-0.304299 0.947602 -0.679057 
-1.273272 0.140407 0.087123 
-0.867614 0.479048 -0.232529 
-1.000703 0.000666 -0.699973 
-0.626781 0.365899 -0.911897 
-0.580736 0.989038 -0.037065 
-0.205323 1.064333 -0.703902 
-1.052454 0.544841 0.256090 
-0.170446 1.013911 -0.855324 
-1.257165 0.119832 0.021417 
-0.670380 0.857824 -0.054282 
-0.993586 0.226485 -0.362955 
-0.920763 0.523655 -0.052001 
-0.711940 0.800661 -0.056544 
-0.601899 1.066140 0.127285 
-0.629488 1.009060 0.095967 
-1.301100 0.144728 0.151984 
-0.806574 0.649991 -0.093655 
-1.011819 0.496424 0.095765 
-0.125338 1.046271 -0.899120 
-0.645337 1.039307 0.176205 
-0.726213 0.700347 -0.183047 
-1.347092 0.108554 0.191685 
-0.597929 0.363182 -0.976397 
-0.555773 1.116860 0.109971 
-0.538408 1.045679 -0.037219 
-0.692150 0.241442 -0.969290 
-1.257717 0.081119 -0.037752 
-0.683858 1.024521 0.233628 
-1.056358 0.382364 0.011063 
-0.188599 0.961462 -0.899137 
-1.083322 0.544288 0.319705 
-0.670844 1.073568 0.282872 
-0.611495 0.638253 -0.519430 
-0.558225 0.976907 -0.102990 
-0.847632 0.366703 -0.449329 
-1.130043 0.503299 0.353426 
-1.034563 -0.089352 -0.769517 
-0.491512 1.089479 -0.066923 
-1.176714 0.462793 0.387793 
-0.960527 -0.048152 -0.859964 
-0.596393 0.688748 -0.472290 
-1.248457 0.165626 0.074587 
-1.388050 0.088276 0.245641 
-0.675133 0.641524 -0.381405 
-0.456227 0.756587 -0.659359 
-0.210908 0.906686 -0.937891 
-1.039251 0.191848 -0.321543 
-1.408671 0.034396 0.204754 
-0.532245 1.172237 0.147117 
-0.757211 0.393485 -0.596468 
-1.127572 0.274269 -0.008624 
-0.795376 0.335049 -0.607807 
-1.063044 -0.146737 -0.799446 
-0.258253 1.069992 -0.584523 
-0.704855 0.192616 -1.018835 
-0.885534 0.731166 0.197768 
-0.936914 0.598178 0.097861 
-0.802459 0.612149 -0.161219 
-0.230736 0.853250 -0.979742 
-1.092588 -0.145126 -0.735223 
-0.981589 0.468289 -0.011222 
-0.944993 0.454985 -0.108395 
-0.938947 0.216342 -0.492891 
-0.649745 0.415229 -0.787061 
-1.217013 0.259556 0.155275 
-0.649926 0.842876 -0.120298 
-1.120886 0.549449 0.406212 
-0.444865 1.137763 -0.089121 
-1.232418 0.281002 0.220871 
-0.398314 1.177286 -0.124771 
-0.354518 1.205198 -0.172759 
-0.914923 0.206351 -0.558641 
-1.270450 0.222541 0.209216 
-1.455189 -0.004878 0.240721 
-0.078752 1.094942 -0.920587 
-0.902990 0.180747 -0.623464 
-0.515051 1.136572 0.055627 
-1.057268 -0.179152 -0.862023 
-1.092920 0.006064 -0.498939 
-0.811566 0.376531 -0.509350 
-0.695518 0.164055 -1.082843 
-1.468204 -0.053927 0.191478 
-1.498331 -0.030855 0.290359 
-0.803920 0.289385 -0.661116 
-0.254467 1.039775 -0.639517 
-0.561367 1.174525 0.211512 
-0.163784 0.952614 -0.964756 
-0.718274 0.109055 -1.121016 
-0.043639 1.153601 -0.902526 
-0.552739 1.220255 0.264750 
-0.916526 0.057782 -0.786801 
-0.678905 0.125675 -1.177353 
-0.170569 1.122977 -0.685115 
-0.759799 0.051870 -1.123386 
-0.552194 1.020507 -0.047648 
-0.552607 0.396381 -1.019335 
-0.614991 0.850563 -0.181294 
-0.516402 1.174999 0.118327 
-0.514624 0.454851 -1.007563 
-1.129660 -0.203720 -0.749093 
-1.094231 0.571073 0.384231 
-1.034375 -0.190749 -0.927913 
-1.063040 -0.248194 -0.957551 
-0.661641 0.106557 -1.243204 
-0.716311 0.299005 -0.829125 
-0.469667 1.222620 0.094914 
-0.510242 0.497034 -0.950982 
-0.522733 0.985637 -0.163522 
-1.113845 0.593892 0.460757 
-0.452199 0.722362 -0.721104 
-0.469153 0.554465 -0.947317 
-0.871219 0.110681 -0.799008 
-0.193569 0.865242 -1.038690 
-0.130711 1.180953 -0.678029 
-0.699852 0.048129 -1.254434 
