0.835842 -0.548610 -0.019895 
0.845966 -0.531113 0.047545 
0.772305 -0.632382 0.060310 
0.880994 -0.471366 0.040799 
0.911155 -0.410673 0.033821 
0.912573 -0.396374 0.100486 
0.761185 -0.647176 -0.041966 
0.923138 -0.354256 0.149395 
0.941072 -0.295997 0.163614 
0.843807 -0.529557 -0.086943 
0.829226 -0.537129 -0.154520 
0.951655 -0.290758 0.099053 
0.714296 -0.698902 -0.036283 
0.837365 -0.533987 0.116951 
0.810163 -0.559262 0.175673 
0.681669 -0.726006 -0.090789 
0.774464 -0.591372 0.224688 
0.631087 -0.770723 -0.087831 
0.938297 -0.268075 0.218482 
0.946367 -0.216012 0.240268 
0.729601 -0.641996 0.235635 
0.849991 -0.514077 0.115066 
0.968757 -0.237085 0.072801 
0.712046 -0.635639 0.298251 
0.598618 -0.788242 -0.142590 
0.960366 -0.162613 0.226394 
0.589084 -0.806526 -0.049959 
0.546786 -0.823694 -0.150175 
0.550239 -0.834989 -0.005453 
0.981662 -0.183906 0.050177 
0.822563 -0.524069 -0.220776 
0.930084 -0.214683 0.298086 
0.666129 -0.669791 0.328105 
0.629928 -0.679809 0.375567 
0.838717 -0.476446 -0.263729 
0.845927 -0.433819 -0.310175 
0.986212 -0.165236 -0.009101 
0.908012 -0.263923 0.325360 
0.850171 -0.390852 -0.352765 
0.635562 -0.644434 0.425166 
0.495364 -0.856274 -0.146320 
0.794601 -0.577230 -0.188188 
0.506157 -0.861908 0.030318 
0.850302 -0.349881 -0.393153 
0.603158 -0.644525 0.469881 
0.607713 -0.606969 0.512127 
0.450241 -0.875306 -0.176415 
0.856686 -0.301175 -0.418787 
0.563058 -0.635467 0.528343 
0.521364 -0.674480 0.522739 
