-0.450112 0.639982 -0.622754 
-0.540089 0.406374 -0.736996 
-0.681020 0.394469 -0.616932 
-0.831349 0.263945 -0.489073 
-0.824403 -0.010546 -0.565905 
-0.805359 -0.039451 -0.591473 
-0.925158 -0.007346 -0.379511 
-0.960789 0.183830 -0.207583 
-0.933613 0.116800 -0.338709 
-0.947245 0.041929 -0.317757 
-0.875475 -0.189746 -0.444455 
-0.895125 -0.087023 -0.437240 
-0.797797 -0.331416 -0.503671 
-0.768588 -0.252250 -0.587914 
-0.892567 -0.120463 -0.434527 
-0.935641 -0.012304 -0.352738 
-0.978792 -0.072626 -0.191552 
-0.956169 -0.292052 -0.021150 
-0.998451 -0.053978 -0.013523 
-0.939856 -0.248124 -0.234747 
-0.943035 -0.247894 -0.221885 
-0.936698 -0.268302 -0.224970 
-0.921885 -0.380865 -0.071199 
-0.807099 -0.566118 -0.167636 
-0.888353 -0.458984 0.012761 
-0.819482 -0.558494 0.128585 
-0.597810 -0.782467 0.174267 
-0.730668 -0.680745 0.052058 
-0.522031 -0.851631 0.046994 
-0.518741 -0.831984 0.196747 
-0.564263 -0.750702 0.343589 
-0.650736 -0.742096 0.160737 
-0.724960 -0.687623 -0.040090 
-0.733991 -0.639952 -0.227416 
-0.632893 -0.711971 -0.304210 
-0.692774 -0.544979 -0.472295 
-0.829408 -0.442243 -0.341327 
-0.828542 -0.459398 -0.320113 
-0.752018 -0.639964 -0.157844 
-0.831891 -0.554214 -0.028343 
-0.824205 -0.520076 0.224068 
-0.774571 -0.502569 0.384010 
-0.894597 -0.291892 0.338370 
-0.800582 -0.159487 0.577609 
-0.727099 -0.390321 0.564780 
-0.713388 -0.225352 0.663546 
-0.559591 -0.403434 0.723947 
-0.732094 -0.363246 0.576274 
-0.535237 -0.532357 0.655834 
-0.562814 -0.407762 0.719006 
-0.577460 -0.542177 0.610397 
-0.711694 -0.499555 0.493900 
-0.479035 -0.713103 0.511869 
-0.624698 -0.610255 0.487177 
-0.746050 -0.436764 0.502640 
-0.634597 -0.639430 0.434070 
-0.513692 -0.767921 0.382645 
-0.670006 -0.702810 0.239060 
-0.776263 -0.555914 0.297281 
-0.567959 -0.768794 0.293902 
-0.594118 -0.635068 0.493672 
-0.740520 -0.487866 0.462187 
-0.641060 -0.531064 0.554087 
-0.676781 -0.464164 0.571418 
-0.724578 -0.245012 0.644171 
-0.760885 -0.033957 0.647998 
-0.732875 -0.085551 0.674964 
-0.726487 -0.021961 0.686829 
-0.773086 -0.166463 0.612069 
-0.844075 0.009305 0.536145 
-0.835574 0.180073 0.519028 
-0.754743 0.346819 0.556849 
-0.796901 0.370036 0.477517 
-0.794349 0.446225 0.412180 
-0.724207 0.509278 0.464931 
-0.744598 0.574188 0.340416 
-0.625270 0.758222 0.184762 
-0.493227 0.818117 0.295654 
-0.468153 0.771288 0.431218 
-0.433421 0.865294 0.251818 
-0.533230 0.718013 0.447352 
-0.625091 0.724432 0.290619 
-0.599249 0.717771 0.354549 
-0.645985 0.530178 0.549195 
-0.440033 0.644192 0.625610 
-0.628429 0.592467 0.504044 
-0.415400 0.733804 0.537563 
-0.400421 0.597392 0.694828 
-0.470136 0.625733 0.622439 
-0.288352 0.749034 0.596491 
-0.241580 0.884489 0.399148 
-0.229013 0.904896 0.358772 
-0.087054 0.967624 0.236909 
-0.044191 0.997121 0.061611 
0.086331 0.995918 -0.026347 
0.153264 0.986071 -0.064611 
0.181637 0.978587 -0.096830 
0.402676 0.878616 -0.256682 
0.291772 0.844540 -0.449024 
0.027603 0.921618 -0.387115 
