-1.014209 1.767727 1.877322 -1.476705 0.191865 0.969371 -0.756651 
-1.020868 1.764765 1.869351 -1.487341 0.206131 0.954288 -0.734081 
-1.027817 1.765592 1.862659 -1.500276 0.222978 0.934649 -0.717290 
-1.029443 1.757215 1.860451 -1.496666 0.214589 0.939922 -0.727211 
-1.020182 1.775568 1.876330 -1.492104 0.201414 0.946732 -0.743024 
-1.013616 1.794748 1.880343 -1.495702 0.227390 0.942381 -0.760310 
-1.004826 1.812099 1.890519 -1.494878 0.231721 0.944392 -0.763554 
-1.003953 1.822136 1.899490 -1.501604 0.224453 0.931282 -0.737845 
-1.000893 1.838089 1.913103 -1.505683 0.208433 0.923077 -0.744207 
-1.003838 1.822385 1.898271 -1.499987 0.225837 0.935373 -0.752626 
-1.011204 1.806647 1.889664 -1.500527 0.220203 0.933527 -0.758003 
-1.006111 1.807061 1.887029 -1.493662 0.232406 0.946306 -0.740689 
-1.016197 1.782414 1.870696 -1.493215 0.233952 0.947419 -0.719711 
-1.024740 1.770444 1.860879 -1.499913 0.238599 0.936361 -0.706604 
-1.028647 1.774836 1.855414 -1.511289 0.260301 0.919115 -0.716941 
-1.032191 1.776970 1.853355 -1.519763 0.270358 0.906478 -0.723273 
-1.032611 1.764051 1.854705 -1.509169 0.243382 0.921150 -0.704998 
-1.041992 1.746930 1.851264 -1.511526 0.221220 0.914546 -0.702934 
-1.033755 1.752655 1.856852 -1.501367 0.216739 0.931918 -0.718051 
-1.037383 1.762873 1.859126 -1.514980 0.225258 0.909601 -0.740480 
-1.028738 1.783351 1.878204 -1.512570 0.204300 0.910996 -0.732915 
-1.031272 1.772355 1.879139 -1.509371 0.181669 0.913135 -0.715041 
-1.043216 1.750083 1.863982 -1.513435 0.185354 0.907683 -0.727000 
-1.039642 1.757875 1.869513 -1.512286 0.183491 0.909861 -0.740121 
-1.046949 1.754870 1.869080 -1.521516 0.176259 0.893813 -0.751297 
-1.041349 1.759010 1.875220 -1.514486 0.166601 0.905957 -0.729180 
-1.048875 1.748578 1.863582 -1.521647 0.178842 0.893872 -0.713917 
-1.042101 1.753348 1.872587 -1.512688 0.164651 0.906920 -0.707490 
-1.043170 1.760995 1.871527 -1.520712 0.180354 0.893386 -0.685391 
-1.042135 1.748761 1.863207 -1.511252 0.186987 0.910771 -0.667501 
-1.048417 1.746040 1.854038 -1.522086 0.207342 0.894865 -0.659547 
-1.039823 1.762742 1.860978 -1.518982 0.218119 0.901431 -0.644168 
-1.045613 1.764853 1.854253 -1.533064 0.240993 0.879878 -0.637894 
-1.042905 1.774107 1.852680 -1.535057 0.263085 0.879254 -0.615190 
-1.040626 1.767923 1.846715 -1.527547 0.271262 0.893958 -0.629944 
-1.039489 1.755795 1.838297 -1.518005 0.276824 0.911636 -0.647805 
-1.046776 1.752629 1.842958 -1.526660 0.254852 0.893406 -0.655625 
-1.051906 1.739071 1.829472 -1.528324 0.271846 0.893183 -0.677401 
-1.051867 1.728485 1.827367 -1.520469 0.260156 0.905479 -0.694578 
-1.039513 1.753392 1.838472 -1.513921 0.269682 0.918545 -0.710622 
-1.035250 1.751496 1.845277 -1.505561 0.248608 0.929157 -0.691937 
-1.028962 1.745175 1.845530 -1.490399 0.239568 0.953859 -0.679952 
-1.019605 1.743620 1.844447 -1.474239 0.244676 0.981745 -0.661247 
-1.025942 1.747899 1.843149 -1.487981 0.253870 0.960024 -0.650037 
-1.034321 1.726367 1.836305 -1.487143 0.234173 0.957714 -0.649640 
-1.033055 1.713966 1.833430 -1.477099 0.223816 0.973226 -0.636496 
-1.025733 1.720673 1.841858 -1.468363 0.213479 0.987053 -0.630074 
-1.018411 1.718767 1.835479 -1.456093 0.230998 1.008939 -0.629443 
-1.024390 1.700298 1.824490 -1.454694 0.229982 1.011048 -0.608307 
-1.025270 1.686396 1.821859 -1.446753 0.214220 1.021172 -0.592459 
-1.019981 1.683610 1.819596 -1.437341 0.218674 1.038448 -0.610357 
-1.012131 1.702653 1.827468 -1.436151 0.230220 1.041919 -0.630911 
-1.007282 1.700547 1.819109 -1.429495 0.253297 1.055092 -0.618225 
-1.005800 1.709751 1.829636 -1.430532 0.238442 1.050695 -0.598124 
-1.005758 1.710347 1.830786 -1.430725 0.233211 1.049725 -0.603125 
-0.999434 1.726695 1.845220 -1.429438 0.224209 1.052276 -0.618451 
-1.009321 1.709180 1.838348 -1.433541 0.210868 1.043983 -0.608539 
-1.008706 1.708125 1.833128 -1.433259 0.224980 1.046173 -0.614306 
-1.007829 1.711699 1.839897 -1.433145 0.213650 1.044275 -0.601623 
-1.006882 1.696047 1.833304 -1.421913 0.206880 1.064005 -0.585561 
-1.005666 1.700019 1.836965 -1.422209 0.201431 1.061630 -0.578110 
-1.005184 1.695688 1.842312 -1.418022 0.181622 1.064246 -0.599485 
-1.006684 1.696870 1.849991 -1.419225 0.162601 1.061100 -0.588109 
-0.998639 1.705096 1.859060 -1.410284 0.156104 1.074303 -0.601061 
-0.992807 1.703725 1.866508 -1.398012 0.136988 1.092222 -0.619869 
-0.995649 1.687546 1.858180 -1.394142 0.132095 1.098956 -0.628461 
-1.004869 1.665870 1.851856 -1.395870 0.110581 1.093689 -0.619623 
-1.004308 1.670039 1.848093 -1.398398 0.127820 1.092175 -0.602120 
-1.002831 1.678620 1.860628 -1.399586 0.108649 1.088916 -0.583449 
-0.993107 1.696578 1.879806 -1.392865 0.091681 1.098678 -0.578719 
-0.993695 1.708993 1.887663 -1.400674 0.086128 1.085212 -0.577530 
-0.988208 1.708263 1.894072 -1.392329 0.073777 1.098514 -0.586587 
-0.988900 1.713865 1.893516 -1.397463 0.083200 1.092514 -0.601697 
-0.990864 1.718817 1.904568 -1.403121 0.059608 1.081068 -0.585867 
-0.990393 1.732488 1.910807 -1.410821 0.062666 1.067274 -0.586159 
-0.995233 1.725317 1.913488 -1.414211 0.040739 1.060536 -0.575934 
-0.994379 1.742393 1.917189 -1.422597 0.057432 1.048486 -0.589563 
-0.994492 1.727663 1.910497 -1.413034 0.055266 1.066311 -0.608516 
-0.992022 1.719546 1.912374 -1.404308 0.037179 1.078913 -0.606749 
-0.985549 1.732918 1.923929 -1.402696 0.031542 1.080558 -0.600591 
-0.980340 1.752721 1.941068 -1.406021 0.021241 1.075127 -0.614578 
-0.986761 1.756037 1.942900 -1.418216 0.015347 1.055547 -0.621155 
-0.983444 1.742848 1.936699 -1.404490 0.018568 1.076286 -0.627088 
-0.993491 1.732690 1.932700 -1.414287 0.003179 1.061412 -0.616993 
-0.981976 1.753873 1.945384 -1.409327 0.010676 1.068781 -0.641438 
-0.984901 1.767781 1.947799 -1.422908 0.020153 1.047789 -0.621993 
-0.989017 1.757784 1.937227 -1.422899 0.030159 1.048303 -0.642765 
-0.981686 1.772930 1.951507 -1.421218 0.020320 1.051086 -0.656415 
-0.981618 1.770090 1.948687 -1.420105 0.024657 1.052273 -0.638238 
-0.991564 1.750491 1.935343 -1.421968 0.022042 1.049532 -0.619578 
-0.993871 1.761909 1.946916 -1.432065 0.003765 1.033378 -0.609831 
-0.993552 1.766965 1.953677 -1.436180 -0.006369 1.026524 -0.616565 
-0.995773 1.750515 1.947160 -1.429633 -0.013353 1.035589 -0.594757 
-0.994679 1.735255 1.940259 -1.417534 -0.014684 1.056227 -0.581469 
-0.986564 1.747987 1.953941 -1.411731 -0.025818 1.064560 -0.587058 
-0.983921 1.748857 1.954231 -1.409076 -0.021341 1.068842 -0.608746 
-0.973511 1.766043 1.973973 -1.403862 -0.040249 1.079228 -0.630151 
-0.966400 1.766927 1.983998 -1.393813 -0.056599 1.095943 -0.622571 
-0.967406 1.773415 1.992468 -1.399802 -0.071025 1.086586 -0.618732 
-0.958558 1.781457 1.995942 -1.390259 -0.058613 1.102294 -0.628068 
