0.498120 0.616873 -0.609380 
0.566434 0.638165 -0.521439 
0.621591 0.596586 -0.507651 
0.540961 0.689626 -0.481433 
0.484742 0.730373 -0.481227 
0.658708 0.579611 -0.479744 
0.436381 0.638369 -0.634079 
0.426198 0.743164 -0.515813 
0.555451 0.596543 -0.579319 
0.660000 0.579357 -0.478274 
0.478844 0.605860 -0.635329 
0.374377 0.650844 -0.660487 
0.478975 0.767998 -0.425162 
0.700734 0.570645 -0.428178 
0.447521 0.621148 -0.643351 
0.533668 0.599427 -0.596562 
0.717814 0.577665 -0.388647 
0.726336 0.564336 -0.392378 
0.513841 0.775086 -0.367709 
0.602285 0.589604 -0.538164 
0.633325 0.584358 -0.507371 
0.496808 0.603873 -0.623313 
0.710561 0.614882 -0.342087 
0.683953 0.649735 -0.331742 
0.739854 0.571822 -0.354451 
0.668955 0.667890 -0.326224 
0.493701 0.604225 -0.625438 
0.465443 0.607270 -0.643884 
0.368653 0.776845 -0.510497 
0.644206 0.582378 -0.495818 
0.317133 0.685468 -0.655409 
0.328939 0.758537 -0.562513 
0.748331 0.558258 -0.358258 
0.748331 0.558258 -0.358258 
0.557495 0.731067 -0.393370 
0.706808 0.620022 -0.340581 
0.745977 0.558942 -0.362080 
0.748331 0.558258 -0.358258 
0.473772 0.814295 -0.335356 
0.256790 0.688416 -0.678338 
0.420951 0.611545 -0.669935 
0.748331 0.558258 -0.358258 
0.361896 0.616343 -0.699394 
0.420681 0.783636 -0.457102 
0.591701 0.732921 -0.335733 
0.638081 0.583502 -0.502373 
0.748331 0.558258 -0.358258 
0.268072 0.766527 -0.583587 
0.215037 0.661361 -0.718583 
0.541861 0.598366 -0.590208 
