0.763265 0.619270 0.184207 
0.738890 0.665054 0.108370 
0.776408 0.617235 -0.127328 
0.751871 0.657973 0.041970 
0.841169 0.529229 -0.111138 
0.938851 0.339738 -0.056006 
0.834742 0.540574 -0.104815 
0.744635 0.619612 -0.248192 
0.822219 0.472402 -0.317476 
0.877781 0.444500 -0.178663 
0.818227 0.549397 -0.169315 
0.732367 0.633181 -0.250441 
0.855332 0.430174 -0.288717 
0.852258 0.290856 -0.434809 
0.758251 0.433854 -0.486648 
0.679015 0.530949 -0.506983 
0.640060 0.516823 -0.568522 
0.665254 0.644709 -0.376548 
0.682488 0.582295 -0.441749 
0.621905 0.673837 -0.398970 
0.654577 0.711323 -0.256025 
0.763137 0.590756 -0.261972 
0.878916 0.469922 -0.081730 
0.815576 0.557808 -0.153904 
0.831239 0.445687 -0.332272 
0.795494 0.256480 -0.549006 
0.862917 0.332007 -0.380980 
0.913268 0.258363 -0.314945 
0.941952 0.172965 -0.287767 
0.836307 0.328617 -0.438863 
0.772025 0.511603 -0.377146 
0.737726 0.530143 -0.417981 
0.569389 0.682809 -0.457786 
0.587327 0.585395 -0.558892 
0.385315 0.594725 -0.705574 
0.190181 0.672991 -0.714783 
-0.086776 0.651410 -0.753747 
0.176648 0.603266 -0.777731 
0.043238 0.729982 -0.682097 
-0.011768 0.616581 -0.787204 
0.020618 0.655706 -0.754735 
0.023394 0.506123 -0.862144 
0.074118 0.472557 -0.878178 
0.065818 0.658082 -0.750064 
0.281948 0.586931 -0.758958 
-0.004778 0.605975 -0.795469 
-0.017760 0.532223 -0.846418 
0.055056 0.451022 -0.890813 
0.097646 0.579280 -0.809259 
0.047029 0.590516 -0.805655 
