-0.210501 0.554984 0.804787 
-0.308079 0.610327 0.729786 
-0.361965 0.566259 0.740495 
-0.292429 0.510330 0.808733 
-0.259252 0.462574 0.847829 
-0.145275 0.580306 0.801336 
-0.392958 0.605673 0.691913 
-0.422085 0.531705 0.734258 
-0.193484 0.454642 0.869405 
-0.302413 0.663371 0.684460 
-0.179925 0.395791 0.900542 
-0.473873 0.487097 0.733608 
-0.262782 0.400697 0.877717 
-0.091648 0.618613 0.780332 
-0.266023 0.711399 0.650495 
-0.531163 0.469723 0.705143 
-0.354141 0.680164 0.641842 
-0.198688 0.721156 0.663669 
-0.030143 0.598484 0.800567 
-0.484527 0.426802 0.763592 
-0.357129 0.485264 0.798109 
-0.126678 0.449336 0.884336 
-0.385381 0.425709 0.818690 
-0.416883 0.666422 0.618134 
-0.080831 0.671051 0.736992 
-0.251435 0.340986 0.905820 
-0.277811 0.751824 0.597981 
-0.467907 0.554274 0.688363 
-0.237668 0.661474 0.711313 
-0.314439 0.774953 0.548249 
-0.346733 0.726528 0.593240 
-0.093228 0.546795 0.832060 
-0.328332 0.384469 0.862776 
-0.155078 0.517114 0.841751 
0.020325 0.632502 0.774292 
-0.165086 0.683516 0.711022 
-0.068073 0.483080 0.872926 
