-0.777342 0.488785 -0.402280 
-0.854347 0.422035 -0.311412 
-0.871333 0.444689 -0.246617 
-0.760506 0.465891 -0.467029 
-0.721430 0.495923 -0.517736 
-0.853492 0.504894 -0.214105 
-0.681844 0.528679 -0.566315 
-0.784624 0.403070 -0.488751 
-0.649134 0.537423 -0.628392 
-0.745556 0.551758 -0.397380 
-0.910254 0.389032 -0.226934 
-0.932030 0.326982 -0.252928 
-0.812896 0.546261 -0.254612 
-0.642466 0.499982 -0.688005 
-0.681236 0.443950 -0.669105 
-0.777256 0.366531 -0.548840 
-0.887659 0.492213 -0.153510 
-0.609979 0.592447 -0.649351 
-0.704895 0.594705 -0.436140 
-0.946851 0.268596 -0.289961 
-0.689780 0.390309 -0.714379 
-0.781657 0.316666 -0.598781 
-0.964788 0.208339 -0.322323 
-0.921036 0.481706 -0.092065 
-0.712116 0.439763 -0.605632 
-0.946774 0.187353 -0.387400 
-0.810416 0.253225 -0.610953 
-1.004449 0.154978 -0.298248 
-0.697267 0.647554 -0.389785 
-0.691674 0.566264 -0.499514 
-0.572318 0.616407 -0.704192 
-0.641460 0.578212 -0.596575 
-0.689484 0.700538 -0.343610 
-0.912296 0.330223 -0.292816 
-0.650924 0.757059 -0.361459 
-0.946328 0.142514 -0.442075 
-0.799593 0.426558 -0.427432 
-0.806873 0.508004 -0.313775 
-0.540953 0.679499 -0.698216 
-0.890450 0.315822 -0.358507 
-0.884527 0.327396 -0.357784 
-0.617445 0.819341 -0.361143 
-0.514930 0.673053 -0.763648 
-1.042165 0.130810 -0.243536 
-0.890055 0.544889 -0.085130 
-0.956721 0.087348 -0.485071 
-0.702794 0.728848 -0.280196 
-0.849575 0.593550 -0.116648 
-0.961713 0.436697 -0.055738 
-0.791911 0.261612 -0.641953 
