-0.394928 -0.683602 -0.613776 
-0.305557 -0.722578 -0.620093 
-0.173477 -0.760178 -0.626127 
-0.348670 -0.705251 -0.617293 
-0.412543 -0.674473 -0.612286 
-0.503374 -0.618759 -0.603118 
-0.198338 -0.699806 -0.686246 
-0.305342 -0.620106 -0.722658 
-0.242375 -0.623436 -0.743359 
-0.222097 -0.624328 -0.748925 
-0.327844 -0.628602 -0.705251 
-0.345926 -0.617484 -0.706434 
-0.380299 -0.690805 -0.614948 
-0.164430 -0.735053 -0.657769 
-0.354022 -0.664722 -0.657886 
-0.357856 -0.701211 -0.616638 
-0.291038 -0.727826 -0.620939 
-0.221400 -0.720900 -0.656723 
0.163844 -0.710386 -0.684476 
0.174328 -0.760006 -0.626100 
0.332294 -0.712146 -0.618409 
0.493263 -0.625735 -0.604274 
0.529150 -0.600000 -0.600000 
0.443347 -0.657260 -0.609469 
0.400315 -0.613329 -0.680864 
0.415121 -0.612061 -0.673094 
0.527727 -0.600179 -0.601074 
0.433740 -0.610378 -0.662804 
0.529150 -0.600000 -0.600000 
0.439143 -0.654759 -0.615178 
0.480452 -0.630903 -0.609202 
0.485205 -0.631147 -0.605169 
0.364386 -0.698262 -0.616159 
0.203365 -0.717988 -0.665685 
0.345045 -0.617545 -0.706811 
0.231617 -0.746377 -0.623919 
0.250115 -0.741096 -0.623072 
0.164237 -0.697633 -0.697377 
0.189387 -0.721585 -0.665919 
0.186455 -0.628450 -0.755172 
0.211227 -0.624771 -0.751694 
0.305927 -0.620071 -0.722441 
0.162469 -0.751314 -0.639633 
0.269608 -0.705206 -0.655741 
0.165760 -0.643083 -0.747641 
0.438528 -0.609928 -0.660061 
0.372173 -0.615575 -0.694662 
0.482850 -0.605426 -0.632704 
0.210482 -0.705335 -0.676904 
0.455654 -0.649920 -0.608263 
