0.447846 -0.609033 -0.654609 
0.504640 -0.602971 -0.617871 
0.409019 -0.612591 -0.676340 
0.352325 -0.658784 -0.664734 
0.302664 -0.703110 -0.643453 
0.390209 -0.614160 -0.685962 
0.529150 -0.600000 -0.600000 
0.369438 -0.615782 -0.695937 
0.372473 -0.615552 -0.694521 
0.354819 -0.616857 -0.702561 
0.529150 -0.600000 -0.600000 
0.529150 -0.600000 -0.600000 
0.332568 -0.618390 -0.712033 
0.529150 -0.600000 -0.600000 
0.281149 -0.731237 -0.621488 
0.295826 -0.620665 -0.726128 
0.239489 -0.700859 -0.671894 
0.529150 -0.600000 -0.600000 
0.259192 -0.622630 -0.738343 
0.214112 -0.624656 -0.750974 
0.313027 -0.619639 -0.719765 
0.176030 -0.722930 -0.668121 
0.523446 -0.604276 -0.600712 
0.166487 -0.626348 -0.761558 
0.240416 -0.743919 -0.623525 
0.187556 -0.757218 -0.625655 
0.507041 -0.616177 -0.602690 
0.163534 -0.720085 -0.674340 
0.422554 -0.611401 -0.669056 
0.477739 -0.636047 -0.605978 
0.467578 -0.642543 -0.607049 
0.469486 -0.606851 -0.641339 
0.420405 -0.670234 -0.611594 
0.166181 -0.626357 -0.761617 
0.529150 -0.600000 -0.600000 
0.163566 -0.719103 -0.675380 
0.162451 -0.751826 -0.639036 
0.453670 -0.623818 -0.636423 
0.164544 -0.687328 -0.707464 
0.517443 -0.601448 -0.608698 
0.529150 -0.600000 -0.600000 
-0.162448 -0.751914 -0.638933 
0.344942 -0.617552 -0.706855 
0.295111 -0.646440 -0.703580 
0.529150 -0.600000 -0.600000 
-0.165333 -0.659283 -0.733492 
0.166181 -0.626357 -0.761617 
0.529150 -0.600000 -0.600000 
0.373437 -0.615478 -0.694068 
0.529150 -0.600000 -0.600000 
