0.650515 -0.062278 -0.760231 
0.552795 -0.112451 -0.828718 
0.634640 0.003106 -0.781977 
0.685783 0.037493 -0.747308 
0.595465 0.048911 -0.818952 
0.713298 0.101501 -0.735227 
0.557436 0.096199 -0.855253 
0.609231 -0.183325 -0.774744 
0.583799 -0.248495 -0.785043 
0.542528 -0.300431 -0.809527 
0.553776 0.165633 -0.868117 
0.576344 -0.352568 -0.775790 
0.501271 0.184547 -0.911539 
0.764165 0.136609 -0.700876 
0.700265 -0.089181 -0.717790 
0.504122 0.254754 -0.919468 
0.570942 0.109169 -0.846659 
0.593720 -0.316289 -0.767564 
0.464703 0.300234 -0.956586 
0.737799 -0.137085 -0.681784 
0.487233 -0.318353 -0.849791 
0.432880 -0.341671 -0.888547 
0.417629 -0.410692 -0.890399 
0.465463 0.370295 -0.966115 
0.816649 0.167104 -0.664606 
0.789894 -0.105386 -0.645989 
0.821340 -0.159898 -0.613746 
0.860254 -0.206047 -0.576923 
0.868507 0.199504 -0.629096 
0.414174 0.393044 -1.009148 
0.924144 0.214637 -0.588163 
0.373020 0.340965 -1.033521 
0.363489 -0.434996 -0.928846 
0.321040 0.361612 -1.076786 
0.307760 -0.432998 -0.972324 
0.870258 0.269646 -0.637868 
0.253249 -0.422404 -1.016100 
0.854600 0.335134 -0.659461 
0.910403 -0.231935 -0.534320 
0.312138 0.429734 -1.093523 
0.509348 0.054872 -0.886552 
0.967137 0.264317 -0.562019 
0.197379 -0.434943 -1.057588 
0.268576 0.469064 -1.132963 
0.584831 -0.420817 -0.759357 
0.960152 -0.258839 -0.491880 
0.143700 -0.420461 -1.101279 
0.586137 -0.490640 -0.748261 
0.972033 -0.325934 -0.472983 
0.709467 0.031259 -0.728053 
