-0.416344 -0.638903 -0.656805 
-0.427525 -0.806550 -0.476764 
-0.384108 -0.814283 -0.474010 
-0.441182 -0.565612 -0.724885 
-0.210193 -0.641901 -0.773008 
-0.201071 -0.403978 -0.937830 
-0.297880 -0.764691 -0.617833 
-0.194516 -0.641246 -0.767079 
-0.167248 -0.546104 -0.828897 
0.063474 -0.690743 -0.758776 
0.131442 -0.652484 -0.747447 
0.290617 -0.636952 -0.725195 
0.247034 -0.733634 -0.646616 
0.483574 -0.656359 -0.630443 
0.350581 -0.658471 -0.680254 
0.387978 -0.714076 -0.592950 
0.437617 -0.673664 -0.598912 
0.561242 -0.689325 -0.491160 
0.459904 -0.652628 -0.606342 
0.405966 -0.766176 -0.521641 
0.289160 -0.623514 -0.746631 
0.510665 -0.603580 -0.657390 
0.317507 -0.731661 -0.640432 
0.217761 -0.902442 -0.458225 
0.136924 -0.648580 -0.772508 
0.171677 -0.411189 -0.941364 
0.231762 -0.627650 -0.746244 
0.454574 -0.575733 -0.717667 
0.424805 -0.751218 -0.539341 
0.448846 -0.663088 -0.601782 
0.135455 -0.758760 -0.725273 
0.119193 -0.800186 -0.601128 
0.303158 -0.809284 -0.532928 
0.408131 -0.825470 -0.453110 
0.341398 -0.795644 -0.519238 
0.452618 -0.747022 -0.516491 
0.483602 -0.534655 -0.716911 
0.667037 -0.580093 -0.529720 
0.659667 -0.564644 -0.520251 
0.530713 -0.507991 -0.690631 
0.663140 -0.465988 -0.624587 
0.509104 -0.614983 -0.602696 
0.367978 -0.680059 -0.654978 
0.287427 -0.732444 -0.625183 
0.237752 -0.935722 -0.401895 
-0.112518 -0.785819 -0.688803 
-0.250696 -0.598804 -0.792103 
-0.282854 -0.569787 -0.775348 
-0.020133 -0.672733 -0.784645 
-0.126476 -0.646731 -0.753215 
