0.623356 0.332286 -0.707823 
0.605421 0.248516 -0.756112 
0.646657 0.160725 -0.745655 
0.526181 0.263160 -0.808629 
0.726362 0.400629 -0.558476 
0.694817 0.084031 -0.714260 
0.475830 0.202901 -0.855814 
0.468661 0.339646 -0.815474 
0.411918 0.414160 -0.811662 
0.548983 0.387602 -0.740529 
0.789541 0.343329 -0.508675 
0.749978 0.029596 -0.660800 
0.732647 0.259134 -0.629348 
0.675779 0.197083 -0.710268 
0.836322 0.345887 -0.425357 
0.829165 0.420802 -0.367982 
0.873710 0.259596 -0.411389 
0.664030 0.005932 -0.747682 
0.778856 0.107403 -0.617938 
0.895075 0.169028 -0.412638 
0.709440 -0.038049 -0.703738 
0.754174 0.117027 -0.646163 
0.452210 0.293186 -0.842346 
0.574864 0.295399 -0.763067 
0.451327 0.122941 -0.883849 
0.666522 0.478443 -0.571699 
0.651218 0.555827 -0.516693 
0.592435 0.012503 -0.805522 
0.807859 0.026146 -0.588795 
0.719909 0.522354 -0.457032 
0.654577 0.399834 -0.641608 
0.783176 0.471698 -0.405138 
0.852590 0.170347 -0.494037 
0.592915 0.627280 -0.504947 
0.586718 0.101854 -0.803360 
0.608354 0.250087 -0.753234 
0.682653 0.473934 -0.556211 
0.351199 0.479623 -0.804127 
0.417623 0.509999 -0.751992 
0.387416 0.183606 -0.903437 
0.500478 0.183766 -0.846021 
0.503215 0.326978 -0.799912 
0.643860 0.634889 -0.427036 
0.372541 0.319920 -0.871128 
0.583798 0.013405 -0.811789 
0.736688 0.561960 -0.376155 
0.535091 0.475000 -0.698608 
0.869352 0.398746 -0.291938 
0.767470 -0.062645 -0.638017 
0.552879 0.383502 -0.739764 
0.770635 0.564968 -0.294843 
0.612338 0.464351 -0.639859 
0.698029 0.307050 -0.646898 
0.532560 0.378106 -0.757242 
0.797189 0.563543 -0.216584 
0.476914 0.037810 -0.878137 
0.901996 0.079499 -0.424362 
0.906753 0.317057 -0.277983 
0.880728 0.400402 -0.252974 
0.894733 -0.005367 -0.446568 
0.866129 0.135469 -0.481112 
0.895548 0.313367 -0.315904 
0.448997 -0.034316 -0.892874 
0.355475 0.570374 -0.740480 
0.616839 0.353683 -0.703148 
0.506620 0.355233 -0.785586 
0.504287 0.179434 -0.844688 
0.796701 0.504488 -0.332807 
0.485999 0.420189 -0.766320 
0.655233 -0.087253 -0.750371 
0.631233 0.025049 -0.775188 
0.683536 0.231739 -0.692152 
0.924799 -0.035394 -0.378806 
0.767924 0.204322 -0.607080 
0.470405 0.542806 -0.695759 
0.927063 0.175331 -0.331380 
0.928241 0.024214 -0.371189 
0.344091 0.639948 -0.687072 
0.694871 0.627322 -0.351600 
0.568763 0.174893 -0.803692 
0.936092 0.088445 -0.340455 
0.657219 0.461216 -0.596107 
0.598804 -0.131446 -0.790035 
0.783196 0.285175 -0.552521 
0.698043 0.302244 -0.649141 
0.615505 0.694044 -0.373440 
0.487565 0.460976 -0.741472 
0.921342 -0.047620 -0.385826 
0.655043 0.014753 -0.755448 
0.891983 0.225887 -0.391588 
0.579170 0.574182 -0.578685 
0.750707 0.594174 -0.288783 
0.838317 0.233612 -0.492596 
0.557216 -0.067042 -0.827657 
0.662017 0.234535 -0.711847 
0.740955 0.428935 -0.516720 
0.475221 0.203222 -0.856076 
0.646487 0.023055 -0.762577 
0.791286 0.277341 -0.544930 
0.646989 0.702967 -0.295369 
0.946895 -0.061461 -0.315613 
0.786870 0.401150 -0.468950 
0.853513 0.065853 -0.516894 
0.572446 0.263528 -0.776440 
0.886458 -0.043272 -0.460782 
0.891561 0.080737 -0.445646 
0.927279 0.233811 -0.292381 
0.832144 0.389731 -0.394521 
0.674466 0.446706 -0.587835 
0.278611 0.584654 -0.761942 
0.789525 0.018481 -0.613440 
0.533228 0.486383 -0.692170 
0.847490 0.428716 -0.312992 
