-0.418293 0.903214 -0.119310 
-0.355230 0.937382 -0.011224 
-0.472576 0.883236 -0.039563 
-0.305369 0.962113 0.032391 
-0.503952 0.872583 0.022903 
-0.254401 0.982526 -0.012169 
-0.568047 0.844391 0.032759 
-0.621729 0.818261 -0.005128 
-0.663635 0.796601 -0.057804 
-0.653771 0.807287 0.056944 
-0.192710 1.011229 0.007077 
-0.650575 0.812566 0.127385 
-0.659211 0.812526 0.197567 
-0.211900 1.006333 0.074957 
-0.715729 0.778518 0.038681 
-0.579927 0.842871 0.102448 
-0.697554 0.778163 -0.117045 
-0.447358 0.886783 -0.181642 
-0.392123 0.909474 -0.219512 
-0.159602 1.022716 -0.054339 
-0.187940 1.020620 0.139933 
-0.405188 0.899860 -0.288337 
-0.464530 0.893253 0.077845 
-0.364831 0.937038 0.061297 
-0.762173 0.760439 0.088841 
-0.418907 0.889963 -0.356994 
-0.594413 0.840154 0.171606 
-0.099078 1.051103 -0.031295 
-0.271384 0.981245 0.103807 
-0.679135 0.807288 0.265210 
-0.639744 0.810859 0.007204 
-0.345865 0.927890 -0.261971 
-0.186715 1.025022 0.210496 
-0.309812 0.960418 0.037832 
-0.768704 0.752642 -0.000357 
-0.219117 1.013875 0.272350 
-0.439009 0.877316 -0.423597 
-0.164239 1.040429 0.308173 
-0.155307 1.027867 0.004738 
-0.282566 0.986225 0.286828 
-0.670848 0.814815 0.335028 
-0.061170 1.071164 0.024924 
-0.286405 0.980661 0.216442 
-0.736316 0.757758 -0.172553 
-0.450007 0.881748 -0.252123 
-0.713465 0.783593 0.113053 
-0.124857 1.051566 0.188840 
-0.010316 1.096264 0.067160 
-0.313988 0.954415 -0.037841 
-0.732802 0.778629 0.180886 
