-0.969348 -0.166892 -0.193678 
-0.987691 -0.158081 -0.066905 
-0.986408 -0.070123 -0.164567 
-0.957282 -0.232511 -0.217099 
-0.944907 -0.296566 -0.244373 
-0.999376 -0.138759 0.000104 
-0.993973 -0.001085 -0.177851 
-1.007258 0.045566 -0.126400 
-1.011792 -0.110782 0.063846 
-0.938981 -0.273762 -0.311043 
-0.988612 0.024803 -0.243433 
-1.024949 -0.054817 0.105015 
-0.933148 -0.250443 -0.377543 
-1.037974 0.003457 0.142890 
-1.050037 0.069093 0.166266 
-0.985778 0.063122 -0.302793 
-0.985961 0.113733 -0.352175 
-0.937854 -0.364976 -0.227934 
-0.973901 -0.003265 -0.324046 
-1.056314 0.136323 0.145274 
-1.020151 0.105510 -0.091178 
-0.992383 -0.127241 -0.063140 
-0.991816 0.180214 -0.375541 
-0.937835 -0.414985 -0.177942 
-0.940742 -0.452975 -0.118374 
-1.061350 0.084642 0.234312 
-1.004264 0.243822 -0.347274 
-1.017191 0.279821 -0.287802 
-1.066009 0.206350 0.146754 
-1.011471 -0.161891 0.112711 
-0.923272 -0.253495 -0.447494 
-0.928114 -0.515345 -0.149204 
-0.910187 -0.310843 -0.486737 
-1.075545 0.276415 0.147010 
-1.062669 0.039825 0.288990 
-0.897067 -0.367573 -0.526856 
-1.008124 -0.222594 0.148821 
-0.988139 0.214617 -0.437209 
-1.088845 0.326326 0.195301 
-0.990128 0.271348 -0.479371 
-1.054617 0.190021 0.078904 
-1.097104 0.396000 0.186509 
-0.928952 -0.562085 -0.096150 
-0.933526 -0.592072 -0.032277 
-0.901398 -0.398782 -0.463554 
-1.107412 0.402545 0.256158 
-1.013715 -0.247243 0.214860 
-0.921455 -0.657668 -0.055759 
-1.120086 0.434228 0.318090 
-0.908160 -0.705256 -0.106342 
