0.404134 0.393735 -0.825620 
0.276348 0.435939 -0.856498 
0.467020 0.379522 -0.798658 
0.499818 0.422997 -0.755815 
0.498762 0.318348 -0.806158 
0.267796 0.497986 -0.824800 
0.508327 0.478304 -0.716121 
0.242608 0.384520 -0.890666 
0.554746 0.292922 -0.778752 
0.607640 0.286862 -0.740597 
0.531988 0.238018 -0.812611 
0.206740 0.530307 -0.822213 
0.523200 0.525257 -0.671094 
0.501095 0.186654 -0.845023 
0.646565 0.313047 -0.695669 
0.689895 0.281691 -0.666854 
0.139728 0.533755 -0.834016 
0.536757 0.567515 -0.624355 
0.497545 0.122579 -0.858733 
0.074247 0.541541 -0.837389 
0.515914 0.063334 -0.854296 
0.516749 0.619041 -0.591405 
0.207441 0.332214 -0.920110 
0.047248 0.590851 -0.805396 
0.485214 0.011887 -0.874315 
0.460502 -0.041485 -0.886689 
-0.014712 0.592114 -0.805720 
0.479839 0.666840 -0.570157 
0.723456 0.236995 -0.648417 
0.491113 -0.084335 -0.867004 
-0.023191 0.640407 -0.767686 
0.439170 0.115763 -0.890914 
-0.066859 0.562664 -0.823978 
0.746989 0.273501 -0.605974 
-0.119740 0.537231 -0.834892 
0.455937 0.710504 -0.536009 
0.478042 0.729878 -0.488624 
0.770377 0.301966 -0.561548 
-0.054458 0.675458 -0.735385 
0.799631 0.301318 -0.519420 
0.284255 0.551840 -0.784010 
0.397459 0.070911 -0.914876 
0.519651 0.725831 -0.450701 
0.743148 0.182208 -0.643841 
-0.163597 0.560416 -0.811893 
0.542504 0.117834 -0.831748 
0.462130 0.654781 -0.598078 
-0.097259 0.695813 -0.711607 
-0.120630 0.725885 -0.677156 
0.521812 -0.122050 -0.844284 
