-0.036381 0.997676 -0.057615 
0.144066 0.987796 -0.059187 
0.361342 0.932428 -0.002998 
0.532321 0.826277 -0.184119 
0.423643 0.826711 -0.370238 
0.242827 0.920806 -0.305208 
0.067308 0.929902 -0.361596 
-0.170884 0.898269 -0.404860 
-0.364534 0.807607 -0.463558 
-0.436289 0.829513 -0.348654 
-0.422174 0.759977 -0.494169 
-0.407662 0.625942 -0.664837 
-0.503512 0.722031 -0.474497 
-0.387268 0.766519 -0.512321 
-0.534150 0.632253 -0.561195 
-0.722453 0.540886 -0.430702 
-0.478355 0.663219 -0.575601 
-0.645872 0.657748 -0.387578 
-0.575452 0.716586 -0.394156 
-0.662057 0.561473 -0.496415 
-0.528513 0.526822 -0.665682 
-0.378661 0.640625 -0.667993 
-0.510679 0.620457 -0.595181 
-0.456416 0.632454 -0.625848 
-0.374551 0.469306 -0.799665 
-0.506168 0.345799 -0.790074 
-0.522342 0.214526 -0.825310 
-0.627304 0.361701 -0.689683 
-0.641988 0.311720 -0.700487 
-0.672157 0.172510 -0.720031 
-0.572710 0.394410 -0.718640 
-0.736399 0.363849 -0.570377 
-0.808489 0.343094 -0.478155 
-0.615328 0.506149 -0.604305 
-0.541451 0.317658 -0.778411 
-0.632838 0.302111 -0.712913 
-0.599483 0.101580 -0.793915 
-0.590474 -0.112981 -0.799109 
-0.602475 -0.331818 -0.725893 
-0.581478 -0.151427 -0.799346 
-0.390255 -0.045178 -0.919598 
-0.561618 0.174648 -0.808754 
-0.660565 0.162910 -0.732881 
-0.748190 0.302878 -0.590319 
-0.897579 0.196086 -0.394844 
-0.848448 0.104481 -0.518863 
-0.899229 0.044081 -0.435251 
-0.948360 -0.122707 -0.292499 
-0.864621 -0.154229 -0.478168 
-0.900777 0.046555 -0.431779 
