0.680514 -0.278840 0.681284 
0.648617 -0.340514 0.694664 
0.648681 -0.239794 0.730903 
0.742737 -0.165719 0.652594 
0.599886 -0.355669 0.743609 
0.789819 -0.166236 0.599840 
0.830716 -0.187887 0.546373 
0.879125 -0.178586 0.495677 
0.676127 -0.385635 0.647682 
0.560961 -0.409594 0.767628 
0.869871 -0.247193 0.481274 
0.878710 -0.309462 0.448956 
0.927217 -0.285451 0.403454 
0.680312 -0.450419 0.619653 
0.638977 -0.178061 0.763993 
0.831054 -0.220768 0.534141 
0.679855 -0.277175 0.682621 
0.876190 -0.376791 0.427497 
0.522206 -0.383036 0.820474 
0.613969 -0.129867 0.809291 
0.917742 -0.124221 0.472159 
0.939719 -0.057012 0.471852 
0.578393 -0.465508 0.728007 
0.652725 -0.515094 0.627138 
0.668314 -0.572569 0.589012 
0.725279 -0.460117 0.565951 
0.841057 -0.119196 0.559591 
0.915558 -0.354194 0.391688 
0.597487 -0.290085 0.769932 
0.889814 -0.102227 0.511271 
0.956408 -0.221771 0.393820 
1.003195 -0.186382 0.354340 
0.643955 -0.066733 0.798572 
0.887173 -0.437689 0.393280 
0.595261 -0.080678 0.847912 
0.882312 -0.039171 0.542379 
0.650761 0.001560 0.815594 
0.955718 -0.188147 0.406712 
0.481210 -0.361630 0.873963 
0.802946 -0.091281 0.612205 
0.443908 -0.417754 0.895378 
0.614897 0.033849 0.867277 
0.856132 -0.500044 0.405457 
0.644179 0.097468 0.857519 
0.692936 0.114622 0.809265 
0.672659 -0.637277 0.560833 
0.683439 0.045993 0.795127 
0.729902 -0.297914 0.619265 
0.628839 -0.386267 0.700251 
0.464446 -0.305138 0.913047 
