-0.466515 0.620864 -0.629993 
-0.533065 0.645303 -0.547198 
-0.417933 0.611813 -0.671577 
-0.575668 0.653014 -0.492116 
-0.407777 0.612698 -0.676993 
-0.542019 0.639937 -0.544698 
-0.617530 0.653745 -0.437348 
-0.357098 0.616693 -0.701549 
-0.566402 0.595015 -0.570216 
-0.593696 0.701331 -0.394538 
-0.304818 0.652008 -0.694241 
-0.579106 0.593173 -0.559270 
-0.546808 0.710232 -0.443365 
-0.249723 0.686755 -0.682647 
-0.624012 0.585992 -0.516935 
-0.388468 0.614300 -0.686824 
-0.199874 0.666625 -0.718095 
-0.214397 0.730314 -0.648595 
-0.612040 0.588016 -0.528814 
-0.199727 0.773351 -0.601695 
-0.472617 0.677312 -0.563810 
-0.164589 0.685770 -0.708964 
-0.664519 0.603123 -0.441199 
-0.663669 0.578629 -0.474058 
-0.699854 0.570849 -0.429344 
-0.349344 0.617245 -0.704959 
-0.677223 0.575848 -0.458005 
-0.491931 0.751607 -0.439421 
-0.626261 0.585603 -0.514652 
-0.437294 0.789988 -0.429760 
-0.390881 0.614106 -0.685628 
-0.606793 0.721482 -0.333564 
-0.649710 0.581345 -0.489811 
-0.431369 0.610598 -0.664147 
-0.160915 0.791685 -0.589357 
-0.435721 0.762852 -0.477707 
-0.415033 0.826034 -0.381334 
-0.232692 0.623872 -0.746082 
-0.710796 0.578898 -0.399558 
-0.364428 0.857939 -0.362124 
-0.410350 0.704875 -0.578589 
-0.338615 0.885898 -0.317055 
-0.704673 0.569721 -0.422911 
-0.565738 0.595109 -0.570776 
-0.415813 0.612000 -0.672722 
-0.630500 0.584859 -0.510303 
-0.709475 0.568573 -0.416377 
-0.550111 0.597269 -0.583650 
-0.669668 0.577416 -0.467049 
-0.176145 0.700479 -0.691594 
