-0.548903 0.746237 -0.376611 
-0.450615 0.830192 -0.328218 
-0.598346 0.699090 -0.391478 
-0.560852 0.694740 -0.450312 
-0.516582 0.692440 -0.503657 
-0.556920 0.642531 -0.526301 
-0.587635 0.591892 -0.551679 
-0.579582 0.593102 -0.558851 
-0.646929 0.679693 -0.345688 
-0.634699 0.584112 -0.505935 
-0.561183 0.595750 -0.574592 
-0.458554 0.707546 -0.537686 
-0.466094 0.843476 -0.267030 
-0.687637 0.645119 -0.333131 
-0.610260 0.624910 -0.486899 
-0.618275 0.722685 -0.308971 
-0.396869 0.734841 -0.550003 
-0.703394 0.624630 -0.339226 
-0.394236 0.865992 -0.307629 
-0.546942 0.597694 -0.586188 
-0.335279 0.748635 -0.571956 
-0.678122 0.656911 -0.329572 
-0.471821 0.739714 -0.479800 
-0.363529 0.896322 -0.253879 
-0.697860 0.631969 -0.337055 
-0.587753 0.591874 -0.551572 
-0.731153 0.585196 -0.350658 
-0.675844 0.659674 -0.328733 
-0.423174 0.817015 -0.391677 
-0.671018 0.665451 -0.326971 
-0.349003 0.905107 -0.242855 
-0.565689 0.764143 -0.309970 
-0.290553 0.927997 -0.233239 
-0.647288 0.678984 -0.346409 
-0.674342 0.576452 -0.461483 
-0.473909 0.838519 -0.268880 
-0.456084 0.849658 -0.264704 
-0.398308 0.692789 -0.601160 
-0.608639 0.588576 -0.532106 
-0.286323 0.787267 -0.546104 
-0.662404 0.675518 -0.323877 
-0.502920 0.717462 -0.481996 
-0.417414 0.871858 -0.256180 
-0.613844 0.587716 -0.527053 
-0.705341 0.569563 -0.422010 
-0.738915 0.573291 -0.354036 
-0.733340 0.581884 -0.351601 
-0.413180 0.645229 -0.642621 
-0.737508 0.575481 -0.353417 
-0.396809 0.721341 -0.567635 
