0.495255 0.412026 -0.768087 
0.435502 0.415210 -0.805764 
0.543482 0.481965 -0.690896 
0.603517 0.477603 -0.653791 
0.391935 0.386314 -0.853376 
0.420957 0.325082 -0.873584 
0.334419 0.425310 -0.866460 
0.386836 0.285903 -0.921550 
0.626907 0.525505 -0.607333 
0.278110 0.466713 -0.877190 
0.447140 0.530317 -0.723761 
0.246138 0.527224 -0.859409 
0.184532 0.542135 -0.890752 
0.149919 0.601817 -0.875262 
0.154953 0.498943 -0.938287 
0.544655 0.361434 -0.767880 
0.679736 0.540237 -0.562701 
0.714968 0.578353 -0.514682 
0.770999 0.586315 -0.472289 
0.758314 0.648307 -0.440727 
0.373001 0.232188 -0.965405 
0.821203 0.536536 -0.471023 
0.583168 0.303333 -0.779757 
0.770244 0.702991 -0.397514 
0.882662 0.523469 -0.438588 
0.364863 0.175754 -1.007226 
0.943546 0.495235 -0.416320 
0.992299 0.516913 -0.369917 
0.384131 0.113469 -1.034599 
0.644258 0.276300 -0.756578 
0.664713 0.451280 -0.630083 
1.046515 0.472081 -0.362791 
0.932236 0.521397 -0.406961 
0.762151 0.764347 -0.363310 
0.769305 0.821197 -0.321874 
0.763032 0.882207 -0.286683 
0.089554 0.632522 -0.895590 
0.034504 0.622316 -0.938779 
0.387734 0.564458 -0.741234 
1.102663 0.430385 -0.352358 
0.354697 0.070157 -1.082114 
0.682196 0.217937 -0.769006 
0.711667 0.156802 -0.788853 
0.117104 0.463470 -0.986340 
0.762619 0.941748 -0.248543 
-0.010356 0.676720 -0.933507 
1.133538 0.472484 -0.304667 
1.149366 0.377386 -0.355498 
-0.072019 0.698123 -0.960701 
0.371623 0.626697 -0.711792 
