0.772646 0.551890 -0.313745 
0.814571 0.497781 -0.297807 
0.728303 0.606474 -0.319005 
0.845795 0.477191 -0.238578 
0.680611 0.657754 -0.322688 
0.658442 0.701437 -0.272837 
0.623272 0.746090 -0.234267 
0.726238 0.572657 -0.380318 
0.643498 0.664121 -0.380596 
0.775008 0.527843 -0.347481 
0.667992 0.719836 -0.188742 
0.691421 0.711750 -0.123893 
0.866205 0.419865 -0.270930 
0.891101 0.358235 -0.278579 
0.709139 0.658750 -0.251337 
0.912883 0.346676 -0.215548 
0.604054 0.667670 -0.435127 
0.712522 0.545074 -0.441822 
0.731266 0.677546 -0.078621 
0.909885 0.297364 -0.289283 
0.932388 0.326114 -0.155891 
0.944774 0.314130 -0.093402 
0.799107 0.567623 -0.198071 
0.726464 0.491125 -0.480673 
0.650423 0.754038 -0.091524 
0.730242 0.613987 -0.299610 
0.752150 0.431571 -0.498012 
0.783258 0.372977 -0.497389 
0.664238 0.614993 -0.424937 
0.557612 0.677559 -0.479565 
0.640798 0.767205 -0.027835 
0.929130 0.238919 -0.282196 
0.572741 0.788297 -0.224847 
0.635253 0.758767 -0.143968 
0.937251 0.346726 -0.036636 
0.913329 0.220831 -0.342146 
0.564592 0.633701 -0.528828 
0.772254 0.331366 -0.542051 
0.590545 0.751434 -0.294286 
0.918908 0.310313 -0.243545 
0.959585 0.277364 -0.047596 
0.536716 0.782847 -0.314779 
0.504349 0.710020 -0.491430 
0.748927 0.631820 -0.199782 
0.771489 0.460041 -0.439508 
0.518870 0.671855 -0.528569 
0.949863 0.293888 -0.106722 
0.512735 0.633965 -0.578956 
0.871453 0.350377 -0.343229 
0.627162 0.705795 -0.329424 
