-0.226074 0.659169 0.720685 
-0.127290 0.625980 0.772623 
-0.165662 0.578453 0.808242 
-0.116083 0.716837 0.691136 
-0.061747 0.615079 0.796815 
-0.135575 0.764628 0.642803 
-0.139049 0.763430 0.643161 
-0.040759 0.567786 0.845011 
-0.066488 0.779658 0.643813 
0.026083 0.590026 0.838879 
-0.290876 0.671583 0.695256 
0.044085 0.642153 0.794622 
-0.066544 0.658139 0.756017 
-0.223043 0.542675 0.828915 
-0.043490 0.515584 0.892629 
-0.059007 0.832111 0.596987 
-0.062794 0.883577 0.548645 
-0.036718 0.934570 0.507175 
0.009771 0.830470 0.613325 
-0.003244 0.862832 0.580636 
-0.215999 0.608846 0.769327 
-0.101826 0.946374 0.482243 
0.113363 0.656176 0.796604 
0.079579 0.839557 0.619979 
0.146359 0.613934 0.842723 
0.216197 0.621885 0.850432 
-0.292630 0.530778 0.824903 
-0.033837 0.707552 0.717436 
0.149391 0.848537 0.626732 
-0.361822 0.530412 0.810329 
0.016498 0.495424 0.924174 
-0.284073 0.724015 0.648303 
-0.332890 0.484005 0.859420 
-0.306926 0.770649 0.600313 
-0.430796 0.531158 0.794775 
-0.011610 0.631961 0.792031 
-0.109028 0.997272 0.433689 
0.132849 0.663451 0.794085 
-0.272706 0.464114 0.890759 
0.081997 0.564904 0.874129 
-0.300043 0.823085 0.553375 
0.104736 0.707985 0.746901 
-0.250084 0.792149 0.592709 
-0.385440 0.478987 0.852728 
-0.041060 1.016523 0.430560 
-0.128206 0.831703 0.582451 
-0.472848 0.568118 0.751582 
-0.005756 0.811834 0.627189 
-0.154579 0.906663 0.507545 
0.220463 0.570492 0.898810 
