0.162932 0.738127 -0.654692 
0.180184 0.801747 -0.569855 
0.338673 0.647472 -0.682701 
0.353981 0.616917 -0.702931 
0.306933 0.655395 -0.690108 
0.370216 0.770425 -0.519023 
0.159817 0.816926 -0.554157 
0.163874 0.709423 -0.685467 
-0.162241 0.757608 -0.632225 
0.164300 0.695529 -0.699460 
0.166181 0.626357 -0.761617 
0.253439 0.622913 -0.740100 
0.190165 0.625563 -0.756643 
0.325776 0.669005 -0.668059 
0.172723 0.631942 -0.755524 
0.165466 0.654318 -0.737895 
0.166181 0.626357 -0.761617 
0.183853 0.625783 -0.758020 
0.173084 0.663482 -0.727897 
-0.165076 0.668653 -0.725020 
-0.283994 0.621332 -0.730269 
-0.518858 0.601276 -0.607663 
-0.432132 0.655594 -0.619241 
-0.530995 0.599767 -0.598602 
-0.563008 0.720484 -0.404877 
-0.448535 0.701398 -0.553948 
-0.354531 0.841934 -0.406762 
-0.232802 0.810766 -0.537086 
0.161240 0.783706 -0.599838 
-0.157640 0.860173 -0.485028 
-0.292076 0.813094 -0.503557 
-0.154785 0.905187 -0.395825 
0.157715 0.858823 -0.487390 
-0.156886 0.873258 -0.461311 
-0.153670 0.919647 -0.361434 
-0.163329 0.952276 -0.257863 
-0.353393 0.903189 -0.243643 
-0.295107 0.926385 -0.233930 
-0.472973 0.839119 -0.268656 
-0.524515 0.803480 -0.281610 
-0.444588 0.856533 -0.262094 
-0.254688 0.939723 -0.228157 
-0.189125 0.956873 -0.220512 
-0.148893 0.964772 -0.216900 
-0.148893 0.964772 -0.216900 
-0.372600 0.894462 -0.247200 
-0.447294 0.854936 -0.262703 
-0.429780 0.772192 -0.467984 
-0.507184 0.615019 -0.603751 
-0.619593 0.612773 -0.490524 
