0.379999 0.545231 -0.750549 
0.428750 0.429280 -0.798055 
0.395315 0.386962 -0.843786 
0.367066 0.606751 -0.718175 
0.486141 0.481628 -0.732599 
0.533718 0.509486 -0.688323 
0.371542 0.337716 -0.888616 
0.390674 0.276122 -0.917601 
0.332645 0.265505 -0.956588 
0.390674 0.656100 -0.673372 
0.573801 0.452968 -0.702433 
0.276549 0.250884 -0.997078 
0.368585 0.717507 -0.646146 
0.396080 0.764306 -0.600826 
0.454148 0.251916 -0.897978 
0.296651 0.189335 -1.025496 
0.304807 0.739418 -0.667413 
0.212472 0.266005 -1.022874 
0.330746 0.130373 -1.044497 
0.406175 0.820502 -0.559111 
0.349023 0.068752 -1.073973 
0.148999 0.290226 -1.042487 
0.636861 0.426468 -0.684515 
0.469060 0.793185 -0.541815 
0.409732 0.034392 -1.062408 
0.266568 0.701323 -0.713092 
0.330773 0.016332 -1.117781 
0.515628 0.822312 -0.497283 
0.210247 0.687139 -0.753425 
0.085215 0.312082 -1.063792 
0.528898 0.877160 -0.454674 
0.700625 0.404429 -0.663338 
0.760597 0.368338 -0.653295 
0.159550 0.736306 -0.749923 
0.780874 0.306799 -0.681610 
0.356083 -0.044696 -1.142978 
0.148445 0.797689 -0.716624 
0.032307 0.291854 -1.106118 
0.298002 -0.055196 -1.181918 
0.094677 0.843612 -0.716909 
0.335522 0.513618 -0.795520 
0.112216 0.896403 -0.673257 
0.512556 0.450891 -0.737714 
-0.030057 0.293879 -1.139383 
0.032133 0.872354 -0.733101 
0.843339 0.277751 -0.665659 
0.414727 -0.083470 -1.135395 
-0.071939 0.349461 -1.126872 
0.510125 0.208841 -0.894638 
0.274882 0.509659 -0.831675 
