-0.203043 0.932946 -0.297298 
-0.074055 0.944604 -0.319748 
-0.037068 0.925839 -0.376096 
-0.222606 0.947100 -0.231187 
-0.031740 0.963249 -0.266727 
-0.243616 0.955670 -0.165368 
-0.006587 0.901507 -0.432715 
-0.050019 0.875983 -0.479741 
-0.083460 0.844404 -0.529165 
-0.002034 0.978644 -0.205552 
-0.306851 0.933969 -0.183153 
-0.236771 0.966624 -0.097868 
0.052870 0.886408 -0.459875 
-0.270012 0.962004 -0.040525 
0.107757 0.866330 -0.487710 
-0.295413 0.955203 0.017823 
0.016660 0.859706 -0.510517 
0.168336 0.851830 -0.496032 
0.074213 0.913121 -0.400877 
0.227482 0.849864 -0.475377 
-0.132028 0.815035 -0.564169 
-0.369771 0.909897 -0.188034 
-0.093277 0.788684 -0.607682 
0.019295 0.989777 -0.141309 
-0.270338 0.959736 0.076315 
0.085877 0.987380 -0.133062 
-0.195768 0.796765 -0.571700 
-0.054426 0.761014 -0.646449 
-0.310371 0.943280 0.117867 
-0.246929 0.765572 -0.594075 
0.150500 0.980211 -0.128593 
-0.309207 0.755419 -0.577696 
0.274814 0.824437 -0.494753 
0.026393 0.933544 -0.357489 
0.007660 0.773544 -0.633696 
0.188767 0.978817 -0.079276 
-0.327088 0.929636 0.169676 
-0.380018 0.907327 0.179846 
-0.421820 0.883651 0.203050 
-0.213014 0.971412 0.104800 
0.243123 0.875153 -0.418328 
-0.452974 0.860576 0.232857 
0.189195 0.981800 -0.016539 
-0.317464 0.716396 -0.621284 
0.237689 0.806169 -0.541845 
-0.378947 0.890192 -0.252899 
0.247521 0.968502 -0.027149 
-0.438134 0.863131 -0.251086 
0.144507 0.988984 -0.032074 
-0.360287 0.681589 -0.636891 
