0.305571 0.674544 -0.675734 
0.265227 0.593102 -0.763469 
0.322316 0.722820 -0.626856 
0.389279 0.704512 -0.613413 
0.455021 0.679460 -0.606312 
0.522155 0.664342 -0.590048 
0.543806 0.710390 -0.540948 
0.205039 0.629825 -0.758097 
0.591165 0.738154 -0.496380 
0.268700 0.538844 -0.808680 
0.253836 0.489799 -0.857400 
0.311406 0.449814 -0.866723 
0.188032 0.493364 -0.883034 
0.139029 0.653845 -0.766204 
0.657391 0.715066 -0.487376 
0.308913 0.396809 -0.913459 
0.284550 0.775265 -0.598164 
0.349170 0.345246 -0.940304 
0.570642 0.616823 -0.609821 
0.232347 0.820217 -0.582222 
0.197256 0.438303 -0.926429 
0.317761 0.304665 -0.988952 
0.722468 0.687854 -0.482425 
0.687850 0.649411 -0.530631 
0.597684 0.790075 -0.448823 
0.302773 0.255670 -1.037684 
0.265217 0.219357 -1.085338 
0.607511 0.840959 -0.400716 
0.412678 0.348929 -0.909431 
0.464108 0.303394 -0.926211 
0.135893 0.429797 -0.960520 
0.073031 0.462173 -0.960058 
0.568376 0.892936 -0.373024 
0.608648 0.927121 -0.326018 
0.615053 0.567061 -0.633304 
0.760528 0.723784 -0.434881 
0.208585 0.875455 -0.545017 
0.073964 0.681090 -0.771122 
0.030321 0.649788 -0.817116 
-0.025695 0.691406 -0.805708 
0.232712 0.179485 -1.133853 
0.369093 0.464785 -0.828669 
0.192076 0.145598 -1.180761 
0.564369 0.542854 -0.676259 
0.179423 0.798663 -0.623869 
0.210836 0.090106 -1.220367 
0.257029 0.902103 -0.500937 
0.335726 0.400641 -0.898463 
0.820293 0.735306 -0.398889 
0.857791 0.682773 -0.427773 
0.638890 0.968435 -0.277248 
0.323414 0.879779 -0.491205 
0.262331 0.724859 -0.651265 
-0.092757 0.703320 -0.824700 
0.251042 0.956761 -0.456478 
0.125985 0.150424 -1.205434 
0.591643 1.016693 -0.256297 
0.010603 0.455922 -0.992672 
0.583523 1.071632 -0.212527 
0.165389 0.749293 -0.672507 
0.581645 0.667306 -0.561546 
-0.056312 0.465988 -1.013191 
0.924618 0.673510 -0.406601 
0.536453 0.765233 -0.496924 
0.553385 1.126010 -0.178842 
0.490692 0.623795 -0.638690 
-0.158137 0.705238 -0.851567 
0.277786 0.079679 -1.200144 
-0.120350 0.463704 -1.043091 
0.302225 0.484012 -0.841278 
0.489359 1.155944 -0.180991 
0.369971 0.645507 -0.672649 
-0.186658 0.469604 -1.066933 
0.218434 0.705007 -0.687508 
0.306440 0.025043 -1.234697 
0.192209 0.995265 -0.448981 
0.146999 1.044627 -0.426191 
-0.253778 0.485308 -1.082686 
-0.312577 0.472127 -1.119685 
0.081794 1.045927 -0.453514 
0.350277 -0.024995 -1.258668 
0.961348 0.620736 -0.436028 
0.240066 0.288340 -1.036901 
1.023710 0.587438 -0.437502 
0.465088 0.371113 -0.867466 
0.059281 0.158725 -1.227381 
1.067300 0.618788 -0.391490 
0.649251 1.068383 -0.186655 
-0.216146 0.744725 -0.842864 
-0.007632 0.168768 -1.247919 
0.375959 0.385158 -0.894247 
-0.153533 0.517439 -1.011288 
0.366623 -0.080488 -1.299328 
0.601306 0.490144 -0.705539 
0.012987 0.113330 -1.286668 
0.416676 -0.031388 -1.235211 
0.179624 0.223736 -1.118901 
1.032975 0.532372 -0.480883 
-0.236992 0.533566 -1.033804 
0.700034 1.092477 -0.143753 
-0.376392 0.502540 -1.121329 
-0.428723 0.547394 -1.105528 
0.045801 1.098920 -0.423577 
0.475983 1.211335 -0.139124 
-0.207763 0.796078 -0.794983 
0.387911 -0.135895 -1.337759 
-0.014457 1.088290 -0.459015 
0.858924 0.698732 -0.413535 
0.447860 1.122776 -0.227657 
1.087263 0.665640 -0.342434 
-0.074714 1.124916 -0.453757 
0.185028 0.112182 -1.212613 
-0.199361 0.847425 -0.747099 
-0.137915 1.120470 -0.485154 
0.224704 0.812458 -0.592238 
0.297042 0.165314 -1.117997 
-0.124405 0.651636 -0.883015 
0.598744 0.437156 -0.752290 
-0.252291 0.891804 -0.731968 
0.602735 0.742406 -0.487671 
0.077765 0.993312 -0.500582 
-0.141547 1.134225 -0.474892 
0.453873 -0.160106 -1.329836 
0.920313 0.587179 -0.482826 
0.049703 1.151568 -0.376535 
0.408987 1.229279 -0.152894 
0.004064 0.062149 -1.334636 
0.359089 -0.178071 -1.386652 
1.058289 0.720223 -0.308066 
-0.074538 0.178747 -1.268509 
0.615330 0.765900 -0.461945 
-0.112206 0.142518 -1.316139 
1.053898 0.476948 -0.519487 
0.761696 1.057982 -0.146564 
0.385803 -0.232989 -1.422294 
0.529853 0.857362 -0.420463 
-0.021884 0.744078 -0.758685 
1.004286 0.451549 -0.563001 
0.197150 0.939250 -0.495065 
0.478178 0.735847 -0.547651 
0.200951 0.248724 -1.088079 
0.543138 0.579031 -0.654364 
0.454406 0.426314 -0.824586 
0.640454 1.042955 -0.212390 
-0.177085 0.170292 -1.320521 
0.408139 1.283038 -0.106967 
-0.279507 0.776109 -0.843474 
0.348614 1.320659 -0.100533 
0.015698 1.205102 -0.345265 
0.772594 1.108501 -0.098304 
-0.344949 0.802192 -0.849558 
-0.011311 0.794710 -0.710470 
0.760324 1.163825 -0.056011 
0.420497 0.021282 -1.188186 
0.553563 0.839977 -0.425093 
0.331842 1.376157 -0.060054 
0.518391 -0.159197 -1.300911 
0.165141 0.447931 -0.932144 
-0.411972 0.813498 -0.869056 
0.362859 0.061190 -1.178958 
0.293374 -0.174872 -1.412561 
1.120666 0.468172 -0.497921 
-0.002863 0.192408 -1.225480 
-0.224690 0.712535 -0.874312 
-0.318230 0.916109 -0.739799 
0.646095 0.388958 -0.773144 
0.826702 1.030565 -0.141821 
0.452580 -0.252941 -1.410349 
-0.462554 0.859640 -0.851383 
0.193523 0.579523 -0.806440 
-0.207118 1.159876 -0.481403 
1.151527 0.636269 -0.339696 
0.295819 1.298946 -0.142261 
0.937193 0.464045 -0.581505 
-0.099365 1.068287 -0.513277 
1.185496 0.440259 -0.493681 
-0.201864 0.480328 -1.064330 
0.376149 1.406857 -0.014290 
0.533925 0.465098 -0.756500 
0.189961 0.043684 -1.269451 
-0.204777 1.130033 -0.506083 
-0.047053 0.847775 -0.680361 
0.785698 0.656202 -0.482103 
-0.116785 0.658472 -0.873804 
-0.525121 0.892568 -0.850317 
0.531146 1.229979 -0.099006 
-0.424739 0.475790 -1.165454 
-0.117610 1.020658 -0.562253 
-0.566641 0.859416 -0.896976 
0.943680 0.409316 -0.625807 
-0.285764 0.539316 -1.050126 
-0.337808 0.584390 -1.034011 
0.551485 0.409595 -0.796639 
0.987191 0.359125 -0.650052 
0.542764 -0.114528 -1.251812 
0.430936 1.426010 0.026102 
0.103925 1.091739 -0.404407 
0.030927 0.231420 -1.177145 
-0.141721 0.100759 -1.364976 
-0.043580 0.515850 -0.964697 
