0.815349 -0.259764 -0.522234 
0.831478 -0.358512 -0.430249 
0.849788 -0.200882 -0.503608 
0.838767 -0.152435 -0.553921 
0.777609 -0.264868 -0.581813 
0.833418 -0.415999 -0.389121 
0.890880 -0.164296 -0.459190 
0.740513 -0.319107 -0.607930 
0.792179 -0.448688 -0.436352 
0.702549 -0.325122 -0.667281 
0.845904 -0.261081 -0.470407 
0.783651 -0.512988 -0.408195 
0.872276 -0.366423 -0.356992 
0.745391 -0.564363 -0.438141 
0.717208 -0.629068 -0.442496 
0.903343 -0.381450 -0.295275 
0.931991 -0.128022 -0.414536 
0.954258 -0.160655 -0.355890 
0.833399 -0.414987 -0.389821 
0.994633 -0.117647 -0.316901 
0.682972 -0.288159 -0.724294 
0.910408 -0.201335 -0.402209 
0.688629 -0.225342 -0.756263 
0.828243 -0.103415 -0.603783 
0.708035 -0.379433 -0.622334 
0.941800 -0.373318 -0.236497 
0.951893 -0.061058 -0.425480 
0.729457 -0.185673 -0.714317 
0.805511 -0.546303 -0.349780 
0.792290 -0.159902 -0.626512 
0.667136 -0.418411 -0.664854 
0.626249 -0.441964 -0.717518 
1.035758 -0.081608 -0.272069 
0.822936 -0.048932 -0.648544 
0.924937 -0.314600 -0.303323 
0.589741 -0.497415 -0.741857 
1.063901 -0.103201 -0.210899 
0.973725 -0.184562 -0.307666 
0.942930 -0.010299 -0.473886 
0.839748 0.017864 -0.664532 
0.909816 -0.000475 -0.535586 
0.846596 -0.509622 -0.305435 
0.855893 -0.560019 -0.256713 
0.858046 0.084798 -0.678132 
0.948820 -0.150393 -0.371723 
1.066238 -0.160355 -0.169331 
1.106971 -0.138419 -0.115855 
0.981379 0.040535 -0.443265 
1.066611 -0.018782 -0.262021 
0.924293 0.065903 -0.555194 
