2.168985 1.159310 0.640413 
-2.444359 -0.435796 -2.641822 
3.991355 1.550110 -3.235472 
-2.696097 2.395728 0.289658 
0.573143 1.757612 -0.246663 
2.195717 1.262973 1.550201 
0.832976 1.508627 -2.960099 
0.482319 2.559870 -0.198105 
0.704937 -0.657439 -1.123382 
1.646745 -1.505376 1.790142 
0.083364 2.186756 -0.418686 
-1.502820 2.583643 1.458359 
0.081721 2.577468 -0.281509 
0.973670 2.794541 -1.006636 
-1.021729 0.346786 -2.497502 
3.357164 -0.941987 1.418067 
2.832398 1.795853 -0.371581 
-2.954385 -0.716777 -0.899736 
1.481159 1.929607 0.711338 
-2.162787 0.248710 1.304886 
-2.407621 2.451113 0.328993 
1.770579 -1.479473 -0.170636 
1.138664 0.721756 -0.677674 
-1.523096 -1.439908 -0.924225 
1.969162 -0.026857 1.891918 
3.722077 -0.486026 -2.838466 
3.043155 -1.320027 1.716557 
0.276311 -1.287445 -2.743575 
3.893285 1.913383 1.971953 
2.389846 2.511392 -1.329595 
1.578880 2.934520 -1.988259 
-0.370628 1.342076 -1.363626 
-2.903036 -0.701735 1.902482 
0.973010 0.353196 -3.425407 
-2.438586 -1.097402 -1.057636 
-2.564681 -1.295918 0.759133 
-1.209558 -1.979379 1.575100 
-1.540241 0.360843 -3.569834 
-0.074412 0.284618 1.126226 
-0.107133 -0.865493 0.539896 
3.008340 2.405136 0.461320 
-1.644629 -0.716742 -1.528189 
1.431141 -0.647482 0.029729 
1.317370 2.190382 -3.146436 
1.987728 2.591393 -2.063318 
-1.579514 2.902335 -1.218420 
3.972808 -0.818778 -1.193676 
3.477091 0.223907 1.639335 
3.978952 2.313612 -1.619123 
2.959549 -0.620054 -0.257714 
1.256094 -1.328383 -0.971551 
-0.539033 -0.360261 0.568359 
2.344747 2.804840 -3.808620 
0.046097 0.888676 1.219839 
1.041922 -0.548661 0.729511 
3.301384 0.465972 0.612313 
-0.453439 0.446549 -3.970221 
2.820606 0.073043 -1.301533 
2.399831 0.058009 -2.125198 
-1.822480 -0.685171 -0.469263 
2.543520 2.354896 0.336678 
-0.923290 -0.887270 -3.695635 
-2.593538 2.930407 -3.929827 
-2.370261 0.106190 -0.463416 
3.719551 2.993278 1.278191 
2.237314 2.494267 -1.762643 
0.618345 -0.686761 1.173216 
0.653087 -1.529186 -2.339133 
3.801299 2.327836 0.130477 
-1.011432 -1.831078 1.708272 
3.107762 2.128579 0.934148 
1.167219 -1.388057 -3.730576 
1.522311 -1.097727 -3.814088 
1.604180 -0.647914 -1.286660 
-1.269805 -0.848235 -1.294727 
-2.111915 2.892704 -1.901607 
0.498335 0.477236 -0.325721 
-0.466247 -1.913416 0.239257 
1.471431 2.944654 -0.567340 
-0.709678 -0.634940 -0.364634 
-1.050028 -1.272253 -1.410340 
-2.293522 1.704332 -0.676008 
-1.979194 -0.065446 0.406719 
-1.762297 -1.776746 -3.970778 
1.403266 -0.540892 -2.588660 
-2.440582 0.093454 -2.717415 
0.007543 2.592264 0.255267 
-2.705797 -0.597912 0.359168 
2.240002 2.595968 0.292753 
-0.755228 -0.768088 1.930825 
3.486032 0.624749 -3.195878 
-0.492698 1.129376 1.249320 
3.385293 1.858523 -2.429215 
1.526465 2.742597 -2.161310 
1.560557 0.887787 -0.410381 
3.207121 1.287371 -3.898236 
-2.296531 -1.564384 1.612481 
2.667948 -1.354239 -2.705013 
0.753644 2.388620 -3.189852 
-1.238144 -1.007972 -1.711558 
