0.318950 -0.496125 0.807546 
0.384209 -0.475320 0.791488 
0.296803 -0.442322 0.846321 
0.285470 -0.382880 0.878584 
0.250283 -0.570810 0.782007 
0.218976 -0.387479 0.895494 
0.328711 -0.607672 0.722969 
0.439145 -0.492376 0.751477 
0.199818 -0.615290 0.762556 
0.164352 -0.664255 0.729214 
0.152367 -0.393332 0.906683 
0.086711 -0.395881 0.914199 
0.180908 -0.710014 0.680553 
0.163033 -0.755034 0.635094 
0.469578 -0.433055 0.769389 
0.154879 -0.578353 0.800949 
0.156504 -0.795551 0.585326 
0.523143 -0.443021 0.728048 
0.100441 -0.684089 0.722450 
0.493812 -0.372237 0.785869 
0.539370 -0.492314 0.683159 
0.028059 -0.376603 0.925950 
0.590587 -0.488359 0.642427 
0.035494 -0.691241 0.721752 
0.550267 -0.356453 0.755081 
0.195691 -0.819379 0.538816 
-0.026776 -0.696860 0.716707 
0.598639 -0.322273 0.733329 
0.640026 -0.466975 0.610165 
0.478687 -0.315899 0.819187 
0.661222 -0.499460 0.559755 
-0.081387 -0.711437 0.698021 
-0.004220 -0.329252 0.944233 
-0.005460 -0.271913 0.962306 
-0.043530 -0.649507 0.759108 
-0.062992 -0.343685 0.936970 
0.013336 -0.216382 0.976218 
0.451725 -0.265097 0.851861 
0.015531 -0.161682 0.986721 
0.085559 -0.720540 0.688114 
0.061827 -0.644421 0.762167 
0.282266 -0.321269 0.903943 
0.106643 -0.821750 0.559780 
0.702504 -0.459977 0.543055 
0.103672 -0.357041 0.928318 
0.734581 -0.462004 0.496933 
0.047601 -0.113514 0.992395 
0.631955 -0.272779 0.725413 
0.356728 -0.407146 0.840819 
-0.118973 -0.358260 0.926010 
-0.130921 -0.725952 0.675169 
0.767211 -0.419050 0.485577 
0.231245 -0.437446 0.869004 
0.623184 -0.217135 0.751328 
0.742771 -0.495969 0.449784 
-0.184445 -0.719688 0.669350 
0.105090 -0.111406 0.988203 
-0.037351 -0.151817 0.987703 
0.071787 -0.849738 0.522295 
-0.218388 -0.740029 0.636132 
-0.258567 -0.747128 0.612326 
0.028921 -0.068936 0.997202 
0.231827 -0.517331 0.823787 
0.729056 -0.543756 0.415700 
-0.248121 -0.782545 0.571017 
0.078259 -0.878080 0.472071 
-0.284196 -0.709126 0.645270 
-0.165350 -0.389689 0.905981 
0.701720 -0.593219 0.394563 
-0.216462 -0.397292 0.891798 
0.245175 -0.831441 0.498594 
0.797283 -0.381982 0.467364 
0.628950 -0.160887 0.760616 
0.101506 -0.900018 0.423868 
0.821029 -0.338092 0.460007 
0.844933 -0.324333 0.425319 
0.594291 -0.123588 0.794698 
0.660884 -0.124092 0.740158 
0.106690 -0.920585 0.375688 
0.672344 -0.640524 0.371056 
0.662694 -0.072700 0.745354 
0.659524 -0.675870 0.328981 
-0.261513 -0.416546 0.870689 
0.135669 -0.063710 0.988704 
0.123389 -0.936165 0.329196 
0.666225 -0.230539 0.709222 
0.055091 -0.450502 0.891074 
0.327102 -0.659834 0.676478 
0.050206 -0.921824 0.384344 
0.696554 -0.650295 0.303197 
0.623921 -0.551060 0.554126 
0.073268 -0.944763 0.319461 
0.859883 -0.278460 0.427857 
-0.011151 -0.044111 0.998964 
0.698706 -0.667128 0.258360 
0.127703 -0.941019 0.313330 
0.198761 -0.432813 0.879299 
-0.084814 -0.185006 0.979071 
0.259016 -0.593550 0.761977 
0.342789 -0.345414 0.873605 
0.699459 -0.259591 0.665860 
0.863808 -0.231062 0.447712 
0.683812 -0.034679 0.728833 
0.811226 -0.405308 0.421470 
0.862669 -0.185142 0.470665 
0.157198 -0.902941 0.399983 
