-0.150163 0.018109 -0.988495 
-0.215281 -0.005335 -0.976537 
-0.242699 -0.068117 -0.967707 
-0.287753 -0.016148 -0.957569 
-0.081676 0.004213 -0.996650 
-0.182328 0.146486 -0.972265 
-0.038308 -0.049802 -0.998024 
-0.239884 0.181608 -0.953663 
-0.296486 0.213159 -0.930945 
-0.257656 -0.133030 -0.957035 
-0.053035 0.018015 -0.998430 
-0.208241 -0.179360 -0.961491 
0.013215 0.039431 -0.999135 
0.022755 -0.079486 -0.996576 
-0.335666 0.156182 -0.928943 
-0.318071 -0.104833 -0.942253 
-0.145894 -0.204798 -0.967870 
-0.158463 0.211950 -0.964348 
-0.368461 -0.138519 -0.919266 
-0.140362 -0.266336 -0.953606 
0.076147 -0.117199 -0.990185 
0.114076 -0.061359 -0.991575 
-0.423672 -0.153117 -0.892781 
-0.322568 0.270172 -0.907170 
0.053991 0.095174 -0.993995 
0.014570 0.038450 -0.999154 
-0.369888 0.096749 -0.924025 
-0.366240 0.307797 -0.878140 
0.083122 0.156355 -0.984197 
-0.108232 -0.213384 -0.970955 
-0.122508 0.270301 -0.954950 
0.114051 -0.166553 -0.979414 
-0.337587 0.365920 -0.867258 
-0.420872 0.273131 -0.865024 
-0.287314 0.219200 -0.932417 
-0.428218 0.076949 -0.900393 
-0.391516 0.378173 -0.838869 
-0.467136 -0.182669 -0.865111 
0.134908 0.195085 -0.971464 
-0.283331 0.403544 -0.869986 
-0.054709 -0.249943 -0.966714 
-0.183174 -0.307921 -0.933612 
-0.485922 -0.231823 -0.842697 
-0.473254 0.239809 -0.847657 
-0.435773 -0.263364 -0.860664 
-0.484512 0.073555 -0.871687 
-0.208464 -0.252262 -0.944937 
0.170142 0.246012 -0.954217 
-0.199207 -0.114476 -0.973248 
-0.500220 -0.278955 -0.819734 
