0.167786 0.875266 -0.464497 
0.262784 0.875081 -0.433266 
0.160694 0.947611 -0.293618 
0.120946 0.987628 -0.211043 
0.028282 0.928012 -0.384699 
-0.070671 0.937112 -0.395901 
0.281791 0.835008 -0.522892 
0.063608 1.025868 -0.138586 
0.370295 0.807120 -0.560165 
0.246972 0.956389 -0.243829 
-0.106521 0.905433 -0.483715 
-0.015818 1.058365 -0.087249 
0.375397 0.836651 -0.487747 
0.449559 0.853446 -0.422801 
0.042692 1.082543 -0.009841 
0.294701 0.984510 -0.160575 
0.512881 0.816279 -0.490690 
0.037490 0.976699 -0.265039 
0.110098 0.913452 -0.392288 
-0.042169 0.868481 -0.550748 
-0.202300 0.926799 -0.464484 
0.123200 1.095505 0.048042 
0.186015 0.907351 -0.381585 
-0.133395 0.974399 -0.327524 
-0.288710 0.918126 -0.514064 
0.237327 0.962989 -0.231241 
0.323185 0.865118 -0.436986 
0.274829 0.913976 -0.336109 
-0.209615 1.008093 -0.272250 
0.362183 0.885368 -0.375490 
0.344654 0.945297 -0.237822 
0.042730 0.945342 -0.338383 
0.247849 0.802824 -0.611279 
0.509167 0.877177 -0.346096 
0.196002 1.003920 -0.147003 
0.535750 0.776072 -0.579349 
-0.235155 1.048355 -0.184349 
0.165439 0.879233 -0.455780 
0.291921 0.763078 -0.691764 
-0.387726 0.932115 -0.513580 
0.291275 0.834793 -0.520243 
-0.135971 1.036655 -0.179299 
-0.371394 0.949212 -0.467191 
0.530751 0.912229 -0.254962 
-0.037991 0.973625 -0.297566 
0.198693 0.760979 -0.727876 
0.499646 0.952507 -0.168879 
-0.028337 0.980648 -0.277530 
-0.214702 1.083636 -0.093042 
0.416621 0.866969 -0.401400 
0.050349 0.843623 -0.579428 
-0.305065 1.008935 -0.302057 
-0.327368 0.978522 -0.382323 
-0.368471 0.892031 -0.603149 
0.196349 1.060808 -0.010656 
0.446620 0.991359 -0.093521 
0.099674 0.770492 -0.738110 
-0.045364 0.844864 -0.608368 
0.249058 0.946360 -0.267152 
0.348927 0.724786 -0.764456 
0.331008 0.776396 -0.646839 
0.303378 0.818694 -0.554761 
0.597507 0.947178 -0.149011 
-0.477832 0.926692 -0.556608 
-0.131688 0.862501 -0.594915 
-0.189764 0.838149 -0.672594 
0.153467 0.986899 -0.201944 
0.071791 0.882449 -0.479302 
-0.375447 0.990128 -0.370561 
0.037122 0.984479 -0.246530 
0.497652 1.018351 -0.011868 
0.292658 0.916770 -0.323473 
0.688646 0.951577 -0.108091 
-0.211860 1.011063 -0.265887 
0.183954 1.057843 -0.021891 
0.233259 1.018561 -0.099518 
0.411689 0.945126 -0.215881 
0.299963 0.872149 -0.427891 
-0.126613 0.870080 -0.575074 
-0.098833 0.906826 -0.477817 
0.040757 0.883114 -0.488058 
0.073424 0.736444 -0.828397 
-0.041309 1.112991 0.035066 
0.316599 1.029574 -0.045359 
0.170937 0.731929 -0.806695 
0.204140 0.949387 -0.274879 
0.697389 0.912156 -0.199576 
0.239202 0.751790 -0.736372 
-0.248652 0.878126 -0.596497 
0.125624 0.909078 -0.397584 
0.333163 0.688610 -0.856341 
0.189815 0.831489 -0.561983 
-0.222280 1.046113 -0.185425 
-0.176000 1.006144 -0.265709 
-0.205888 0.997638 -0.296043 
-0.244808 0.971184 -0.372370 
-0.204345 0.888516 -0.556843 
0.344196 0.952488 -0.220755 
0.695367 0.941853 -0.129135 
0.048610 0.887886 -0.474011 
-0.089571 1.152378 0.113294 
0.356278 0.648397 -0.944933 
-0.282192 0.959107 -0.413755 
0.563531 0.838502 -0.420586 
0.138620 0.986084 -0.208846 
0.500202 0.875667 -0.352702 
-0.189605 0.949314 -0.406335 
0.646194 0.849996 -0.365499 
