0.784644 -0.534654 -0.321680 
0.837279 -0.415903 -0.361924 
0.746242 -0.567036 -0.371446 
0.796194 -0.559383 -0.256449 
0.809646 -0.581263 -0.190568 
0.784646 -0.642199 -0.164843 
0.818774 -0.623601 -0.105772 
0.707242 -0.623944 -0.386954 
0.673925 -0.640387 -0.447117 
0.868205 -0.353604 -0.374670 
0.857104 -0.328217 -0.439726 
0.896495 -0.272303 -0.421781 
0.898623 -0.229862 -0.478299 
0.677558 -0.675937 -0.386100 
0.636200 -0.670147 -0.498994 
0.814078 -0.410433 -0.428495 
0.860509 -0.261095 -0.529012 
0.899867 -0.341296 -0.312654 
0.629576 -0.638497 -0.561878 
0.925543 -0.342005 -0.246773 
0.966075 -0.292916 -0.215993 
0.736643 -0.539489 -0.435859 
0.931607 -0.250954 -0.364237 
0.992423 -0.292280 -0.150378 
0.906269 -0.399894 -0.211032 
0.696953 -0.578029 -0.479897 
0.821574 -0.295767 -0.576781 
0.960328 -0.188889 -0.382211 
0.782769 -0.329857 -0.625073 
1.032081 -0.237200 -0.130543 
0.670116 -0.683770 -0.393470 
0.590962 -0.671758 -0.610896 
1.037162 -0.270890 -0.068582 
0.830433 -0.246307 -0.626533 
1.000440 -0.135745 -0.358404 
1.060541 -0.276026 -0.002047 
0.618994 -0.609839 -0.630397 
0.595561 -0.604802 -0.696921 
0.761864 -0.320214 -0.691931 
0.559062 -0.734027 -0.600653 
0.868998 -0.275299 -0.486858 
0.775247 -0.467709 -0.443041 
0.819792 -0.356498 -0.492717 
0.851999 -0.187037 -0.658501 
0.845147 -0.562156 -0.128771 
1.059422 -0.175458 -0.151531 
0.526414 -0.748762 -0.661620 
1.021782 -0.309912 -0.050517 
1.032611 -0.122199 -0.296910 
1.093351 -0.157396 -0.092180 
