0.360926 0.194072 -0.914915 
0.413721 0.234392 -0.890688 
0.479986 0.217288 -0.872900 
0.311906 0.106254 -0.946797 
0.502544 0.281521 -0.853789 
0.467215 0.342774 -0.853557 
0.514958 0.155832 -0.873282 
0.524513 0.162495 -0.869015 
0.265278 0.058638 -0.970431 
0.423919 0.398582 -0.856863 
0.236259 0.208455 -0.951697 
0.172517 0.235006 -0.966927 
0.379747 0.453673 -0.860579 
0.105042 0.236394 -0.988028 
0.590436 0.173753 -0.846050 
0.059967 0.290717 -0.992173 
0.121070 0.316804 -0.967969 
-0.001364 0.323282 -1.005519 
-0.037532 0.266645 -1.027522 
-0.098957 0.241292 -1.051691 
-0.013459 0.392361 -0.996474 
-0.064645 0.440610 -1.003686 
0.232119 -0.000024 -0.991859 
-0.095485 0.504206 -1.001597 
0.171717 0.232541 -0.967640 
-0.142682 0.556606 -1.006772 
-0.051712 0.199490 -1.044525 
0.199138 0.076379 -0.988061 
0.654311 0.192633 -0.822312 
-0.198410 0.520538 -1.031134 
0.345580 0.515577 -0.859858 
0.186238 -0.048407 -1.015399 
-0.253450 0.563936 -1.040470 
-0.147919 0.196219 -1.075589 
0.692241 0.132963 -0.821424 
-0.206688 0.165350 -1.099946 
-0.215874 0.097006 -1.115589 
-0.213984 0.027411 -1.127960 
-0.282073 0.114449 -1.133294 
0.759679 0.125746 -0.801422 
-0.254938 0.216726 -1.105645 
-0.263691 -0.016798 -1.151934 
0.619011 0.235105 -0.825571 
-0.341134 0.151500 -1.145085 
-0.315088 0.539080 -1.064613 
0.185450 -0.117871 -1.028593 
0.546927 0.226789 -0.849939 
-0.110343 0.615783 -0.985507 
-0.268944 0.485704 -1.059953 
0.827191 0.121073 -0.780922 
