0.358489 0.666593 -0.657373 
0.382149 0.615060 -0.699618 
0.469328 0.667944 -0.581878 
0.471015 0.714319 -0.528526 
0.358169 0.731464 -0.584530 
0.376939 0.569989 -0.753853 
0.307110 0.777180 -0.567122 
0.255321 0.822442 -0.550712 
0.294476 0.681246 -0.683594 
0.534079 0.703750 -0.498340 
0.222048 0.873721 -0.515169 
0.523708 0.624535 -0.594472 
0.596100 0.669952 -0.495010 
0.158653 0.885531 -0.544179 
0.381191 0.521732 -0.805362 
0.582787 0.585897 -0.598556 
0.440871 0.541834 -0.742893 
0.226494 0.919087 -0.461112 
0.646233 0.555861 -0.590038 
0.461360 0.763942 -0.479085 
0.660733 0.647554 -0.477097 
0.128766 0.853803 -0.599858 
0.547596 0.558173 -0.653264 
0.473591 0.805991 -0.423567 
0.092393 0.827040 -0.654271 
0.258723 0.949108 -0.405794 
0.247180 0.664909 -0.733557 
0.701788 0.670217 -0.424174 
0.086288 0.782324 -0.708706 
0.766122 0.644275 -0.410454 
0.499891 0.541437 -0.703951 
0.489509 0.752527 -0.473153 
0.160865 0.883920 -0.544517 
0.740816 0.694714 -0.370539 
0.377252 0.476174 -0.859297 
0.245726 0.728235 -0.663211 
0.087166 0.903525 -0.571624 
0.191144 0.660065 -0.776410 
0.038916 0.888265 -0.621012 
0.698445 0.510875 -0.605854 
0.788226 0.710924 -0.320644 
0.724762 0.740895 -0.329246 
0.241452 1.000074 -0.359922 
0.305130 0.987074 -0.332064 
-0.021152 0.890812 -0.658232 
0.196902 0.711082 -0.715112 
0.157583 0.631058 -0.831476 
0.009809 0.939832 -0.582364 
0.303914 0.623602 -0.742212 
0.710757 0.537374 -0.567794 
