-0.605934 0.680241 -0.412452 
-0.650683 0.668928 -0.359370 
-0.696574 0.617328 -0.365638 
-0.515352 0.740773 -0.430892 
-0.540053 0.772981 -0.332930 
-0.706194 0.572276 -0.416881 
-0.748213 0.521096 -0.410653 
-0.542472 0.796492 -0.267066 
-0.741691 0.483230 -0.465170 
-0.455902 0.777824 -0.432600 
-0.744648 0.434707 -0.506487 
-0.701398 0.447781 -0.554556 
-0.678716 0.416715 -0.604726 
-0.736754 0.599200 -0.313293 
-0.778471 0.563558 -0.276379 
-0.688807 0.363821 -0.627040 
-0.814690 0.510713 -0.274687 
-0.394535 0.797300 -0.456787 
-0.783960 0.394305 -0.479510 
-0.826165 0.522256 -0.211424 
-0.745965 0.385719 -0.542916 
-0.814006 0.345847 -0.466673 
-0.497198 0.835778 -0.232957 
-0.661368 0.335756 -0.670716 
-0.337490 0.802771 -0.491588 
-0.319649 0.772510 -0.548683 
-0.829790 0.537805 -0.149046 
-0.533200 0.827673 -0.175090 
-0.859897 0.495662 -0.122047 
-0.621557 0.324566 -0.712968 
-0.312949 0.841062 -0.441222 
-0.850092 0.522430 -0.066412 
-0.644341 0.275719 -0.713305 
-0.651482 0.228566 -0.723415 
-0.267069 0.873262 -0.407539 
-0.623565 0.202994 -0.754957 
-0.208604 0.879435 -0.427878 
-0.545055 0.831159 -0.109956 
-0.504499 0.860639 -0.069145 
-0.462609 0.886029 -0.030757 
-0.186738 0.907896 -0.375304 
-0.647488 0.161986 -0.744661 
-0.669406 0.682532 -0.293335 
-0.138951 0.927028 -0.348298 
-0.322054 0.731432 -0.601073 
-0.284043 0.709241 -0.645211 
-0.239576 0.692592 -0.680382 
-0.887344 0.445712 -0.118159 
-0.579629 0.211298 -0.787009 
-0.093535 0.918399 -0.384442 
