-0.598740 -0.530289 0.600253 
-0.692776 -0.438574 0.572464 
-0.548899 -0.526348 0.649359 
-0.676581 -0.458783 0.575983 
-0.562061 -0.573860 0.595627 
-0.519594 -0.607122 0.601186 
-0.700059 -0.395777 0.594372 
-0.687128 -0.445761 0.573718 
-0.696919 -0.433202 0.571525 
-0.482269 -0.633087 0.605489 
-0.719796 -0.345864 0.601890 
-0.722883 -0.347150 0.597434 
-0.716871 -0.344656 0.606060 
-0.515090 -0.493942 0.700503 
-0.729919 -0.387050 0.563392 
-0.456040 -0.511083 0.728575 
-0.748331 -0.358258 0.558258 
-0.466311 -0.643339 0.607180 
-0.723052 -0.347221 0.597188 
-0.748331 -0.358258 0.558258 
-0.691398 -0.334562 0.640341 
-0.572815 -0.465476 0.674697 
-0.403281 -0.500869 0.765830 
-0.399901 -0.444920 0.801327 
-0.660313 -0.323136 0.677916 
-0.344827 -0.516530 0.783767 
-0.297188 -0.496873 0.815351 
-0.737546 -0.375422 0.561324 
-0.270896 -0.454179 0.848727 
-0.459334 -0.647672 0.607893 
-0.421101 -0.669853 0.611531 
-0.218796 -0.478292 0.850509 
-0.705174 -0.422235 0.569603 
-0.376804 -0.692476 0.615220 
-0.621274 -0.309938 0.719693 
-0.525591 -0.584320 0.618324 
-0.187509 -0.442124 0.877136 
-0.177517 -0.517135 0.837293 
-0.590307 -0.300247 0.749259 
-0.549275 -0.288332 0.784322 
-0.748331 -0.358258 0.558258 
-0.748331 -0.358258 0.558258 
-0.748331 -0.358258 0.558258 
-0.418804 -0.671105 0.611736 
-0.672179 -0.327393 0.664070 
-0.748331 -0.358258 0.558258 
-0.518950 0.280145 0.807595 
-0.697736 0.337007 0.632132 
-0.394952 -0.683590 0.613774 
-0.483380 0.271162 0.832355 
