-0.539126 0.745922 -0.391081 
-0.516214 0.840283 -0.165675 
-0.530162 0.847082 0.037160 
-0.372069 0.927272 -0.041596 
-0.508252 0.844182 -0.170401 
-0.640172 0.768183 -0.008622 
-0.571731 0.787798 0.229123 
-0.405230 0.913648 0.032193 
-0.192094 0.959067 0.208063 
-0.360440 0.894544 0.264338 
-0.515718 0.808538 0.283377 
-0.402809 0.887981 0.221890 
-0.294473 0.883933 0.363246 
-0.408587 0.863946 0.294371 
-0.301971 0.820189 0.485904 
-0.428881 0.821646 0.375445 
-0.597443 0.770816 0.221144 
-0.696036 0.624989 0.353444 
-0.718388 0.385864 0.578816 
-0.858318 0.215709 0.465575 
-0.917248 0.090076 0.387999 
-0.830798 -0.133248 0.540388 
-0.916579 -0.229816 0.327211 
-0.872242 -0.450394 0.190630 
-0.962946 -0.268518 0.025171 
-0.973711 -0.117536 -0.195122 
-0.987837 -0.053845 -0.145873 
-0.965011 -0.069765 -0.252757 
-0.987703 -0.105748 -0.115154 
-0.934412 -0.061473 -0.350848 
-0.988715 0.049624 -0.141354 
-0.991733 -0.098446 0.082303 
-0.949126 -0.314818 -0.007070 
-0.953317 -0.209302 -0.217668 
-0.951884 -0.299611 -0.064414 
-0.910066 -0.412597 -0.039286 
-0.811428 -0.569190 -0.132691 
-0.782884 -0.600555 -0.162563 
-0.724410 -0.663840 -0.185865 
-0.750255 -0.579701 -0.317905 
-0.772687 -0.543250 -0.328382 
-0.655625 -0.611199 -0.443387 
-0.567984 -0.769074 -0.293119 
-0.569132 -0.771145 -0.285349 
-0.508268 -0.717505 -0.476288 
-0.454311 -0.678462 -0.577314 
-0.341808 -0.842722 -0.415916 
-0.128253 -0.825789 -0.549203 
-0.051340 -0.956790 -0.286211 
0.142496 -0.942530 -0.302211 
