0.716901 0.367010 -0.596956 
0.804935 0.285157 -0.525134 
0.850422 0.250998 -0.483133 
0.682018 0.348971 -0.655759 
0.685961 0.430440 -0.601359 
0.636311 0.373958 -0.703577 
0.625442 0.321690 -0.749944 
0.602513 0.283168 -0.804628 
0.652789 0.492318 -0.609765 
0.871543 0.184416 -0.494124 
0.563619 0.274862 -0.863094 
0.916736 0.147513 -0.454177 
0.874849 0.287409 -0.427658 
0.932474 0.081054 -0.472495 
0.621248 0.555369 -0.615223 
0.596410 0.621344 -0.609707 
0.905593 0.313626 -0.369628 
0.975048 0.077405 -0.416156 
0.948229 0.309731 -0.313352 
0.562700 0.682786 -0.619113 
0.995958 0.010807 -0.427448 
0.656842 0.258549 -0.744735 
0.949404 0.369600 -0.275744 
0.692142 0.198561 -0.732268 
0.921582 0.028807 -0.518881 
0.574496 0.734178 -0.571998 
0.524346 0.267610 -0.921447 
0.478709 0.290984 -0.970139 
0.948835 0.430543 -0.239888 
0.639093 0.617258 -0.553480 
0.696901 0.135399 -0.763698 
0.941814 0.494689 -0.210975 
0.707257 0.070083 -0.788729 
0.656829 0.662353 -0.501984 
1.019207 -0.055503 -0.435350 
0.518157 0.723680 -0.655767 
0.737272 0.006121 -0.785916 
0.976652 0.512824 -0.152175 
1.062583 -0.062554 -0.379953 
0.777790 -0.046632 -0.761927 
0.530981 0.203621 -0.950796 
1.108251 -0.094009 -0.336078 
1.101707 -0.030057 -0.306626 
0.475548 0.771633 -0.685518 
0.896954 0.510000 -0.263445 
0.992645 0.559894 -0.101889 
0.583995 0.787692 -0.526766 
0.432402 0.777661 -0.741213 
0.564047 0.854342 -0.514121 
0.433087 0.314075 -1.018980 
