-0.951461 -0.303737 0.086403 
-0.931160 -0.370791 0.076836 
-0.952584 -0.246880 0.191400 
-0.920591 -0.425387 0.033160 
-0.936634 -0.410444 -0.034066 
-0.954118 -0.211149 0.252399 
-0.897733 -0.470066 0.082973 
-0.939205 -0.222110 0.320645 
-0.873973 -0.521050 0.125822 
-0.978372 -0.149789 0.226970 
-0.922031 -0.241200 0.386528 
-0.950101 -0.404372 -0.103216 
-0.991937 -0.090168 0.262485 
-0.973398 -0.356878 -0.150137 
-1.014571 -0.023362 0.257512 
-0.963951 -0.245832 0.125018 
-1.015430 0.010770 0.319433 
-1.032369 0.074997 0.343681 
-0.905219 -0.258943 0.452880 
-1.026542 0.091945 0.412083 
-1.050240 0.156813 0.396897 
-0.997683 -0.299493 -0.183561 
-0.872557 -0.556504 0.064658 
-1.072198 0.196466 0.342625 
-0.880911 -0.317123 0.484882 
-1.074193 0.220646 0.378147 
-1.021934 -0.238087 -0.208883 
-1.094781 0.287812 0.386199 
-1.119075 0.348407 0.359031 
-1.014268 0.089756 0.481686 
-0.862856 -0.609512 0.018875 
-0.858019 -0.362009 0.534494 
-1.134204 0.360118 0.290957 
-0.952946 -0.423995 -0.158915 
-0.858202 -0.652309 -0.037221 
-0.948879 -0.465503 -0.216016 
-1.046084 -0.175540 -0.231347 
-0.943857 -0.509096 -0.271463 
-1.064026 -0.153523 -0.296103 
-0.856502 -0.333699 0.599272 
-0.844618 -0.711959 -0.072680 
-0.832544 -0.386488 0.639762 
-1.054993 -0.205273 -0.343436 
-0.906417 -0.485933 -0.000504 
-1.086721 -0.109817 -0.346845 
-0.808231 -0.446367 0.668456 
-0.798637 -0.499176 0.622421 
-1.104146 -0.089781 -0.412381 
-1.128374 -0.028054 -0.436931 
-1.099050 -0.133534 -0.467695 
