-0.166181 0.626357 -0.761617 
-0.166181 0.626357 -0.761617 
-0.162187 0.759099 -0.630448 
-0.207460 0.869289 -0.448662 
-0.159181 0.830462 -0.533849 
-0.320304 0.701471 -0.636666 
-0.443821 0.707674 -0.549746 
-0.413820 0.626566 -0.660430 
-0.284609 0.747523 -0.600172 
-0.320214 0.787109 -0.527183 
-0.499600 0.730457 -0.465653 
-0.251031 0.783756 -0.568075 
-0.165562 0.650697 -0.741068 
-0.162608 0.747421 -0.644143 
-0.156265 0.883361 -0.441877 
0.157576 0.861318 -0.483012 
-0.155776 0.890922 -0.426605 
-0.232390 0.905261 -0.355664 
-0.324060 0.764112 -0.557780 
-0.340751 0.816156 -0.466666 
-0.425099 0.796283 -0.430377 
-0.619012 0.699469 -0.357167 
-0.645672 0.667613 -0.370675 
-0.699794 0.570863 -0.429422 
-0.560324 0.742696 -0.366661 
-0.310674 0.830064 -0.463114 
-0.469500 0.818508 -0.331080 
-0.579228 0.759163 -0.296930 
-0.348486 0.812318 -0.467651 
-0.496618 0.792853 -0.353207 
-0.314084 0.840057 -0.442329 
-0.541823 0.724281 -0.426432 
-0.464356 0.766919 -0.442955 
-0.572218 0.749889 -0.332013 
-0.563100 0.772992 -0.292236 
-0.561156 0.774614 -0.291680 
-0.527033 0.801596 -0.282278 
-0.460150 0.847169 -0.265643 
-0.614493 0.726418 -0.307760 
-0.599897 0.604792 -0.523784 
-0.572038 0.594207 -0.565411 
-0.611544 0.588098 -0.529296 
-0.642380 0.582715 -0.497786 
-0.532482 0.599578 -0.597469 
-0.531292 0.599729 -0.598376 
-0.365048 0.694040 -0.620523 
-0.390123 0.800429 -0.455102 
-0.165843 0.885824 -0.433373 
-0.233396 0.812761 -0.533803 
-0.441706 0.766409 -0.466383 
