2.454178 -2.154891 2.477092 2.137029 0.347532 1.022202 -0.935480 
2.487480 -2.185005 2.429460 2.155683 0.314736 1.138588 -1.028201 
2.473725 -2.199454 2.445693 2.160668 0.321467 1.163424 -1.121215 
2.459321 -2.144974 2.481133 2.136777 0.397298 1.000675 -1.066135 
2.391882 -2.175021 2.550560 2.135925 0.358098 1.011824 -0.945274 
2.456460 -2.147528 2.500246 2.143756 0.482921 1.004616 -1.113299 
2.425194 -2.162033 2.539630 2.146487 0.503605 1.011343 -1.195642 
2.355891 -2.172954 2.604257 2.132552 0.418641 0.968688 -0.928557 
2.394602 -2.153539 2.581120 2.138472 0.529876 0.956411 -1.254791 
2.344579 -2.197059 2.590416 2.132359 0.283593 1.022256 -0.949242 
2.481584 -2.207125 2.428173 2.162899 0.280282 1.192421 -1.205062 
2.345453 -2.165217 2.644533 2.137546 0.565637 0.936823 -1.296785 
2.370832 -2.179122 2.598951 2.143395 0.486934 1.000994 -0.866224 
2.525262 -2.174849 2.371416 2.152129 0.236863 1.150448 -1.213198 
2.495699 -2.137494 2.436748 2.139071 0.385012 1.018326 -0.865324 
2.391391 -2.200550 2.578295 2.159827 0.514856 1.080537 -0.829964 
2.389669 -2.224307 2.589575 2.175544 0.574817 1.143162 -0.869221 
2.337736 -2.148847 2.623692 2.115803 0.398148 0.884387 -0.898483 
2.434368 -2.229643 2.537919 2.187081 0.581474 1.204243 -0.831846 
2.477469 -2.235341 2.424125 2.173372 0.244871 1.264640 -1.255968 
2.347045 -2.135978 2.635361 2.119709 0.513791 0.859198 -1.301956 
2.524858 -2.163416 2.360406 2.141573 0.170301 1.119022 -1.148248 
2.516090 -2.134151 2.439082 2.151486 0.524494 1.030526 -1.121350 
2.495316 -2.120930 2.425085 2.125593 0.312862 0.973011 -0.818969 
2.302188 -2.176979 2.705618 2.139571 0.625993 0.923600 -1.317680 
2.446605 -2.268307 2.466133 2.187036 0.290161 1.321849 -1.229792 
2.339071 -2.128832 2.631414 2.109249 0.439306 0.831505 -0.827740 
2.512152 -2.245960 2.374437 2.181936 0.201313 1.329605 -1.260903 
2.522723 -2.157229 2.347487 2.131883 0.084872 1.100019 -1.193383 
2.298337 -2.209745 2.714132 2.157524 0.661609 1.008434 -1.324851 
2.540520 -2.166592 2.318535 2.136965 0.045670 1.143970 -1.265930 
2.338323 -2.106426 2.644276 2.102112 0.493899 0.769967 -1.284532 
2.532890 -2.126200 2.415319 2.148914 0.499355 1.026483 -1.213192 
2.304267 -2.205897 2.627611 2.125396 0.233116 1.004185 -1.012411 
2.294107 -2.113425 2.693484 2.096369 0.482489 0.742838 -1.352909 
2.563168 -2.117200 2.302254 2.119488 0.079553 1.033651 -1.182017 
2.322506 -2.204781 2.648820 2.144986 0.461268 1.020176 -0.964108 
2.471527 -2.241660 2.412429 2.168221 0.147445 1.275580 -1.231251 
2.369707 -2.190435 2.546606 2.128020 0.203929 1.030497 -0.918062 
2.488195 -2.267520 2.425651 2.197743 0.334537 1.363083 -1.176438 
2.283741 -2.236616 2.643026 2.134159 0.199866 1.066078 -1.070586 
2.508363 -2.186902 2.371328 2.147413 0.135195 1.165509 -1.073219 
2.492998 -2.211556 2.479200 2.192661 0.627824 1.216337 -0.853334 
2.265888 -2.248637 2.749508 2.170649 0.663905 1.080058 -1.295263 
2.439852 -2.283774 2.483391 2.197503 0.346924 1.356747 -1.299562 
2.590214 -2.114349 2.344382 2.152106 0.474636 1.054125 -1.225682 
2.521069 -2.229198 2.452533 2.209636 0.669171 1.293451 -0.837667 
2.415611 -2.148411 2.559041 2.140770 0.541499 0.964412 -0.832515 
2.351337 -2.172779 2.557673 2.111214 0.139978 0.963465 -0.899013 
2.297631 -2.128809 2.699722 2.109141 0.544806 0.788228 -1.412952 
2.538104 -2.212159 2.448394 2.210177 0.746855 1.265010 -0.787087 
2.622703 -2.073964 2.310671 2.138882 0.480881 0.978496 -1.210077 
2.285170 -2.206638 2.739854 2.157448 0.715338 0.986279 -1.400862 
2.513162 -2.117770 2.459019 2.148857 0.605918 0.983052 -1.142208 
2.604174 -2.076651 2.258716 2.107853 0.086646 0.966462 -1.173149 
2.272378 -2.110153 2.702283 2.084003 0.391449 0.711306 -1.350815 
2.287726 -2.265840 2.630214 2.146978 0.168879 1.149477 -1.040821 
2.240691 -2.275034 2.677267 2.139705 0.129107 1.125360 -0.983612 
2.320492 -2.182444 2.591836 2.109640 0.133206 0.957507 -0.811240 
2.666278 -2.060688 2.258121 2.139619 0.467611 0.987938 -1.280060 
2.396741 -2.105789 2.585643 2.116701 0.546930 0.829161 -1.348189 
2.544684 -2.120716 2.374820 2.137811 0.353985 1.023913 -0.915208 
2.516621 -2.248795 2.440628 2.212306 0.585775 1.341950 -0.825825 
2.529693 -2.259347 2.339846 2.186738 0.131984 1.384195 -1.283420 
2.282987 -2.270545 2.724237 2.183273 0.645488 1.157295 -1.249166 
2.247544 -2.297562 2.675425 2.155197 0.172140 1.193595 -1.098358 
2.567643 -2.081652 2.348132 2.121844 0.338470 0.941926 -0.919354 
2.187682 -2.294764 2.746284 2.142676 0.174109 1.123582 -0.984183 
2.359107 -2.210917 2.623314 2.161949 0.557570 1.074984 -0.759510 
2.354110 -2.203795 2.642810 2.162638 0.627607 1.050459 -0.695971 
2.396865 -2.266995 2.520213 2.175278 0.266505 1.266421 -1.258592 
2.440515 -2.147481 2.518885 2.140693 0.482491 0.987860 -0.771403 
2.565756 -2.064459 2.301327 2.093263 0.068040 0.893337 -1.147585 
2.492596 -2.196787 2.361203 2.138359 -0.014131 1.175870 -1.285304 
2.475434 -2.265316 2.488780 2.213089 0.591898 1.343799 -0.901128 
2.287192 -2.090390 2.682589 2.075572 0.370523 0.673167 -1.266919 
2.394340 -2.129394 2.575979 2.123675 0.490192 0.890666 -0.855664 
2.531293 -2.146284 2.425203 2.162247 0.551023 1.079279 -1.275333 
2.316824 -2.153285 2.606470 2.097776 0.175991 0.874614 -0.802323 
2.540307 -2.261921 2.371461 2.207389 0.369548 1.402245 -1.138176 
2.501336 -2.231238 2.409094 2.180830 0.312749 1.278403 -1.321810 
2.250428 -2.293223 2.690640 2.160778 0.270043 1.184836 -1.105315 
2.227876 -2.299141 2.782744 2.185383 0.624709 1.177367 -1.205774 
2.541123 -2.054369 2.328285 2.082579 0.053181 0.840291 -1.221177 
2.249798 -2.109656 2.748283 2.087138 0.495823 0.686413 -1.313250 
2.221842 -2.319555 2.722977 2.168659 0.274920 1.226429 -1.180335 
2.324940 -2.160532 2.644280 2.121677 0.433079 0.902730 -1.322345 
2.156366 -2.296636 2.780137 2.136606 0.159334 1.096003 -0.901394 
2.581694 -2.116857 2.335685 2.144468 0.375417 1.052042 -0.839123 
2.358665 -2.129327 2.550521 2.090474 0.128936 0.853281 -0.759632 
2.409363 -2.290926 2.501169 2.188415 0.253400 1.344346 -1.158978 
2.223933 -2.303521 2.688605 2.148149 0.096750 1.185131 -1.156911 
2.445626 -2.093194 2.522165 2.116951 0.508764 0.845984 -0.827793 
2.208229 -2.327406 2.794635 2.192052 0.577024 1.233523 -1.262358 
2.143291 -2.319055 2.802506 2.148604 0.206717 1.143160 -0.836485 
2.560593 -2.258013 2.389156 2.225471 0.590527 1.412801 -0.815040 
2.279717 -2.256193 2.644141 2.142206 0.188981 1.114966 -0.925946 
2.547638 -2.128455 2.421428 2.162070 0.625978 1.047979 -1.328274 
2.285746 -2.234569 2.626914 2.128067 0.125167 1.062619 -1.134642 
2.278460 -2.216837 2.628403 2.114659 0.079598 1.006938 -0.791980 
