0.994077 0.053779 -0.117981 
1.001926 -0.033082 -0.007032 
0.990302 0.100639 -0.170801 
0.987645 0.162459 -0.205023 
0.984295 0.216392 -0.250630 
1.001861 -0.103310 -0.015275 
0.981682 0.278617 -0.284116 
1.004084 -0.168528 0.011959 
0.999274 0.071409 -0.036762 
0.979779 0.345743 -0.306262 
1.006471 -0.025752 0.063150 
1.008024 -0.211888 0.067677 
0.982431 0.399353 -0.260230 
1.010079 0.012904 0.122249 
1.011967 0.074223 0.157413 
1.009294 -0.281524 0.079889 
0.983183 0.467589 -0.241702 
1.016424 0.047583 0.222762 
0.977344 0.260322 -0.352280 
1.008193 -0.348139 0.056197 
1.003944 -0.369869 -0.010957 
1.000414 -0.410069 -0.069022 
0.973051 0.240192 -0.419929 
0.968894 0.278023 -0.479524 
1.020295 0.080410 0.285271 
0.966590 0.220551 -0.520654 
0.987450 0.433212 -0.180057 
1.002120 -0.478147 -0.049983 
1.005536 -0.531125 -0.003274 
1.024736 0.052953 0.350282 
1.020430 0.009892 0.280062 
0.997218 -0.096803 -0.085532 
1.010152 -0.545942 0.065713 
1.022422 -0.056749 0.303622 
1.011240 -0.616018 0.075110 
0.995927 -0.421161 -0.138713 
0.979309 0.512407 -0.296257 
0.991441 -0.395997 -0.204642 
0.986816 -0.394961 -0.275194 
1.029262 0.030201 0.417079 
1.025984 0.118756 0.376136 
0.981448 0.571504 -0.257489 
1.032995 -0.017460 0.469179 
0.985254 -0.458766 -0.305631 
0.992062 0.434205 -0.109504 
0.981929 -0.502690 -0.360945 
1.014440 -0.525639 0.133310 
0.978604 0.463073 -0.312119 
0.963222 0.177388 -0.576561 
1.007955 -0.660605 0.020326 
