-0.142966 0.630226 0.772813 
0.172195 0.654877 0.801361 
0.078243 0.816032 0.625519 
0.119458 0.711990 0.702842 
0.059023 0.864248 0.548029 
0.003202 0.888158 0.480122 
0.013453 0.890150 0.469009 
0.328371 0.899984 0.366702 
0.569830 0.835479 0.236618 
0.528440 0.837518 0.178231 
0.528895 0.803643 0.275636 
0.418235 0.930249 0.119296 
0.344281 0.856560 0.426733 
0.166549 0.966419 0.309052 
0.259022 0.901987 0.366844 
-0.022315 0.915837 0.510576 
-0.153170 0.757271 0.670423 
-0.078690 0.917209 0.471795 
-0.313349 0.868829 0.428466 
-0.224684 1.002891 0.178327 
-0.154510 0.944759 0.305510 
-0.152854 0.976431 0.192362 
-0.229150 0.914917 0.383558 
-0.294296 0.903783 0.322925 
-0.023076 0.925302 0.497908 
-0.098172 0.922802 0.386693 
-0.135411 0.909911 0.392273 
-0.019578 0.848196 0.575217 
-0.161827 0.790002 0.594584 
-0.183982 0.720101 0.678212 
-0.399471 0.651491 0.683458 
-0.408244 0.694655 0.599312 
-0.526160 0.557524 0.670927 
-0.568232 0.596603 0.577013 
-0.473132 0.728155 0.524421 
-0.540355 0.684179 0.496907 
-0.548702 0.513592 0.715651 
-0.510541 0.581455 0.641408 
-0.568939 0.720606 0.460851 
-0.422505 0.777119 0.492405 
-0.600064 0.656865 0.504412 
-0.729311 0.455665 0.566577 
-0.594813 0.623516 0.550507 
-0.634219 0.632053 0.456352 
-0.680128 0.448257 0.636145 
-0.650323 0.655085 0.467791 
-0.741387 0.481302 0.507493 
-0.782800 0.516278 0.375176 
-0.949334 0.358809 0.217509 
-0.734816 0.387556 0.597582 
