0.622071 -0.191795 -0.762393 
0.638623 -0.256447 -0.739022 
0.695224 -0.242508 -0.698997 
0.575151 -0.071185 -0.818006 
0.748529 -0.211581 -0.664325 
0.548407 -0.012961 -0.847919 
0.496739 0.009817 -0.890482 
0.805100 -0.197287 -0.624383 
0.575157 -0.237018 -0.789852 
0.842942 -0.140561 -0.605672 
0.880975 -0.084020 -0.586785 
0.519017 -0.255199 -0.828810 
0.444262 0.030239 -0.933250 
0.507053 0.079649 -0.894611 
0.474330 -0.303857 -0.854018 
0.429031 0.095525 -0.955739 
0.704172 -0.310248 -0.680797 
0.535614 0.143468 -0.884054 
0.868536 -0.199656 -0.576472 
0.376254 0.115012 -0.998574 
0.581314 0.107601 -0.843740 
0.526137 -0.207708 -0.831540 
0.921686 -0.168246 -0.541998 
0.900083 -0.235406 -0.546777 
0.399486 -0.018292 -0.958546 
0.355542 0.177380 -1.024673 
0.426989 -0.348357 -0.881920 
0.749751 -0.346327 -0.640537 
0.370139 -0.352926 -0.923721 
0.434184 -0.416622 -0.864944 
0.798128 -0.377024 -0.599095 
0.473132 0.070326 -0.918433 
0.727884 -0.149172 -0.690381 
0.917288 -0.025872 -0.569460 
0.654310 -0.130375 -0.748674 
0.390502 0.236694 -1.008558 
0.550506 0.212590 -0.884634 
0.630098 0.077775 -0.802140 
0.332892 -0.304838 -0.959779 
0.778715 -0.262308 -0.633107 
0.304681 -0.368860 -0.970040 
0.509426 0.255737 -0.922724 
0.313434 -0.365462 -0.964062 
0.590121 0.267514 -0.864288 
0.254930 -0.341206 -1.011994 
0.644541 0.253941 -0.821227 
0.662586 0.190058 -0.796869 
0.523219 0.325074 -0.924165 
0.734509 -0.415374 -0.640232 
0.701054 -0.316312 -0.682102 
