0.639324 -0.255776 -0.728590 
0.591341 -0.294508 -0.763195 
0.729307 -0.191764 -0.660559 
0.778386 -0.156957 -0.623414 
0.550202 -0.347435 -0.785696 
0.801082 -0.209124 -0.581419 
0.772419 -0.092900 -0.652757 
0.630649 -0.193109 -0.760175 
0.844752 -0.229537 -0.529687 
0.524196 -0.298675 -0.829811 
0.474844 -0.332324 -0.867654 
0.637463 -0.125026 -0.778013 
0.423672 -0.349237 -0.913428 
0.821418 -0.057773 -0.615809 
0.652650 -0.056616 -0.787475 
0.591882 -0.109670 -0.829846 
0.885076 -0.175483 -0.508423 
0.502009 -0.385484 -0.820764 
0.423720 -0.346095 -0.914522 
0.570740 -0.401612 -0.745161 
0.621635 -0.378107 -0.702065 
0.521954 -0.233014 -0.855957 
0.578212 -0.050084 -0.865380 
0.621841 -0.193398 -0.769008 
0.399158 -0.415558 -0.914190 
0.580657 -0.167373 -0.820258 
0.409964 -0.476994 -0.880891 
0.782810 -0.024443 -0.667101 
0.672611 -0.355680 -0.658494 
0.513321 -0.446609 -0.787064 
0.924790 -0.120634 -0.488067 
0.721258 -0.108139 -0.699129 
0.529921 -0.043831 -0.916652 
0.505720 0.006837 -0.959629 
0.350374 -0.451519 -0.950616 
0.752999 -0.242948 -0.617911 
0.398034 -0.296987 -0.958438 
0.668149 0.011768 -0.796609 
0.527366 -0.505936 -0.751243 
0.556815 0.027157 -0.915172 
0.550518 -0.230899 -0.827743 
0.890266 -0.184331 -0.499940 
0.556672 -0.172880 -0.842592 
0.860570 -0.287584 -0.492534 
0.821829 0.031266 -0.647763 
0.695332 -0.407823 -0.616482 
0.911516 -0.277229 -0.444604 
0.397102 -0.545507 -0.869033 
0.483477 0.059439 -1.001323 
0.300061 -0.455777 -1.000119 
