0.363517 -0.698659 -0.616224 
0.420976 -0.646110 -0.636648 
0.432115 -0.610529 -0.663726 
0.437283 -0.610046 -0.660778 
0.464707 -0.644344 -0.607346 
0.348705 -0.705236 -0.617290 
0.289838 -0.687021 -0.666330 
0.224578 -0.712076 -0.665216 
0.520722 -0.606292 -0.601048 
0.478485 -0.605898 -0.635563 
0.375273 -0.693202 -0.615338 
0.167924 -0.745448 -0.645065 
0.162064 -0.762401 -0.626482 
0.529150 -0.600000 -0.600000 
0.529150 -0.600000 -0.600000 
0.164117 -0.701583 -0.693431 
0.164665 -0.683161 -0.711460 
0.354439 -0.702728 -0.616884 
0.529150 -0.600000 -0.600000 
0.165872 -0.638705 -0.751360 
0.432685 -0.610476 -0.663403 
0.331148 -0.712614 -0.618484 
0.325925 -0.636179 -0.699320 
0.164225 -0.698043 -0.696970 
-0.164122 -0.701411 -0.693604 
0.478350 -0.605913 -0.635650 
0.316534 -0.718417 -0.619422 
0.404760 -0.612955 -0.678569 
0.368729 -0.696266 -0.615835 
-0.163121 -0.732581 -0.660846 
0.337427 -0.709097 -0.619132 
0.431997 -0.663792 -0.610539 
0.471743 -0.606614 -0.639905 
0.349695 -0.617221 -0.704806 
0.166181 -0.626357 -0.761617 
0.166181 -0.626357 -0.761617 
0.529150 -0.600000 -0.600000 
0.335043 -0.618226 -0.711016 
-0.164918 -0.674317 -0.719791 
0.164117 -0.701586 -0.693429 
-0.165214 -0.663644 -0.729576 
0.285542 -0.621247 -0.729738 
0.162064 -0.762401 -0.626482 
0.264371 -0.628200 -0.731760 
0.290276 -0.728094 -0.620982 
0.509542 -0.614400 -0.602395 
-0.179276 -0.688695 -0.702538 
0.474319 -0.638256 -0.606342 
0.240556 -0.623519 -0.743880 
0.529150 -0.600000 -0.600000 
