-0.366065 -0.665364 0.654436 
-0.333188 -0.636278 0.709872 
-0.270785 -0.669143 0.714944 
-0.471862 -0.651535 0.598204 
-0.502738 -0.682119 0.542425 
-0.319888 -0.595073 0.765775 
-0.254591 -0.719805 0.668348 
-0.552884 -0.694577 0.494153 
-0.524061 -0.606497 0.613916 
-0.532820 -0.557280 0.663926 
-0.203721 -0.765673 0.650788 
-0.218558 -0.659354 0.761597 
-0.154453 -0.686157 0.774720 
-0.459998 -0.633551 0.626724 
-0.609873 -0.697228 0.452377 
-0.673087 -0.666618 0.444189 
-0.596936 -0.530553 0.650710 
-0.189454 -0.816024 0.603236 
-0.348789 -0.543579 0.804675 
-0.655784 -0.529825 0.611512 
-0.691723 -0.478928 0.644945 
-0.505808 -0.742377 0.471815 
-0.090227 -0.712141 0.788855 
-0.090171 -0.665465 0.841972 
-0.527659 -0.778941 0.415374 
-0.460884 -0.696195 0.554886 
-0.361775 -0.493459 0.852835 
-0.078551 -0.623452 0.897649 
-0.737181 -0.650248 0.419211 
-0.394380 -0.735545 0.555372 
-0.481496 -0.827125 0.391980 
-0.756793 -0.688118 0.362808 
-0.382186 -0.586166 0.733532 
-0.339037 -0.716879 0.614240 
-0.604487 -0.745577 0.401060 
-0.169434 -0.867166 0.558697 
-0.580941 -0.609333 0.572004 
-0.417032 -0.450733 0.863839 
-0.510760 -0.858868 0.335980 
-0.358457 -0.450935 0.903448 
-0.473020 -0.833728 0.390236 
-0.458152 -0.903631 0.320858 
-0.107510 -0.874979 0.591929 
-0.025745 -0.735089 0.806617 
-0.461939 -0.469106 0.812402 
-0.154665 -0.642948 0.823710 
-0.815318 -0.648746 0.367775 
-0.684648 -0.434901 0.699822 
-0.645233 -0.591423 0.548642 
-0.403105 -0.946537 0.309509 
