0.141205 0.654523 -0.746097 
0.080187 0.687112 -0.731441 
0.052234 0.737554 -0.690524 
0.241346 0.636978 -0.735535 
0.265553 0.585933 -0.778060 
0.057085 0.787695 -0.640902 
0.051451 0.839229 -0.592813 
0.258430 0.536248 -0.827867 
0.041088 0.650400 -0.777522 
0.100398 0.868613 -0.551090 
0.247106 0.686942 -0.685833 
-0.014235 0.627253 -0.814986 
0.334080 0.568625 -0.775939 
0.307818 0.703263 -0.653465 
0.079268 0.920018 -0.507374 
0.065695 0.599410 -0.819885 
-0.079958 0.652556 -0.808639 
-0.126515 0.696691 -0.778898 
-0.193557 0.692792 -0.801037 
0.092769 0.968124 -0.457339 
0.375782 0.704158 -0.633966 
-0.251679 0.672952 -0.836084 
0.431127 0.727280 -0.596520 
0.479614 0.757059 -0.554542 
-0.319807 0.691881 -0.836535 
-0.325099 0.743388 -0.788378 
-0.132981 0.659674 -0.816323 
0.514599 0.796245 -0.507207 
0.093446 1.018959 -0.408192 
0.124253 1.060369 -0.359860 
-0.245945 0.621411 -0.884153 
0.257939 0.485386 -0.876988 
-0.284251 0.584198 -0.930498 
-0.267639 0.706980 -0.807687 
0.318774 0.452576 -0.891907 
0.368793 0.410434 -0.918779 
0.579952 0.770211 -0.514360 
0.091564 1.109769 -0.321245 
-0.347394 0.571760 -0.959793 
0.125853 0.784968 -0.624670 
0.324226 0.377511 -0.962709 
0.104144 1.158131 -0.271216 
-0.145528 0.748276 -0.734428 
0.160627 1.095518 -0.316033 
0.423813 0.433914 -0.881076 
0.605143 0.814213 -0.465073 
0.149574 1.190396 -0.227683 
0.334846 0.325727 -1.009672 
0.208577 1.209095 -0.193494 
0.268043 1.174720 -0.210294 
