-0.869170 0.129900 -0.477148 
-0.857888 0.068628 -0.509233 
-0.876432 0.218342 -0.429177 
-0.812316 0.192573 -0.550507 
-0.901077 0.233345 -0.365526 
-0.896220 0.293842 -0.332335 
-0.782880 0.155915 -0.602319 
-0.926400 0.178051 -0.331784 
-0.923886 0.263231 -0.277748 
-0.944684 0.245679 -0.217286 
-0.753093 0.216062 -0.621425 
-0.707127 0.223174 -0.670943 
-0.863903 0.285900 -0.414648 
-0.685594 0.287878 -0.668646 
-0.661890 0.350296 -0.662717 
-0.929206 0.309063 -0.202622 
-0.913344 0.366540 -0.177344 
-0.866224 0.000957 -0.499655 
-0.884833 0.414404 -0.212930 
-0.691886 0.383084 -0.611997 
-0.828310 0.335690 -0.448569 
-0.962597 0.183448 -0.199385 
-0.721085 0.314603 -0.617302 
-0.629924 0.406506 -0.661777 
-0.630878 0.460582 -0.624385 
-0.974359 0.118346 -0.191360 
-0.944569 0.200301 -0.260132 
-0.837075 -0.040102 -0.545617 
-0.682226 0.174313 -0.710058 
-0.669110 0.113720 -0.734411 
-0.668114 0.048150 -0.742500 
-0.584214 0.491957 -0.645501 
-0.672866 -0.016883 -0.739572 
-0.936702 0.322975 -0.135194 
-0.667249 0.476771 -0.572249 
-0.825164 0.039957 -0.563479 
-0.686128 0.510412 -0.518370 
-0.896940 0.081885 -0.434503 
-0.627555 0.495594 -0.600467 
-0.878243 0.449288 -0.163797 
-0.949840 0.302471 -0.079472 
-0.596732 0.376317 -0.708728 
-0.911763 0.354445 -0.207501 
-0.626127 -0.012953 -0.779613 
-0.854848 0.448283 -0.261298 
-0.614714 -0.072015 -0.785456 
-0.555171 0.460733 -0.692467 
-0.981196 0.053365 -0.185490 
-0.971470 0.013476 -0.236780 
-0.549485 0.404677 -0.730960 
