0.181542 -0.537991 -0.823169 
0.308397 -0.504781 -0.806280 
0.176486 -0.478455 -0.860194 
0.113697 -0.554953 -0.824076 
0.148130 -0.424619 -0.893172 
0.050161 -0.579081 -0.813726 
0.121890 -0.369106 -0.921360 
0.127134 -0.306792 -0.943247 
0.365418 -0.464384 -0.806732 
0.060164 -0.397661 -0.915558 
-0.005672 -0.405840 -0.913926 
0.090473 -0.461727 -0.882396 
0.041821 -0.633593 -0.772535 
0.259648 -0.597072 -0.759005 
0.138480 -0.245576 -0.959435 
0.003384 -0.538831 -0.842407 
-0.068747 -0.417744 -0.905960 
0.123256 -0.188711 -0.974267 
0.297089 -0.634652 -0.713411 
0.305049 -0.682184 -0.664508 
-0.052708 -0.567274 -0.821841 
0.297558 -0.728658 -0.616861 
0.361573 -0.711790 -0.602179 
-0.089200 -0.609541 -0.787720 
0.298687 -0.573231 -0.763016 
0.420315 -0.703193 -0.573459 
0.474121 -0.664182 -0.577989 
0.233913 -0.752386 -0.615792 
0.215986 -0.584137 -0.782390 
0.049417 -0.577474 -0.814912 
0.489008 -0.614505 -0.619075 
0.543626 -0.584584 -0.602273 
0.394303 -0.404670 -0.825086 
-0.145592 -0.623374 -0.768250 
-0.054812 -0.369353 -0.927671 
0.205703 -0.792483 -0.574158 
-0.114204 -0.457680 -0.881752 
0.470013 -0.575655 -0.669111 
0.434013 -0.351092 -0.829679 
0.429376 -0.290229 -0.855221 
0.020534 -0.682027 -0.731038 
0.384956 -0.663004 -0.642056 
0.241813 -0.674178 -0.697861 
0.457883 -0.655178 -0.600904 
0.211772 -0.825773 -0.522734 
0.164358 -0.767989 -0.619015 
0.532600 -0.541754 -0.650261 
0.212059 -0.397121 -0.892931 
0.367198 -0.651885 -0.663485 
0.529184 -0.640484 -0.556547 
