-0.501010 0.714708 0.488039 
-0.494709 0.660505 0.564798 
-0.594584 0.655129 0.466129 
-0.433936 0.694069 0.574428 
-0.621112 0.601196 0.502775 
-0.638766 0.649632 0.412258 
-0.613201 0.631336 0.474763 
-0.687379 0.624451 0.370907 
-0.377878 0.733504 0.564961 
-0.481735 0.759221 0.437624 
-0.632348 0.548422 0.547146 
-0.680814 0.502022 0.533354 
-0.671361 0.456940 0.583507 
-0.728250 0.476118 0.492913 
-0.631030 0.443132 0.636738 
-0.706154 0.637730 0.307649 
-0.722475 0.646457 0.245202 
-0.317797 0.737983 0.595303 
-0.606996 0.501999 0.616079 
-0.498130 0.673958 0.545571 
-0.605592 0.405532 0.684691 
-0.494225 0.659125 0.566830 
-0.557266 0.397237 0.729148 
-0.473292 0.794996 0.379441 
-0.311049 0.695284 0.647942 
-0.509933 0.442753 0.737522 
-0.536368 0.606411 0.587005 
-0.710224 0.443810 0.546457 
-0.666609 0.593401 0.451117 
-0.269248 0.775929 0.570474 
-0.731256 0.597945 0.328217 
-0.260144 0.680534 0.684981 
-0.640318 0.556975 0.528935 
-0.315251 0.746505 0.585958 
-0.770976 0.450461 0.450200 
-0.803168 0.447016 0.393825 
-0.626589 0.347747 0.697465 
-0.424455 0.833460 0.353812 
-0.332443 0.731816 0.594917 
-0.657908 0.685563 0.311705 
-0.283176 0.630487 0.722701 
-0.598596 0.310794 0.738302 
-0.656203 0.655863 0.373150 
-0.452056 0.468854 0.758829 
-0.470195 0.828665 0.303696 
-0.698948 0.686963 0.198878 
-0.631839 0.728081 0.265851 
-0.209896 0.777457 0.592879 
-0.347629 0.778404 0.522724 
-0.344096 0.607218 0.716159 
