-0.350195 0.161124 -0.925420 
-0.304842 0.277698 -0.913759 
-0.287017 0.345375 -0.903652 
-0.346973 0.092949 -0.943909 
-0.233840 0.391040 -0.912976 
-0.392396 0.038918 -0.939741 
-0.458183 0.026221 -0.917140 
-0.335093 0.387938 -0.874037 
-0.384329 0.287975 -0.879978 
-0.193516 0.340480 -0.941571 
-0.513466 -0.016502 -0.906246 
-0.514544 0.056776 -0.887309 
-0.322992 0.456463 -0.861471 
-0.436110 0.325752 -0.850119 
-0.313468 0.221542 -0.924563 
-0.448595 0.067421 -0.910492 
-0.180855 0.436955 -0.922162 
-0.375243 0.493575 -0.831595 
-0.440302 0.499585 -0.804553 
-0.336267 0.552573 -0.831979 
-0.284376 0.076786 -0.972551 
-0.508835 -0.084458 -0.925233 
-0.127687 0.340521 -0.967386 
-0.102452 0.279510 -0.992702 
-0.046832 0.247661 -1.022569 
-0.461387 0.260053 -0.856802 
-0.477191 0.553031 -0.776577 
-0.580534 0.054420 -0.862015 
-0.630987 0.094002 -0.832220 
-0.640288 0.161010 -0.811641 
-0.667386 0.033388 -0.833256 
-0.050315 0.178876 -1.038582 
-0.261912 0.014404 -0.997126 
-0.531934 0.509519 -0.766094 
-0.649322 -0.030875 -0.856579 
-0.400585 -0.029873 -0.953910 
-0.232383 0.475085 -0.892313 
-0.465772 -0.132452 -0.954254 
-0.457279 0.192012 -0.875605 
0.018177 0.266073 -1.043421 
0.013020 0.333940 -1.024251 
-0.457214 0.388753 -0.825922 
-0.511131 0.608695 -0.749198 
-0.249487 0.210317 -0.952500 
-0.597781 0.509273 -0.740324 
-0.210846 -0.024358 -1.026953 
-0.388565 0.441783 -0.839455 
-0.697759 -0.082032 -0.850502 
-0.663105 0.513602 -0.713602 
-0.662326 0.223589 -0.787184 
