0.485641 0.635979 -0.599736 
0.430995 0.632625 -0.643451 
0.575802 0.622329 -0.530244 
0.373810 0.628997 -0.681637 
0.571641 0.594265 -0.565753 
0.620118 0.586660 -0.520849 
0.561985 0.671784 -0.482576 
0.331540 0.618458 -0.712454 
0.407599 0.612713 -0.677086 
0.519952 0.721123 -0.457856 
0.271256 0.622016 -0.734518 
0.400598 0.613305 -0.680718 
0.212038 0.624739 -0.751493 
0.381883 0.614824 -0.690042 
0.487430 0.766010 -0.419096 
0.264901 0.654926 -0.707743 
0.168381 0.650652 -0.740472 
0.642606 0.582674 -0.497543 
0.370735 0.615684 -0.695334 
0.372830 0.678448 -0.633013 
0.494794 0.791485 -0.358790 
0.390147 0.614165 -0.685993 
0.686699 0.573812 -0.446301 
0.533262 0.788873 -0.305468 
0.620957 0.586517 -0.520010 
0.179655 0.625925 -0.758909 
0.595132 0.683199 -0.423150 
0.398351 0.613493 -0.681868 
0.164390 0.692531 -0.702408 
0.616085 0.587342 -0.524851 
0.508989 0.814794 -0.277563 
0.486226 0.830469 -0.271857 
0.426202 0.611071 -0.667041 
0.488275 0.604831 -0.629101 
0.166181 0.626357 -0.761617 
0.163836 0.710617 -0.684237 
0.163298 0.727300 -0.666609 
0.166181 0.626357 -0.761617 
0.415270 0.612048 -0.673014 
0.453936 0.608434 -0.650961 
0.582255 0.756490 -0.297829 
0.166181 0.626357 -0.761617 
0.650838 0.581131 -0.488566 
0.166181 0.626357 -0.761617 
0.439705 0.859381 -0.261005 
0.600149 0.740173 -0.303258 
0.187563 0.714592 -0.673927 
0.418577 0.871229 -0.256426 
0.162536 0.749465 -0.641782 
0.367925 0.615896 -0.696637 
