-0.802327 0.663751 -1.612444 1.489836 -1.048987 -1.347633 -2.612382 
-0.868920 0.648696 -1.713326 1.508250 -0.987019 -1.365702 -2.651492 
-0.789848 0.698290 -1.604593 1.533014 -1.115144 -1.393176 -2.595816 
-0.819564 0.606500 -1.694579 1.414435 -1.059771 -1.270003 -2.625096 
-0.844669 0.578500 -1.711858 1.388856 -0.977406 -1.242376 -2.615845 
-0.836647 0.553091 -1.676633 1.346930 -0.916467 -1.198204 -2.640879 
-0.834962 0.523511 -1.678352 1.302076 -0.889892 -1.151528 -2.575898 
-0.761624 0.714125 -1.531228 1.539893 -1.103789 -1.400102 -2.537971 
-0.824297 0.493844 -1.709714 1.250608 -0.937931 -1.099148 -2.557946 
-0.902694 0.633332 -1.756478 1.506350 -0.933849 -1.362943 -2.714126 
-0.737333 0.720670 -1.470502 1.535287 -1.089598 -1.395137 -2.611674 
-0.821068 0.472513 -1.716265 1.216839 -0.933401 -1.064240 -2.642280 
-0.786830 0.602607 -1.656762 1.388416 -1.095773 -1.243699 -2.555682 
-0.923319 0.611092 -1.821947 1.485281 -0.948550 -1.341426 -2.774712 
-0.938075 0.609189 -1.889747 1.490428 -1.008711 -1.347640 -2.813407 
-0.930312 0.653555 -1.773290 1.553692 -0.899234 -1.411267 -2.661485 
-0.946375 0.584771 -1.840395 1.460833 -0.876299 -1.315117 -2.730835 
-0.798980 0.566549 -1.590465 1.344494 -0.911025 -1.195609 -2.671422 
-0.852563 0.538408 -1.700296 1.334956 -0.888021 -1.185423 -2.729508 
-0.818181 0.583808 -1.738861 1.378973 -1.107940 -1.234139 -2.515746 
-0.750289 0.729441 -1.544380 1.554910 -1.177392 -1.416701 -2.478427 
-0.769107 0.573912 -1.519053 1.337738 -0.897969 -1.188443 -2.610707 
-0.750748 0.588994 -1.440443 1.349996 -0.847069 -1.200325 -2.630037 
-0.940459 0.669163 -1.752401 1.583799 -0.853041 -1.441636 -2.733973 
-0.744387 0.725868 -1.463396 1.547691 -1.062677 -1.407530 -2.705698 
-0.799254 0.476778 -1.729972 1.208740 -1.027221 -1.057293 -2.662329 
-0.794192 0.456867 -1.763423 1.175264 -1.072726 -1.023438 -2.726527 
-0.941798 0.612180 -1.905491 1.496889 -1.025772 -1.354562 -2.910096 
-0.799009 0.561863 -1.738474 1.334162 -1.140682 -1.188398 -2.452672 
-0.862074 0.521098 -1.711983 1.315239 -0.857171 -1.164617 -2.493966 
-0.959047 0.702324 -1.775494 1.644290 -0.871255 -1.504319 -2.723899 
-0.793845 0.447330 -1.723154 1.161872 -0.998682 -1.008510 -2.775543 
-0.962472 0.741735 -1.764037 1.705026 -0.888465 -1.567241 -2.742861 
-0.666633 0.718470 -1.413691 1.487693 -1.214109 -1.347903 -2.700123 
-0.772813 0.729641 -1.622191 1.567952 -1.232035 -1.430977 -2.469579 
-0.774627 0.564759 -1.746782 1.322505 -1.232219 -1.177746 -2.479125 
-0.975184 0.749878 -1.791143 1.724646 -0.901951 -1.587686 -2.653125 
-0.970338 0.591599 -1.935999 1.484190 -0.962516 -1.340511 -2.969012 
-0.768458 0.461345 -1.747528 1.165632 -1.131805 -1.014388 -2.800012 
-0.767546 0.526917 -1.770301 1.261449 -1.247246 -1.114978 -2.470682 
-0.894007 0.532622 -1.718671 1.352741 -0.783061 -1.202196 -2.471784 
-0.749442 0.776453 -1.634879 1.621765 -1.378622 -1.488699 -2.478758 
-0.938799 0.517638 -1.783174 1.358026 -0.730390 -1.206858 -2.443776 
-0.763886 0.608155 -1.667513 1.381552 -1.189866 -1.238030 -2.575543 
-0.879330 0.508502 -1.727050 1.307415 -0.813379 -1.155887 -2.751214 
-0.757441 0.766846 -1.519638 1.615396 -1.159696 -1.478840 -2.488649 
-0.998958 0.728537 -1.806554 1.708094 -0.828473 -1.569505 -2.600797 
-0.973142 0.501227 -1.832289 1.354808 -0.683725 -1.202837 -2.506505 
-0.984992 0.753764 -1.758403 1.737481 -0.824300 -1.599762 -2.529710 
-0.724607 0.744447 -1.456831 1.562534 -1.134717 -1.423926 -2.342484 
-0.881795 0.534496 -1.662926 1.348915 -0.734202 -1.197515 -2.406087 
-0.928208 0.589152 -1.937690 1.453328 -1.091874 -1.310612 -2.903048 
-0.886646 0.490215 -1.719995 1.285269 -0.758356 -1.132213 -2.825267 
-0.755778 0.577696 -1.734636 1.329738 -1.285949 -1.186015 -2.399613 
-0.741220 0.735623 -1.422713 1.561006 -1.019136 -1.420614 -2.783128 
-0.931327 0.676766 -1.685316 1.590694 -0.783373 -1.447703 -2.713470 
-0.926448 0.750351 -1.679049 1.696464 -0.874205 -1.558193 -2.710509 
-1.012542 0.493204 -1.873573 1.367437 -0.618846 -1.214892 -2.553033 
-0.986033 0.577603 -1.872633 1.475101 -0.797248 -1.328651 -2.757306 
-0.925396 0.697380 -1.627380 1.618676 -0.733573 -1.475825 -2.759617 
-0.781788 0.567157 -1.812566 1.329153 -1.317538 -1.185886 -2.353341 
-1.005872 0.777499 -1.743804 1.786389 -0.764581 -1.649324 -2.549019 
-0.963103 0.786964 -1.769677 1.772162 -0.948217 -1.637404 -2.619247 
-0.970191 0.577509 -2.025987 1.461185 -1.089545 -1.318683 -2.889887 
-0.751671 0.463500 -1.703290 1.159001 -1.115625 -1.007303 -2.886039 
-0.714663 0.580997 -1.651704 1.309986 -1.284411 -1.165613 -2.374871 
-0.819701 0.561890 -1.892386 1.344004 -1.321687 -1.201270 -2.312242 
-1.005214 0.559429 -2.004166 1.457580 -0.926118 -1.312509 -2.985892 
-0.948122 0.748243 -1.795363 1.704655 -0.989950 -1.568382 -2.680164 
-0.978561 0.607205 -2.055467 1.509806 -1.145282 -1.369684 -2.879524 
-0.670644 0.599336 -1.580509 1.310315 -1.327983 -1.166606 -2.347346 
-0.775801 0.764653 -1.739525 1.618925 -1.450126 -1.486842 -2.371063 
-0.641909 0.722004 -1.439892 1.476344 -1.335876 -1.338022 -2.760566 
-0.726029 0.568080 -1.387338 1.304345 -0.814290 -1.152734 -2.603425 
-0.637940 0.748815 -1.433214 1.513570 -1.368726 -1.376922 -2.832973 
-0.921128 0.735927 -1.592009 1.673720 -0.735424 -1.532643 -2.790974 
-0.786560 0.491643 -1.650541 1.224354 -0.957348 -1.072353 -2.500628 
-1.021381 0.786265 -1.725004 1.809797 -0.697244 -1.672464 -2.609942 
-0.839636 0.543053 -1.960561 1.327456 -1.346776 -1.184574 -2.370704 
-0.953723 0.515562 -1.850713 1.363031 -0.789418 -1.212908 -2.402965 
-0.605465 0.734991 -1.393035 1.473091 -1.388599 -1.335458 -2.891173 
-0.714920 0.751423 -1.390179 1.568131 -1.066712 -1.428679 -2.315346 
-0.887132 0.535750 -2.038806 1.345522 -1.316585 -1.202759 -2.370734 
-1.006811 0.579889 -2.132928 1.485877 -1.149681 -1.345062 -2.844065 
-1.017800 0.802723 -1.665856 1.833182 -0.633446 -1.695633 -2.577323 
-0.795219 0.794091 -1.742601 1.674909 -1.429635 -1.544294 -2.327566 
-0.862980 0.574642 -1.788275 1.393212 -1.038049 -1.247780 -2.625041 
-1.039627 0.473234 -1.932865 1.354036 -0.606518 -1.200881 -2.483577 
-0.751378 0.501259 -1.763715 1.213232 -1.256571 -1.065371 -2.406151 
-0.755481 0.445027 -1.679502 1.134704 -1.044574 -0.981169 -2.938545 
-0.881558 0.462213 -1.700737 1.241036 -0.710749 -1.085861 -2.874740 
-0.901333 0.470179 -1.690034 1.265828 -0.642229 -1.110411 -2.934057 
-0.725177 0.745108 -1.346949 1.566419 -0.959117 -1.425297 -2.799220 
-0.713114 0.486117 -1.649801 1.168773 -1.175531 -1.018285 -2.849488 
-1.005858 0.567239 -2.173675 1.465621 -1.202615 -1.324958 -2.911609 
-0.965424 0.626132 -2.061250 1.529167 -1.216925 -1.390735 -2.820491 
-1.048619 0.545572 -2.230823 1.459883 -1.136708 -1.318048 -2.915044 
-0.869752 0.637001 -1.671098 1.492478 -0.903721 -1.348178 -2.696991 
-0.925613 0.615381 -2.024443 1.488417 -1.268295 -1.349463 -2.851184 
-0.771228 0.460157 -1.802351 1.164397 -1.209024 -1.014274 -2.768058 
-0.698023 0.563690 -1.391919 1.279664 -0.902553 -1.128595 -2.589525 
