0.877604 0.123411 -0.468595 
0.875633 0.059927 -0.499674 
0.912519 0.168564 -0.379336 
0.877466 -0.006327 -0.524313 
0.881038 -0.073570 -0.545891 
0.926868 0.217018 -0.329876 
0.918907 0.285968 -0.316363 
0.935937 0.104812 -0.359654 
0.906647 0.355420 -0.311252 
0.929841 0.385831 -0.251778 
0.929128 0.451355 -0.225205 
0.875239 0.401863 -0.354340 
0.954299 0.036975 -0.351850 
0.960236 0.202332 -0.269288 
0.842482 0.441075 -0.403221 
0.847340 -0.051905 -0.604158 
0.858031 0.253623 -0.452171 
0.814093 -0.038771 -0.665167 
0.843929 0.024864 -0.578187 
0.846321 -0.008732 -0.587750 
0.824568 0.269720 -0.512346 
0.837246 -0.064785 -0.629889 
0.896428 0.437110 -0.296819 
0.829075 0.510448 -0.400442 
0.987682 0.003530 -0.299247 
0.780781 -0.004463 -0.717257 
0.760000 0.061799 -0.730581 
0.959832 0.334365 -0.213675 
0.790997 0.300297 -0.566550 
0.948864 0.271782 -0.262397 
0.993941 0.175530 -0.213202 
0.757379 0.319393 -0.625754 
0.727084 0.071451 -0.792414 
1.009086 -0.062220 -0.284454 
0.821366 0.089532 -0.595763 
0.778906 -0.068027 -0.748178 
0.851114 0.122330 -0.522139 
0.736724 0.125710 -0.749910 
0.893396 -0.143019 -0.550807 
0.764801 0.377447 -0.586072 
0.776447 -0.131096 -0.780057 
0.934800 0.040650 -0.389351 
1.039311 -0.055249 -0.220910 
0.706664 0.034485 -0.849129 
1.069817 -0.105073 -0.181073 
0.821080 0.406317 -0.460960 
0.795367 0.532617 -0.458513 
0.788926 0.130819 -0.643124 
0.848745 0.238369 -0.477297 
1.099890 -0.156291 -0.142701 
