0.678661 0.261376 -0.705308 
0.744533 0.340162 -0.593921 
0.592609 0.483219 -0.683150 
0.594065 0.304606 -0.770151 
0.437427 0.514351 -0.782568 
0.508153 0.353096 -0.804654 
0.651452 0.390884 -0.678567 
0.525900 0.500420 -0.708019 
0.608119 0.360791 -0.725525 
0.470698 0.220118 -0.892374 
0.540667 0.407595 -0.771456 
0.356433 0.474903 -0.829820 
0.335239 0.642290 -0.718067 
0.324737 0.536532 -0.789058 
0.306936 0.611449 -0.735307 
0.133733 0.544542 -0.857277 
0.025320 0.422702 -0.922462 
-0.164893 0.501164 -0.875208 
-0.395627 0.531411 -0.788808 
-0.324928 0.512016 -0.798006 
-0.453135 0.454604 -0.779784 
-0.483832 0.643737 -0.638758 
-0.494281 0.674088 -0.555419 
-0.687147 0.573296 -0.499619 
-0.739005 0.422137 -0.550628 
-0.546058 0.514148 -0.713886 
-0.611447 0.373811 -0.713520 
-0.502408 0.205844 -0.878952 
-0.531797 0.055917 -0.858333 
-0.686685 0.005591 -0.752368 
-0.830554 -0.187002 -0.597255 
-0.835798 0.030777 -0.588582 
-0.895957 -0.171716 -0.474283 
-0.885153 -0.055367 -0.475709 
-0.829701 0.062980 -0.579102 
-0.670835 0.231071 -0.764329 
-0.671586 0.450382 -0.638852 
-0.588530 0.582934 -0.583459 
-0.750103 0.569592 -0.410863 
-0.800640 0.465694 -0.393687 
-0.740451 0.382018 -0.598658 
-0.724714 0.417316 -0.551106 
-0.789879 0.477093 -0.417350 
-0.809001 0.543852 -0.273850 
-0.775544 0.452667 -0.507385 
-0.706390 0.508296 -0.499600 
-0.615023 0.700015 -0.426758 
-0.347846 0.802480 -0.583955 
-0.440800 0.747452 -0.511182 
-0.325714 0.690126 -0.680211 
