0.679603 0.678918 0.277867 
0.808665 0.539132 0.235365 
0.842963 0.480569 0.241800 
0.806783 0.476131 0.349859 
0.864063 0.468062 0.185237 
0.801747 0.578764 0.149112 
0.744817 0.664118 -0.064769 
0.762705 0.626388 -0.160996 
0.751395 0.655907 -0.072048 
0.582426 0.776011 -0.242048 
0.647841 0.706275 -0.285442 
0.408821 0.807605 -0.425018 
0.583256 0.677888 -0.447527 
0.767453 0.570607 -0.292273 
0.822490 0.379439 -0.423717 
0.949386 0.205935 -0.237186 
0.848167 0.393524 -0.354616 
0.837915 0.293557 -0.460133 
0.861331 0.406975 -0.304106 
0.878181 0.165466 -0.448798 
0.868112 0.388168 -0.309365 
0.867339 0.452135 -0.208080 
0.714887 0.570114 -0.404854 
0.812122 0.354249 -0.463644 
0.846069 0.463969 -0.262487 
0.752640 0.453766 -0.477106 
0.786340 0.386118 -0.482268 
0.820312 0.207502 -0.532945 
0.782394 -0.016841 -0.622556 
0.656284 -0.106191 -0.747004 
0.624931 -0.097729 -0.774539 
0.563088 -0.301363 -0.769488 
0.535781 -0.225117 -0.813795 
0.502673 -0.116687 -0.856565 
0.567263 -0.267855 -0.778759 
0.440696 -0.213551 -0.871885 
0.301555 -0.200757 -0.932074 
0.250494 -0.007998 -0.968085 
0.422287 -0.135389 -0.896294 
0.624962 -0.038654 -0.779697 
0.533772 0.109899 -0.838457 
0.343132 0.326086 -0.880868 
0.124463 0.403263 -0.906580 
0.262224 0.472768 -0.841266 
0.434297 0.476499 -0.764419 
0.453004 0.695310 -0.557971 
0.391302 0.545565 -0.741108 
0.579270 0.526915 -0.621938 
0.441903 0.438090 -0.782815 
0.534076 0.361219 -0.764385 
