0.013636 -0.171041 -0.985170 
-0.184379 -0.164190 -0.969044 
0.047525 -0.261268 -0.964096 
-0.135274 -0.247058 -0.959512 
-0.216548 -0.293646 -0.931063 
-0.256219 -0.097710 -0.961668 
0.136897 -0.290427 -0.947054 
-0.294976 -0.010266 -0.955450 
-0.265842 -0.364282 -0.892539 
-0.237680 -0.193868 -0.951800 
0.056399 -0.082623 -0.994984 
-0.235269 0.064015 -0.969820 
0.131019 -0.023164 -0.991109 
0.096929 0.066163 -0.993090 
-0.365402 0.040977 -0.929948 
0.159137 -0.374301 -0.913550 
-0.349960 0.130460 -0.927636 
0.240827 -0.392303 -0.887750 
-0.204766 -0.435319 -0.876680 
0.053973 -0.017231 -0.998394 
-0.014026 -0.013745 -0.999807 
-0.221578 -0.508742 -0.831916 
-0.353267 -0.338039 -0.872314 
-0.170114 -0.111034 -0.979149 
0.146071 0.138902 -0.979474 
-0.272774 -0.475917 -0.836121 
-0.397231 -0.397424 -0.827201 
-0.465557 -0.340983 -0.816693 
0.080264 0.202905 -0.975903 
-0.323434 -0.421820 -0.847029 
0.012207 -0.348361 -0.937281 
0.247962 -0.467564 -0.848468 
0.154182 -0.415389 -0.896482 
0.227364 -0.278981 -0.932993 
-0.443763 0.051505 -0.894663 
0.013455 -0.072580 -0.997272 
-0.120440 -0.340196 -0.932610 
-0.238679 -0.547986 -0.801713 
-0.294534 -0.184438 -0.937674 
0.055531 -0.264488 -0.962789 
-0.153748 0.113391 -0.981582 
0.320522 -0.388452 -0.863928 
-0.043214 -0.212852 -0.976128 
0.124486 -0.492870 -0.861152 
-0.005404 0.175605 -0.984446 
0.380288 -0.326067 -0.865483 
0.058548 0.119490 -0.991108 
0.370800 -0.246247 -0.895472 
-0.086071 -0.157508 -0.983760 
0.070120 -0.355991 -0.931855 
-0.361756 -0.118509 -0.924710 
-0.500198 -0.011011 -0.865841 
-0.431963 -0.341074 -0.834911 
-0.429080 -0.034188 -0.902619 
0.221496 -0.019205 -0.974972 
0.052551 -0.266566 -0.962383 
0.003248 -0.114507 -0.993417 
-0.470221 -0.256333 -0.844503 
-0.073669 0.233708 -0.969512 
-0.345402 -0.421752 -0.838345 
-0.111239 0.194000 -0.974674 
-0.281707 0.190517 -0.940396 
0.232727 0.133044 -0.963399 
0.057192 -0.018872 -0.998185 
-0.521618 0.067804 -0.850481 
0.124131 -0.089246 -0.988244 
0.003255 0.045496 -0.998959 
0.315227 -0.314325 -0.895451 
-0.442350 -0.443448 -0.779539 
-0.388509 0.197056 -0.900128 
0.041682 0.278351 -0.959575 
-0.016687 -0.431507 -0.901955 
-0.170393 0.133271 -0.976322 
-0.311163 -0.275201 -0.909638 
-0.262800 -0.474820 -0.839930 
-0.480404 -0.167105 -0.860981 
0.007041 -0.347097 -0.937803 
0.300177 0.008161 -0.953849 
0.150959 -0.035856 -0.987890 
0.118124 -0.274812 -0.954214 
-0.431533 -0.453292 -0.779939 
-0.550856 -0.071182 -0.831559 
-0.416548 -0.381198 -0.825334 
0.001915 -0.508528 -0.861043 
0.240406 0.213374 -0.946930 
-0.326425 -0.455048 -0.828479 
-0.045919 -0.269151 -0.962003 
0.305385 -0.207882 -0.929260 
-0.316953 -0.553598 -0.770110 
0.167653 0.217874 -0.961469 
-0.084300 -0.088718 -0.992483 
-0.281656 -0.500895 -0.818397 
-0.312370 0.211121 -0.926204 
-0.151450 0.112377 -0.982056 
0.316081 -0.484091 -0.815934 
-0.008646 0.185282 -0.982647 
-0.051008 -0.566939 -0.822179 
0.169210 -0.370274 -0.913381 
0.091462 -0.111427 -0.989555 
-0.050946 0.123353 -0.991054 
0.351180 -0.131768 -0.926990 
-0.342420 -0.392121 -0.853809 
-0.320993 -0.148056 -0.935437 
-0.229281 0.196018 -0.953419 
-0.365484 -0.233797 -0.900977 
0.313326 0.120513 -0.941968 
