0.666293 -0.689181 0.284751 
0.690667 -0.708052 0.147111 
0.633960 -0.691292 0.346713 
0.628370 -0.749399 0.208692 
0.727725 -0.679238 0.095145 
0.580188 -0.735514 0.349858 
0.524230 -0.763943 0.376262 
0.483471 -0.763514 0.428137 
0.702622 -0.637692 0.315706 
0.446625 -0.805178 0.390145 
0.750573 -0.591016 0.295533 
0.716483 -0.696989 0.029320 
0.793190 -0.538164 0.285007 
0.726285 -0.686435 -0.036283 
0.395204 -0.840254 0.371198 
0.827928 -0.481330 0.287848 
0.668952 -0.743242 0.009735 
0.634453 -0.657367 0.406616 
0.440022 -0.803145 0.401671 
0.697609 -0.710700 -0.090808 
0.821580 -0.520252 0.233117 
0.735020 -0.666907 -0.122395 
0.448499 -0.753630 0.480511 
0.776284 -0.616712 -0.130575 
0.788019 -0.611863 -0.068187 
0.787924 -0.576738 0.215752 
0.813426 -0.565096 -0.137853 
0.684304 -0.642677 0.344521 
0.777792 -0.599745 -0.188005 
0.809006 -0.470904 0.351793 
0.795740 -0.497300 0.345672 
0.621817 -0.782936 -0.018857 
0.807013 -0.431824 0.402813 
0.575601 -0.816061 -0.052230 
0.738039 -0.664054 0.119709 
0.521184 -0.852421 -0.041778 
0.805770 -0.388900 0.446645 
0.533762 -0.840543 -0.092660 
0.822577 -0.567803 -0.031096 
0.517271 -0.855496 0.023617 
0.471557 -0.709595 0.523554 
0.848955 -0.514050 -0.122591 
0.465078 -0.883623 0.053971 
0.777893 -0.488472 0.395319 
0.688870 -0.691354 0.217916 
0.604758 -0.796404 0.002826 
0.396363 -0.864377 0.309433 
0.710902 -0.680261 -0.178505 
0.573714 -0.784856 0.234208 
0.392261 -0.780833 0.486241 
