0.786891 0.028884 -0.616416 
0.845974 0.064495 -0.529310 
0.844488 -0.055664 -0.532674 
0.874236 0.098861 -0.475329 
0.875299 -0.083519 -0.476315 
0.902203 -0.107509 -0.417698 
0.905990 -0.168113 -0.388485 
0.926398 -0.184105 -0.328470 
0.753987 -0.018312 -0.656634 
0.716360 0.023529 -0.697334 
0.686972 -0.031673 -0.725993 
0.864156 0.167356 -0.474581 
0.876933 0.215679 -0.429502 
0.869238 0.277334 -0.409281 
0.642514 -0.063804 -0.763613 
0.875377 0.319239 -0.363045 
0.946900 -0.177399 -0.268160 
0.827174 0.183206 -0.531242 
0.671690 0.053039 -0.738931 
0.963502 -0.166575 -0.209564 
0.954348 -0.225839 -0.195492 
0.636134 0.102938 -0.764681 
0.586859 0.092624 -0.804374 
0.864210 0.372567 -0.338133 
0.936002 -0.284250 -0.207611 
0.626756 0.168708 -0.760733 
0.846329 0.424581 -0.321650 
0.828061 0.471871 -0.302743 
0.976585 -0.150620 -0.153604 
0.927641 -0.329123 -0.176526 
0.599091 0.225245 -0.768346 
0.544995 0.131009 -0.828141 
0.620643 -0.125390 -0.774002 
0.814771 0.445144 -0.371476 
0.496866 0.117092 -0.859891 
0.958013 -0.112735 -0.263633 
0.572967 0.280439 -0.770106 
0.777993 0.478783 -0.406809 
0.947554 -0.289433 -0.135537 
0.903612 -0.371134 -0.213878 
0.984983 -0.141532 -0.098878 
0.543420 0.330214 -0.771786 
0.991313 -0.081032 -0.103600 
0.842831 0.477161 -0.248903 
0.449479 0.103715 -0.887249 
0.583945 0.353005 -0.731024 
0.582653 -0.170929 -0.794543 
0.631356 0.335757 -0.699040 
0.739770 -0.036899 -0.671847 
0.503878 0.365013 -0.782861 
