0.759637 0.453104 -0.471856 
0.668505 0.525034 -0.531452 
0.803914 0.399276 -0.459935 
0.843585 0.403889 -0.401583 
0.812073 0.341944 -0.500512 
0.807866 0.292489 -0.550875 
0.875586 0.422286 -0.341272 
0.921664 0.371438 -0.324202 
0.632367 0.513587 -0.591143 
0.873809 0.475962 -0.295275 
0.660219 0.582429 -0.490990 
0.865618 0.533310 -0.254727 
0.908765 0.529964 -0.198806 
0.594916 0.504567 -0.650439 
0.838994 0.230441 -0.564330 
0.548172 0.554010 -0.669685 
0.922204 0.431372 -0.269395 
0.892521 0.590613 -0.166282 
0.810804 0.206377 -0.624548 
0.619250 0.639915 -0.495094 
0.957049 0.509374 -0.151427 
0.978458 0.542198 -0.092570 
0.639350 0.674266 -0.436648 
0.498550 0.586142 -0.708482 
0.571377 0.658538 -0.543688 
0.529575 0.715260 -0.549618 
0.968973 0.323383 -0.302931 
0.877391 0.171074 -0.565438 
0.873949 0.651921 -0.136341 
0.856081 0.713045 -0.105606 
0.926078 0.148260 -0.519513 
0.975606 0.111017 -0.485456 
1.017859 0.281026 -0.274364 
0.754349 0.414022 -0.514338 
0.451322 0.634410 -0.729451 
0.410999 0.692432 -0.732187 
1.006438 0.048920 -0.499361 
1.051731 0.039646 -0.445858 
1.067329 0.251822 -0.233135 
0.825936 0.775241 -0.090674 
1.018653 0.484075 -0.090097 
1.022550 -0.011687 -0.532029 
0.490363 0.643488 -0.667931 
1.029195 -0.068232 -0.573964 
1.116643 0.212269 -0.201454 
0.981049 -0.048323 -0.621771 
0.597413 0.450435 -0.695864 
1.100388 0.017005 -0.399816 
1.145637 -0.035338 -0.385228 
1.166087 0.183395 -0.159961 
