-0.293848 0.334366 0.895462 
-0.385367 0.330768 0.861443 
-0.103112 0.347493 0.931996 
-0.076168 0.257437 0.963288 
-0.042723 0.169031 0.984684 
-0.304521 0.423071 0.853392 
-0.467687 0.293575 0.833716 
-0.144067 0.428630 0.891920 
-0.372555 0.421207 0.826914 
0.009149 0.093046 0.995620 
-0.390875 0.265173 0.881420 
-0.419235 0.479337 0.771024 
-0.406290 0.557003 0.724345 
-0.013386 0.385103 0.922777 
-0.342272 0.620434 0.705629 
-0.490389 0.202880 0.847560 
-0.234984 0.231827 0.943949 
-0.543675 0.264253 0.796610 
-0.371550 0.274951 0.886765 
-0.071497 0.042906 0.996518 
-0.052333 0.021827 0.998391 
0.012053 0.468950 0.883143 
0.008366 0.549753 0.835286 
-0.448274 0.126583 0.884888 
-0.064638 0.597807 0.799030 
-0.520025 0.091034 0.849286 
0.098299 0.433483 0.895785 
0.015191 0.290260 0.956827 
-0.121840 0.650253 0.749884 
0.044403 0.453138 0.890334 
0.074464 0.350063 0.933762 
0.179844 0.454054 0.872635 
-0.524594 0.145140 0.838890 
-0.118665 -0.042123 0.992040 
-0.332112 0.508280 0.794578 
0.085193 0.049112 0.995153 
-0.531503 0.006426 0.847032 
0.150570 0.299653 0.942092 
0.082612 0.524280 0.847529 
-0.129914 0.125422 0.983561 
-0.208634 -0.025250 0.977668 
0.215332 0.517345 0.828243 
-0.329507 0.232270 0.915137 
-0.369864 0.332528 0.867540 
-0.305601 0.684444 0.661924 
-0.049535 0.689372 0.722712 
0.259409 0.563799 0.784116 
-0.481371 0.377312 0.791149 
-0.119792 -0.046360 0.991716 
0.137782 0.556388 0.819420 
-0.383303 0.640159 0.665789 
0.229136 0.381966 0.895320 
-0.465776 0.298011 0.833212 
-0.335247 0.681738 0.650264 
-0.560422 -0.061873 0.825893 
-0.332791 0.699922 0.631949 
0.092793 0.467458 0.879132 
-0.612310 -0.004093 0.790608 
-0.235081 0.061497 0.970028 
-0.555282 0.339038 0.759417 
-0.152244 0.566579 0.809821 
0.027067 0.301747 0.953004 
-0.606689 0.218150 0.764421 
-0.186308 0.595406 0.781524 
0.104472 0.431145 0.896214 
-0.326961 0.059028 0.943193 
0.315042 0.504340 0.803984 
-0.368371 0.367523 0.853949 
-0.498820 0.195372 0.844398 
-0.441090 0.353328 0.824984 
-0.362180 0.263571 0.894067 
-0.395548 0.256244 0.881976 
-0.413764 0.056043 0.908657 
-0.234970 0.245622 0.940457 
0.183930 0.565421 0.804033 
-0.073950 0.325822 0.942535 
-0.563884 0.155371 0.811107 
-0.157518 0.177015 0.971521 
-0.448108 0.054614 0.892310 
0.182396 0.590842 0.785899 
-0.553677 0.017353 0.832551 
0.169271 0.072180 0.982923 
-0.034868 -0.071938 0.996799 
-0.353468 0.139278 0.925020 
-0.042699 -0.151893 0.987474 
-0.110690 0.510728 0.852587 
-0.628606 0.141115 0.764814 
-0.227242 0.521769 0.822264 
-0.556595 0.356583 0.750367 
-0.096775 0.621981 0.777029 
-0.156123 0.704181 0.692643 
-0.510458 0.087797 0.855409 
-0.215115 0.227697 0.949674 
0.027025 0.547806 0.836169 
0.068814 0.546083 0.834900 
0.064546 0.211429 0.975260 
0.204675 0.588830 0.781913 
-0.461601 0.599724 0.653648 
-0.505039 0.528153 0.682635 
-0.019863 0.181653 0.983162 
-0.389558 0.692097 0.607656 
-0.577963 0.088063 0.811297 
0.086287 -0.036266 0.995610 
0.016365 0.232383 0.972487 
-0.459399 -0.024939 0.887880 
-0.651133 0.063391 0.756311 
-0.373580 0.556248 0.742312 
-0.564362 0.243864 0.788686 
-0.511274 0.587638 0.627121 
-0.062457 0.544452 0.836463 
-0.287145 0.592151 0.752931 
-0.122272 0.032841 0.991953 
-0.662303 -0.011652 0.749146 
0.082644 0.372018 0.924539 
-0.618426 0.018701 0.785621 
0.101210 0.121020 0.987477 
-0.193083 0.147082 0.970096 
-0.389470 -0.073602 0.918094 
-0.278201 0.261986 0.924104 
-0.292700 -0.054350 0.954658 
-0.409356 0.559142 0.720963 
-0.241443 0.422051 0.873830 
0.078359 0.208799 0.974814 
-0.499778 0.451130 0.739394 
-0.206781 0.648145 0.732905 
-0.098761 0.339226 0.935506 
0.202199 0.365667 0.908517 
-0.124324 0.118372 0.985156 
