-0.904649 -0.296237 0.337461 
-0.917319 -0.278601 0.289158 
-0.902232 -0.067938 0.535311 
-0.761914 -0.182445 0.656561 
-0.584846 -0.232851 0.813489 
-0.380595 -0.277678 0.911331 
-0.196794 -0.072258 1.021519 
-0.032589 0.007839 1.015118 
-0.255455 0.114366 0.991461 
-0.341846 0.283311 0.918324 
-0.483964 0.555734 0.759138 
-0.537583 0.505169 0.681146 
-0.420250 0.442697 0.814086 
-0.339508 0.381129 0.867362 
-0.510079 0.438408 0.768001 
-0.580949 0.444650 0.689605 
-0.740341 0.492655 0.516544 
-0.691590 0.568913 0.457119 
-0.721417 0.335701 0.690266 
-0.761655 0.220079 0.622987 
-0.674139 0.415000 0.647693 
-0.621884 0.299714 0.739886 
-0.436746 0.318059 0.871751 
-0.491923 0.359537 0.798855 
-0.441857 0.593188 0.718614 
-0.233812 0.539834 0.845704 
-0.048920 0.405448 0.945819 
0.089884 0.259935 0.982458 
-0.089528 0.393790 0.942450 
-0.124408 0.440855 0.891916 
-0.234968 0.664573 0.762915 
-0.216710 0.722773 0.665145 
-0.404853 0.626130 0.699980 
-0.438365 0.780331 0.509498 
-0.597840 0.761452 0.340787 
-0.631870 0.757110 0.211487 
-0.524944 0.798560 0.341724 
-0.362367 0.946454 0.201584 
-0.239348 0.956680 0.203988 
-0.158992 0.948317 0.302728 
0.008455 1.029666 0.108929 
-0.090900 1.003577 0.026313 
-0.249617 0.986945 -0.195213 
-0.326056 0.883771 -0.424908 
-0.243123 0.969688 -0.228624 
-0.288318 0.952481 -0.139112 
-0.074671 0.987098 -0.309940 
-0.353952 0.981309 -0.136239 
-0.367682 0.945903 0.046342 
-0.545454 0.851925 0.205353 
