-0.800618 0.384744 0.464739 
-0.864536 0.362107 0.355605 
-0.899517 0.350300 0.295298 
-0.927021 0.285645 0.303253 
-0.937527 0.226571 0.340667 
-0.964151 0.161812 0.350539 
-0.953961 0.123965 0.409394 
-0.961540 0.067059 0.450675 
-0.929703 0.351992 0.231377 
-0.761393 0.415388 0.514961 
-0.904197 0.416799 0.219151 
-0.929009 0.430441 0.154358 
-0.787490 0.456867 0.419681 
-0.721995 0.464643 0.546926 
-0.953707 0.026102 0.507782 
-0.898467 0.256057 0.391705 
-0.689843 0.527529 0.550324 
-0.923751 0.485427 0.110211 
-0.930457 0.527808 0.054007 
-0.654346 0.541068 0.609962 
-0.625712 0.535671 0.674390 
-0.633081 0.478932 0.715939 
-0.773269 0.518259 0.387606 
-0.966793 0.511259 -0.004353 
-0.976655 0.549549 -0.062976 
-0.958874 0.612666 -0.089435 
-1.001133 0.450223 -0.014112 
-0.628514 0.433966 0.770319 
-0.921977 0.670009 -0.070714 
-0.587485 0.589795 0.699075 
-1.003124 0.132901 0.299107 
-1.040411 0.400279 -0.045142 
-0.547548 0.633769 0.737433 
-0.915965 0.048440 0.563249 
-0.912702 0.728206 -0.109791 
-0.735416 0.573437 0.410465 
-0.904956 0.785245 -0.150859 
-0.913886 0.000651 0.615324 
-0.611247 0.406664 0.833219 
-0.944927 0.745928 -0.193946 
-0.865612 0.816779 -0.101284 
-1.074453 0.338935 -0.053977 
-0.517104 0.632717 0.801246 
-1.032862 0.068808 0.301893 
-1.111503 0.281899 -0.073322 
-1.071791 0.040171 0.250275 
-0.916392 0.145525 0.465284 
-1.078286 0.285214 -0.008158 
-0.623111 0.346684 0.868740 
-0.827136 0.870109 -0.075293 
