0.240667 0.890231 -0.386740 
0.224528 0.864344 -0.449996 
0.178677 0.941584 -0.285473 
0.150441 0.952922 -0.263262 
0.151525 0.943098 -0.295985 
-0.152669 0.931281 -0.330770 
-0.153850 0.917416 -0.366985 
0.148893 0.964772 -0.216900 
0.300838 0.886853 -0.350695 
0.258470 0.827872 -0.497816 
-0.153643 0.919975 -0.360611 
0.251527 0.792761 -0.555215 
0.215547 0.766601 -0.604866 
0.148893 0.964772 -0.216900 
-0.163281 0.897922 -0.408748 
0.352919 0.884577 -0.304912 
0.148893 0.964772 -0.216900 
0.257741 0.728139 -0.635124 
0.148893 0.964772 -0.216900 
-0.169673 0.933032 -0.317275 
0.407468 0.851736 -0.329416 
0.133576 0.967270 0.215745 
-0.223500 0.930952 -0.288749 
0.133576 0.967270 0.215745 
0.170710 0.960731 0.218755 
0.300493 0.689451 -0.659060 
0.358998 0.666172 -0.653709 
0.380826 0.890552 -0.248776 
0.255940 0.668634 -0.698157 
-0.175495 0.867744 -0.464997 
0.226259 0.947825 0.224578 
0.133576 0.967270 0.215745 
-0.194709 0.834979 -0.514684 
0.402103 0.628674 -0.665644 
0.465748 0.829514 -0.308196 
-0.236901 0.806668 -0.541447 
0.499959 0.792169 -0.350012 
0.406150 0.612837 -0.677844 
-0.133576 0.967270 0.215745 
-0.279310 0.916635 -0.285947 
0.257329 0.938917 0.228510 
0.133576 0.967270 0.215745 
0.375653 0.615308 -0.693022 
0.360277 0.900125 -0.244898 
0.369663 0.615765 -0.695832 
-0.330693 0.897697 -0.291174 
-0.133576 0.967270 0.215745 
0.550752 0.770077 -0.321953 
-0.287834 0.787947 -0.544326 
-0.133576 0.967270 0.215745 
