0.638703 0.554515 -0.533452 
0.592531 0.606954 -0.529636 
0.638663 0.456564 -0.619402 
0.686818 0.408538 -0.601147 
0.537828 0.620941 -0.570240 
0.671957 0.569502 -0.473436 
0.595372 0.440489 -0.671938 
0.510814 0.672744 -0.535242 
0.712647 0.563883 -0.417336 
0.758119 0.532679 -0.376177 
0.567973 0.399414 -0.719635 
0.457646 0.711495 -0.533231 
0.800320 0.492949 -0.341306 
0.635400 0.625068 -0.453383 
0.824791 0.433216 -0.363378 
0.502225 0.597631 -0.624986 
0.540985 0.355557 -0.762178 
0.854802 0.417271 -0.308542 
0.413239 0.752009 -0.513532 
0.843971 0.372252 -0.386188 
0.587621 0.307910 -0.748260 
0.497254 0.330222 -0.802304 
0.795063 0.533329 -0.288851 
0.598348 0.245000 -0.762859 
0.373605 0.736729 -0.563605 
0.442063 0.332152 -0.833220 
0.867330 0.431354 -0.248339 
0.326353 0.726223 -0.605057 
0.407618 0.295092 -0.864158 
0.809136 0.389385 -0.440089 
0.895874 0.377149 -0.234881 
0.853510 0.312917 -0.416658 
0.637943 0.313293 -0.703475 
0.412263 0.389722 -0.823502 
0.382131 0.446389 -0.809144 
0.318680 0.685338 -0.654794 
0.783888 0.573027 -0.239081 
0.683421 0.268627 -0.678805 
0.416031 0.785224 -0.458629 
0.385999 0.248188 -0.888486 
0.803334 0.340616 -0.488503 
0.751017 0.624060 -0.215691 
0.706140 0.668832 -0.232445 
0.713403 0.210631 -0.668349 
0.741470 0.650858 -0.163116 
0.876442 0.336245 -0.344658 
0.279607 0.757483 -0.589949 
0.453518 0.643296 -0.616840 
0.862668 0.466149 -0.196239 
0.336593 0.636975 -0.693519 
0.380743 0.502828 -0.776015 
0.725858 0.282665 -0.627081 
0.700863 0.696971 -0.151730 
0.430277 0.205557 -0.878981 
0.271780 0.669922 -0.690898 
0.656699 0.739699 -0.146939 
0.438236 0.445090 -0.780925 
0.411120 0.816335 -0.405682 
0.358460 0.824931 -0.437029 
0.280354 0.793679 -0.539884 
0.659476 0.713994 -0.235170 
0.872455 0.251292 -0.419136 
0.231870 0.814691 -0.531521 
0.891214 0.193525 -0.410227 
0.793643 0.290673 -0.534452 
0.704477 0.703063 -0.097026 
0.417038 0.155081 -0.895561 
0.782603 0.604525 -0.148597 
0.624124 0.726572 -0.287336 
0.810561 0.227522 -0.539652 
0.355960 0.397968 -0.845526 
0.460690 0.808439 -0.366322 
0.914332 0.154257 -0.374435 
0.265670 0.624203 -0.734704 
0.472661 0.763902 -0.439370 
0.735079 0.675631 -0.056406 
0.663791 0.680906 -0.309432 
0.599408 0.762010 -0.245052 
0.919616 0.097370 -0.380560 
0.686974 0.636156 -0.351243 
0.808493 0.168077 -0.563994 
0.900582 0.065614 -0.429706 
0.777821 0.137804 -0.613192 
0.394676 0.624024 -0.674407 
0.483233 0.184944 -0.855735 
0.565594 0.205771 -0.798600 
0.269275 0.573906 -0.773384 
0.740581 0.116510 -0.661789 
