-0.727062 -0.126274 0.674860 
-0.754841 -0.065981 0.652581 
-0.679695 -0.112300 0.724847 
-0.798695 -0.058753 0.598861 
-0.735900 -0.004253 0.677077 
-0.721265 -0.263035 0.640773 
-0.673289 -0.259683 0.692277 
-0.828317 -0.011463 0.560142 
-0.764254 -0.270140 0.585611 
-0.694008 0.029560 0.719360 
-0.630332 -0.311018 0.711301 
-0.778916 -0.319617 0.539568 
-0.634484 -0.083231 0.768442 
-0.820080 -0.284528 0.496501 
-0.650420 -0.174521 0.739253 
-0.805925 -0.235982 0.542953 
-0.780592 -0.374608 0.500345 
-0.596817 -0.194456 0.778458 
-0.847188 -0.300906 0.437868 
-0.835465 0.052975 0.546984 
-0.546340 -0.174817 0.819116 
-0.866503 0.073059 0.493796 
-0.677636 -0.147158 0.720523 
-0.577724 -0.342925 0.740700 
-0.837903 0.118258 0.532854 
-0.502306 -0.139593 0.853348 
-0.536730 -0.394713 0.745736 
-0.488520 -0.434859 0.756469 
-0.609843 -0.136609 0.780660 
-0.855821 -0.341571 0.388458 
-0.736046 -0.409773 0.538816 
-0.844211 -0.203041 0.496067 
-0.464033 -0.096114 0.880588 
-0.876619 -0.349495 0.330746 
-0.879070 -0.383841 0.282670 
-0.562580 -0.438358 0.700961 
-0.856743 0.158312 0.490845 
-0.687396 0.095021 0.720040 
-0.877822 -0.170999 0.447423 
-0.806444 -0.239922 0.540450 
-0.880908 -0.280067 0.381528 
-0.691619 -0.415524 0.590764 
-0.709704 -0.468772 0.525902 
-0.619511 -0.369388 0.692646 
-0.720518 -0.505359 0.474832 
-0.796513 0.056472 0.601978 
-0.850345 0.215543 0.480057 
-0.601753 -0.032143 0.798035 
-0.449086 -0.481425 0.752696 
-0.896480 0.050505 0.440196 
-0.438009 -0.041848 0.897996 
-0.430071 0.019827 0.902577 
-0.645703 0.132725 0.751965 
-0.718730 -0.308076 0.623311 
-0.483882 -0.003012 0.875128 
-0.906517 0.101436 0.409801 
-0.875665 -0.419576 0.239094 
-0.914614 -0.001621 0.404324 
-0.454199 -0.179219 0.872687 
-0.582371 0.029028 0.812405 
-0.727899 -0.362670 0.581922 
-0.844618 -0.460708 0.272707 
-0.518477 -0.077573 0.851565 
-0.452527 0.077575 0.888370 
-0.654113 -0.039685 0.755355 
-0.612340 0.180878 0.769625 
-0.473290 -0.199776 0.857954 
-0.678464 -0.232615 0.696834 
-0.443720 -0.258657 0.858026 
-0.812075 -0.512135 0.279737 
-0.512011 -0.056672 0.857107 
-0.504500 -0.449653 0.737083 
-0.427422 0.080774 0.900436 
-0.801087 0.145671 0.580551 
-0.628676 0.061000 0.775271 
-0.833402 -0.503325 0.228267 
-0.865212 -0.458590 0.202741 
-0.525687 -0.337727 0.780765 
-0.810956 0.197532 0.550756 
-0.723969 -0.163761 0.670113 
-0.669905 0.182718 0.719612 
-0.670786 -0.520196 0.528624 
-0.599407 -0.430770 0.674647 
-0.451756 -0.532372 0.715889 
-0.932208 -0.044684 0.359154 
-0.821538 0.262412 0.506177 
-0.837786 0.144023 0.526661 
-0.568658 0.212715 0.794594 
-0.404213 -0.518883 0.753241 
-0.378845 -0.565158 0.732853 
-0.941569 -0.096947 0.322566 
-0.633998 -0.569377 0.523313 
-0.696393 -0.539490 0.473273 
-0.383338 -0.474209 0.792577 
-0.433284 0.015346 0.901127 
-0.578625 -0.261142 0.772656 
-0.567863 -0.366076 0.737238 
-0.580934 -0.488438 0.651110 
-0.884481 -0.325290 0.334484 
-0.506189 -0.282328 0.814901 
