-0.654813 0.784346 -0.187198 
-0.679459 0.741886 -0.063814 
-0.608011 0.813297 0.132557 
-0.695433 0.733176 0.037269 
-0.653280 0.764068 -0.088274 
-0.459113 0.916252 -0.103468 
-0.659175 0.806563 0.112097 
-0.810155 0.611743 0.180481 
-0.643491 0.725570 0.365155 
-0.822213 0.570518 0.255344 
-0.948762 0.355414 0.195697 
-0.837117 0.532798 0.246740 
-0.790710 0.537733 0.300260 
-0.649620 0.722197 0.333894 
-0.488470 0.795130 0.406119 
-0.623303 0.622589 0.537336 
-0.519366 0.729314 0.472948 
-0.526842 0.698350 0.485551 
-0.526992 0.621267 0.595208 
-0.287637 0.684578 0.725889 
-0.010407 0.757020 0.712476 
-0.202625 0.817948 0.587119 
-0.112806 0.876967 0.488600 
-0.007817 0.869707 0.504758 
-0.026171 0.791986 0.627231 
0.060376 0.893266 0.485853 
0.178935 0.769559 0.659486 
-0.043819 0.841719 0.590223 
0.029906 0.702450 0.743809 
0.226787 0.693949 0.711564 
0.250647 0.766200 0.605601 
0.113852 0.872887 0.513444 
0.049962 0.930210 0.392294 
-0.093283 1.036948 0.129657 
-0.290856 0.947861 0.302054 
-0.559307 0.884747 0.116459 
-0.479607 0.876771 0.079002 
-0.672258 0.771979 0.040814 
-0.516404 0.869348 0.151892 
-0.725985 0.742986 0.011105 
-0.709974 0.701427 0.204218 
-0.686289 0.692377 0.224318 
-0.638216 0.744598 0.208657 
-0.802101 0.661130 -0.007436 
-0.802670 0.598026 -0.038024 
-0.876952 0.480835 -0.268883 
-0.744381 0.549332 -0.441505 
-0.719337 0.532074 -0.446966 
-0.730665 0.505710 -0.459753 
-0.715329 0.527444 -0.459146 
