0.658401 0.755238 0.168335 
0.691609 0.660417 0.367430 
0.532647 0.816514 0.317932 
0.622015 0.626100 0.575241 
0.566464 0.724650 0.430116 
0.779726 0.645307 0.246615 
0.744121 0.587039 0.335360 
0.767851 0.477547 0.458228 
0.704581 0.410060 0.604238 
0.751207 0.625739 0.378755 
0.759357 0.645770 0.195284 
0.653675 0.729972 0.245783 
0.502980 0.828126 0.313012 
0.355040 0.928841 0.225034 
0.282331 0.970677 0.078589 
0.088413 0.998834 0.247438 
0.058506 1.012787 0.064818 
-0.073750 1.001419 0.102355 
0.013074 0.983503 0.248157 
-0.016923 0.981765 0.197715 
-0.191840 0.946001 0.352131 
-0.205994 0.908638 0.364610 
-0.194029 0.869245 0.468173 
-0.211035 0.762757 0.645533 
-0.288112 0.820422 0.518505 
-0.232236 0.963802 0.298479 
-0.281234 0.892954 0.366528 
-0.231444 0.975714 0.188332 
-0.305400 0.923355 0.258622 
-0.334200 0.972892 0.023047 
-0.154502 1.004854 -0.012933 
0.037245 1.017432 -0.009924 
-0.011470 1.001732 0.060970 
-0.221737 1.002838 -0.056858 
-0.244651 0.973406 0.031386 
-0.165343 0.988384 0.051638 
-0.215531 0.986671 -0.143275 
-0.440810 0.939234 0.011682 
-0.280539 0.973878 -0.065524 
-0.174229 0.984178 -0.125872 
-0.160052 0.984336 -0.085229 
-0.184984 0.995397 0.099887 
-0.339053 0.961762 -0.027018 
-0.545289 0.867850 -0.021703 
-0.385869 0.939801 0.038984 
-0.357942 0.928924 0.142579 
-0.568733 0.844349 0.124490 
-0.664421 0.737001 0.204416 
-0.834948 0.586884 0.126352 
-0.700356 0.729774 0.121185 
