-0.558678 0.525314 0.641813 
-0.602613 0.441072 0.665066 
-0.588971 0.629552 0.506733 
-0.599814 0.679171 0.423025 
-0.519365 0.716990 0.464957 
-0.452670 0.620629 0.640242 
-0.433740 0.760484 0.483253 
-0.385360 0.731078 0.563048 
-0.673915 0.619306 0.402863 
-0.411618 0.568213 0.712534 
-0.658325 0.364620 0.658529 
-0.696828 0.336654 0.633321 
-0.346503 0.796197 0.495991 
-0.396556 0.645224 0.653016 
-0.521433 0.471677 0.711076 
-0.335632 0.844000 0.418348 
-0.736193 0.577515 0.352841 
-0.266467 0.794849 0.545171 
-0.623706 0.310727 0.717245 
-0.190178 0.782407 0.593019 
-0.597211 0.302353 0.742914 
-0.598563 0.725156 0.340399 
-0.664479 0.457670 0.590767 
-0.458429 0.704597 0.541651 
-0.700744 0.628165 0.338182 
-0.528390 0.547331 0.649025 
-0.527871 0.636782 0.562016 
-0.745894 0.357151 0.562215 
-0.144266 0.830196 0.538481 
-0.775561 0.371351 0.510493 
-0.537909 0.285204 0.793292 
-0.317802 0.709408 0.629080 
-0.619842 0.309475 0.721125 
-0.718248 0.604103 0.345224 
-0.708213 0.542470 0.451842 
-0.302826 0.885900 0.351392 
-0.122987 0.864461 0.487423 
-0.652206 0.579599 0.488562 
-0.810586 0.390876 0.436081 
-0.300672 0.772494 0.559329 
-0.824621 0.400000 0.400000 
-0.551912 0.326094 0.767500 
-0.563180 0.733432 0.380665 
-0.656946 0.321950 0.681741 
-0.347118 0.896405 0.275620 
-0.404437 0.878737 0.253481 
-0.636896 0.315079 0.703625 
-0.466888 0.842978 0.267216 
-0.781777 0.498529 0.374559 
-0.586140 0.381990 0.714510 
-0.644909 0.695057 0.317787 
-0.701036 0.338297 0.627777 
-0.429169 0.750534 0.502507 
-0.155069 0.733310 0.661975 
-0.466787 0.681886 0.563153 
-0.438504 0.485520 0.756296 
-0.253668 0.677457 0.690438 
-0.721441 0.536037 0.438393 
-0.231116 0.884434 0.405415 
-0.114690 0.719818 0.684623 
-0.247369 0.608131 0.754311 
-0.604056 0.385975 0.697237 
-0.247320 0.533262 0.808990 
-0.235613 0.680125 0.694202 
-0.469330 0.267792 0.841438 
-0.445061 0.533119 0.719518 
-0.288515 0.896019 0.337504 
-0.540324 0.322780 0.777086 
-0.113433 0.691628 0.713291 
-0.543851 0.618944 0.566687 
-0.677216 0.658013 0.329238 
-0.800835 0.423050 0.423901 
-0.298483 0.772694 0.560224 
-0.324371 0.606649 0.725783 
-0.641758 0.316717 0.698453 
-0.334327 0.687818 0.644308 
-0.373562 0.449118 0.811631 
-0.360560 0.372804 0.854993 
-0.495362 0.824304 0.274115 
-0.165819 0.601253 0.781664 
-0.400066 0.880991 0.252590 
-0.218099 0.608761 0.762786 
-0.277695 0.553107 0.785467 
-0.389046 0.677922 0.623751 
-0.503827 0.818441 0.276246 
-0.803954 0.386872 0.451651 
-0.776289 0.502265 0.380927 
-0.196188 0.482659 0.853552 
-0.439006 0.859785 0.260850 
-0.109582 0.591014 0.799183 
-0.519444 0.725311 0.451776 
-0.582826 0.755983 0.297999 
-0.333888 0.304359 0.892124 
-0.824621 0.400000 0.400000 
-0.118900 0.801343 0.586270 
-0.474933 0.269124 0.837861 
-0.122223 0.818412 0.561484 
-0.341418 0.785174 0.516658 
-0.610043 0.656590 0.443551 
-0.823989 0.399566 0.401733 
-0.623772 0.717178 0.310748 
-0.361018 0.510063 0.780706 
-0.793004 0.475692 0.380607 
-0.534655 0.795805 0.284322 
-0.653082 0.446903 0.611361 
-0.411667 0.254975 0.874939 
-0.155594 0.785690 0.598733 
-0.794626 0.381510 0.472249 
-0.580443 0.758093 0.297290 
-0.497101 0.409472 0.764999 
-0.408110 0.796603 0.445949 
-0.413537 0.582877 0.699458 
-0.783297 0.375358 0.495533 
-0.598861 0.335839 0.727033 
-0.540969 0.785924 0.299460 
-0.433304 0.846762 0.308612 
-0.748941 0.437888 0.497334 
-0.666758 0.325433 0.670468 
-0.310592 0.409622 0.857754 
-0.308823 0.654615 0.690005 
-0.480692 0.494247 0.724331 
-0.519712 0.733977 0.437238 
-0.501748 0.482669 0.717830 
-0.645194 0.691138 0.325658 
-0.181946 0.526733 0.830330 
-0.280752 0.824211 0.491787 
-0.627071 0.542386 0.559106 
-0.713550 0.387875 0.583438 
-0.321905 0.816962 0.478487 
-0.747947 0.358082 0.558885 
-0.165975 0.600785 0.781991 
-0.220422 0.535623 0.815182 
-0.584209 0.306740 0.751406 
-0.538517 0.465543 0.702331 
-0.626745 0.714159 0.311718 
-0.412153 0.268429 0.870675 
-0.173429 0.642697 0.746233 
-0.808579 0.440881 0.389646 
-0.450341 0.394141 0.801153 
-0.757141 0.543552 0.362339 
-0.568151 0.768734 0.293689 
-0.646386 0.693452 0.318292 
-0.335474 0.587584 0.736344 
-0.536961 0.703168 0.466076 
-0.590384 0.354091 0.725304 
-0.122360 0.667119 0.734834 
-0.637851 0.489519 0.594573 
-0.296096 0.748632 0.593193 
-0.824621 0.400000 0.400000 
-0.468892 0.267688 0.841714 
-0.730030 0.377955 0.569391 
-0.168540 0.585615 0.792874 
-0.375763 0.247802 0.892970 
-0.635991 0.338587 0.693451 
-0.359758 0.847835 0.389552 
-0.470654 0.714598 0.517528 
-0.632302 0.661644 0.403016 
-0.642853 0.697277 0.317088 
-0.816282 0.394462 0.422000 
-0.603943 0.676518 0.421398 
-0.513179 0.704388 0.490392 
-0.824621 0.400000 0.400000 
-0.116076 0.748737 0.652625 
-0.601769 0.738651 0.303760 
-0.548514 0.288121 0.784933 
-0.346681 0.898190 0.270309 
-0.588234 0.299620 0.751138 
-0.730766 0.516849 0.445924 
-0.434724 0.764156 0.476530 
-0.269706 0.883837 0.382219 
-0.298070 0.734727 0.609369 
-0.287388 0.854377 0.432953 
-0.282187 0.772204 0.569273 
-0.282309 0.576098 0.767081 
-0.604040 0.736502 0.304466 
-0.742547 0.355648 0.567572 
-0.639568 0.686870 0.345198 
-0.463831 0.519239 0.717810 
-0.811403 0.434103 0.391381 
-0.493406 0.795689 0.351326 
-0.221605 0.761696 0.608860 
-0.107232 0.515529 0.850136 
-0.369870 0.453515 0.810876 
-0.770908 0.519167 0.369008 
-0.780373 0.439599 0.444714 
-0.644235 0.695786 0.317558 
-0.322826 0.832395 0.450446 
-0.496442 0.530784 0.686887 
-0.379642 0.891120 0.248548 
-0.405389 0.657377 0.635228 
-0.567283 0.347799 0.746476 
-0.427969 0.258435 0.866057 
-0.297819 0.847212 0.439926 
-0.678293 0.647830 0.346749 
-0.628135 0.647877 0.430931 
-0.577094 0.606713 0.546683 
-0.394292 0.883922 0.251427 
-0.693736 0.503258 0.515229 
-0.219823 0.840475 0.495258 
-0.676287 0.659138 0.328896 
