0.735472 -0.086963 -0.671951 
0.671832 0.008517 -0.740654 
0.525543 0.213378 -0.823574 
0.474354 0.083400 -0.876375 
0.238215 0.187435 -0.952954 
0.011602 0.136630 -0.990554 
0.218330 0.007921 -0.975843 
0.024050 0.176897 -0.983935 
-0.127494 0.097343 -0.987051 
-0.353693 0.072895 -0.932517 
-0.128540 0.224288 -0.966009 
-0.267185 0.186933 -0.945340 
-0.408797 0.303817 -0.860570 
-0.320608 0.136144 -0.937377 
-0.453124 0.137913 -0.880715 
-0.491265 0.355752 -0.795047 
-0.564381 0.307267 -0.766199 
-0.396602 0.506036 -0.765921 
-0.221871 0.580084 -0.783758 
-0.202366 0.630385 -0.749442 
-0.125271 0.455835 -0.881205 
-0.084245 0.469398 -0.878958 
0.065185 0.626996 -0.776290 
0.004584 0.612623 -0.790362 
0.156437 0.729835 -0.665483 
0.186192 0.671885 -0.716870 
0.414893 0.547555 -0.726669 
0.568153 0.448190 -0.690166 
0.513085 0.472262 -0.716737 
0.243994 0.577084 -0.779385 
0.465185 0.514032 -0.720676 
0.418128 0.617711 -0.666034 
0.494502 0.648516 -0.578701 
0.314540 0.734038 -0.601874 
0.123117 0.848826 -0.514137 
-0.083590 0.840449 -0.535405 
-0.026895 0.829450 -0.557933 
0.033587 0.867393 -0.496489 
-0.165477 0.835021 -0.524744 
0.042048 0.880446 -0.472278 
0.126738 0.782910 -0.609089 
-0.088152 0.774291 -0.626660 
-0.119244 0.524058 -0.843294 
-0.045988 0.683295 -0.728692 
-0.198221 0.727630 -0.656707 
-0.175046 0.784409 -0.595030 
-0.061045 0.807943 -0.586090 
-0.114968 0.659333 -0.743009 
-0.047508 0.419330 -0.906590 
0.121242 0.347762 -0.929711 
