0.227158 -0.691695 -0.685535 
0.164030 -0.704403 -0.690587 
0.162064 -0.762401 -0.626482 
0.173687 -0.760135 -0.626121 
0.162671 -0.745640 -0.646188 
0.284372 -0.730140 -0.621312 
0.265581 -0.736341 -0.622309 
0.477916 -0.620762 -0.621491 
0.529150 -0.600000 -0.600000 
0.444230 -0.609384 -0.656743 
0.334333 -0.711309 -0.618273 
0.484026 -0.631928 -0.605298 
0.529150 -0.600000 -0.600000 
0.529150 -0.600000 -0.600000 
0.529150 -0.600000 -0.600000 
0.529150 -0.600000 -0.600000 
0.529150 -0.600000 -0.600000 
0.529150 -0.600000 -0.600000 
0.487505 -0.604916 -0.629616 
0.529150 -0.600000 -0.600000 
0.454117 -0.608416 -0.650851 
0.529150 -0.600000 -0.600000 
0.434893 -0.662147 -0.610270 
0.524758 -0.603299 -0.600550 
0.529150 -0.600000 -0.600000 
0.529150 -0.600000 -0.600000 
0.416686 -0.672252 -0.611923 
0.279321 -0.621587 -0.731853 
0.163211 -0.729895 -0.663788 
0.241948 -0.743481 -0.623455 
0.162638 -0.746584 -0.645105 
0.166181 -0.626357 -0.761617 
0.163628 -0.717163 -0.677424 
0.386950 -0.631169 -0.672232 
0.471191 -0.606672 -0.640256 
0.503754 -0.603074 -0.618493 
0.529150 -0.600000 -0.600000 
0.529150 -0.600000 -0.600000 
0.521806 -0.605491 -0.600915 
0.529150 -0.600000 -0.600000 
0.518513 -0.607916 -0.601318 
0.529150 -0.600000 -0.600000 
0.428013 -0.610906 -0.666032 
0.427219 -0.610979 -0.666475 
0.529150 -0.600000 -0.600000 
0.522086 -0.605285 -0.600880 
0.465014 -0.644152 -0.607314 
0.496991 -0.603852 -0.623187 
0.488859 -0.628709 -0.604766 
0.231868 -0.702936 -0.672398 
