0.882276 0.471346 0.043426 
0.958899 0.309239 0.217819 
0.898176 0.301597 0.350201 
0.907563 0.514088 0.113965 
0.780365 0.624468 0.175468 
0.866476 0.444286 0.348443 
0.879164 0.221695 0.499182 
0.882941 0.388777 0.345720 
0.885311 0.342494 0.318142 
0.824019 0.534623 0.278262 
0.843989 0.483838 0.239977 
0.841076 0.489716 0.230015 
0.938970 0.267415 0.345049 
0.942237 0.329349 0.181661 
0.962121 0.361383 -0.060728 
0.971733 0.209817 -0.309501 
0.900505 0.244368 -0.371139 
0.781729 0.401867 -0.544329 
0.900159 0.234061 -0.433801 
1.011984 0.061204 -0.232847 
0.944391 0.015647 -0.358870 
0.929045 0.151657 -0.364046 
0.976126 -0.078958 -0.314229 
0.948637 0.018030 -0.330735 
0.963873 -0.198468 -0.284254 
0.974091 -0.001691 -0.299343 
0.941541 -0.241543 -0.339058 
0.888589 -0.007872 -0.563098 
0.864539 -0.202214 -0.501158 
0.861522 -0.345768 -0.408673 
0.847701 -0.293602 -0.446472 
0.801634 -0.198860 -0.591602 
0.819979 -0.071970 -0.582006 
0.916025 -0.179328 -0.419373 
0.861767 -0.275902 -0.439749 
0.946114 -0.126620 -0.354269 
0.954882 -0.051416 -0.305509 
0.970901 -0.207724 -0.216378 
0.965795 -0.351520 -0.025267 
0.873641 -0.514577 -0.136357 
0.815599 -0.505536 -0.369415 
0.851326 -0.387315 -0.373774 
0.866079 -0.425238 -0.281440 
0.870822 -0.416242 -0.262397 
0.851872 -0.528257 -0.146758 
0.791713 -0.652038 0.039707 
0.648919 -0.772327 0.228594 
0.415239 -0.875399 0.388375 
0.388094 -0.879858 0.289544 
0.477690 -0.796953 0.406494 
