0.116634 -0.319096 0.940518 
-0.008851 -0.134114 0.990926 
0.076425 -0.172894 0.981971 
0.198358 -0.409561 0.890457 
0.261529 -0.596559 0.758762 
0.261310 -0.463574 0.846650 
0.121921 -0.502623 0.855865 
0.246726 -0.428695 0.869107 
0.336614 -0.486091 0.806478 
0.303574 -0.309541 0.901126 
0.208172 -0.137033 0.968445 
0.363132 -0.154965 0.918761 
0.580142 -0.080284 0.810549 
0.433042 0.044466 0.900276 
0.501044 0.271223 0.821823 
0.507388 0.054248 0.860009 
0.354280 -0.073326 0.932260 
0.282195 -0.086986 0.955406 
0.283125 -0.081155 0.955643 
0.219859 0.073161 0.972785 
0.183450 0.157626 0.970309 
-0.038089 0.049083 0.998068 
-0.237803 -0.048855 0.970084 
-0.124192 -0.125750 0.984258 
-0.279824 -0.211814 0.936394 
-0.434276 -0.243377 0.867278 
-0.268015 0.011160 0.963350 
-0.192295 -0.078175 0.978218 
-0.405539 0.147466 0.902104 
-0.189998 0.131017 0.973003 
-0.160301 0.052308 0.985681 
-0.108567 0.080894 0.990792 
-0.336344 0.062884 0.939637 
-0.131056 -0.068714 0.988991 
-0.343804 -0.067653 0.936601 
-0.481519 -0.026425 0.876037 
-0.282332 0.033428 0.958734 
-0.094447 -0.125200 0.987626 
-0.054640 -0.341926 0.938137 
-0.123424 -0.303312 0.944864 
-0.329841 -0.267397 0.905375 
-0.275116 -0.231640 0.933089 
-0.052025 -0.385702 0.921155 
-0.199561 -0.532227 0.822745 
-0.180733 -0.301605 0.936146 
-0.208900 -0.522101 0.826904 
-0.135644 -0.544761 0.827548 
-0.103004 -0.330535 0.938156 
-0.292264 -0.316701 0.902376 
-0.477603 -0.226524 0.848871 
