0.636993 -0.715194 -0.296206 
0.573393 -0.797530 -0.200417 
0.518410 -0.832555 -0.227806 
0.672864 -0.672285 -0.339473 
0.596634 -0.800810 -0.133715 
0.473338 -0.851925 -0.278731 
0.422797 -0.878751 -0.320275 
0.639466 -0.784156 -0.079974 
0.647226 -0.671190 -0.405362 
0.398259 -0.876646 -0.386558 
0.680751 -0.629257 -0.451381 
0.345390 -0.922411 -0.376055 
0.691630 -0.754737 -0.042378 
0.294371 -0.968588 -0.359784 
0.668224 -0.616819 -0.519853 
0.736521 -0.585989 -0.447195 
0.320721 -0.920426 -0.442294 
0.243055 -1.014726 -0.344357 
0.301762 -0.913372 -0.510049 
0.734074 -0.738540 0.011808 
0.782328 -0.715014 0.057831 
0.703430 -0.779174 0.060898 
0.660813 -0.824370 0.094678 
0.835697 -0.669447 0.049151 
0.770356 -0.543922 -0.492863 
0.887589 -0.623412 0.035443 
0.637031 -0.621014 -0.583172 
0.187662 -1.058659 -0.345596 
0.817391 -0.497826 -0.518609 
0.933454 -0.577491 0.007376 
0.486532 -0.873759 -0.179994 
0.164179 -1.095662 -0.290104 
0.624585 -0.608511 -0.651647 
0.625904 -0.866888 0.139103 
0.577451 -0.913119 0.161798 
0.642841 -0.574466 -0.710873 
0.920418 -0.617592 0.097800 
0.976041 -0.580760 0.121243 
1.028778 -0.550348 0.157214 
0.781062 -0.737967 0.124701 
0.870291 -0.452071 -0.529006 
0.403701 -0.894653 -0.318396 
0.500261 -0.813112 -0.331349 
0.925965 -0.415066 -0.505965 
0.983020 -0.531229 -0.012700 
0.143098 -1.077400 -0.397198 
0.262173 -0.926314 -0.567191 
1.071676 -0.533617 0.210878 
0.543847 -0.955086 0.207727 
0.936692 -0.428953 -0.437466 
