0.078089 0.464441 -0.882155 
0.145561 0.564140 -0.812747 
0.009024 0.476568 -0.879091 
0.163541 0.616541 -0.770150 
-0.023189 0.421619 -0.906476 
-0.039575 0.360536 -0.931905 
-0.094559 0.396714 -0.913059 
0.175439 0.666407 -0.724654 
-0.072169 0.464426 -0.882666 
0.127887 0.417834 -0.899478 
-0.156082 0.375193 -0.913711 
-0.096511 0.519549 -0.848973 
0.158099 0.358775 -0.919938 
0.153571 0.474554 -0.866727 
-0.146140 0.477554 -0.866363 
-0.155908 0.313737 -0.936623 
-0.217971 0.380241 -0.898836 
-0.143673 0.556408 -0.818394 
0.222109 0.475940 -0.850969 
0.225522 0.346228 -0.910641 
-0.143458 0.610978 -0.778540 
-0.082148 0.576596 -0.812889 
0.113463 0.650701 -0.750810 
-0.032901 0.297559 -0.954136 
-0.125773 0.662152 -0.738740 
-0.034072 0.617907 -0.785512 
0.231795 0.608193 -0.759192 
0.161795 0.714765 -0.680392 
0.002722 0.243356 -0.969933 
0.291521 0.341279 -0.893613 
0.181686 0.527712 -0.829765 
-0.270448 0.404735 -0.873526 
0.122705 0.638934 -0.759412 
0.347237 0.366143 -0.863346 
0.096927 0.441164 -0.892177 
-0.069932 0.524646 -0.848443 
-0.199894 0.625916 -0.753838 
0.045533 0.643387 -0.764186 
0.193048 0.748328 -0.634616 
0.253746 0.721787 -0.643923 
0.040456 0.405788 -0.913072 
-0.035375 0.194645 -0.980236 
-0.038233 0.135269 -0.990071 
-0.293396 0.455176 -0.840675 
0.401073 0.387594 -0.830007 
0.130796 0.769575 -0.625018 
0.085120 0.491974 -0.866438 
-0.306006 0.507314 -0.805601 
-0.054954 0.081380 -0.995167 
0.317155 0.281960 -0.905489 
