-0.113794 -0.058048 -0.997388 
-0.295597 -0.212703 -0.962064 
-0.235093 -0.297375 -0.931265 
-0.105288 -0.231318 -0.979229 
-0.100749 -0.319310 -0.946871 
-0.000906 -0.397544 -0.926522 
-0.011234 -0.325674 -0.948417 
0.064138 -0.076990 -1.031704 
0.122124 0.148263 -1.008178 
0.330096 -0.004652 -0.978687 
0.327634 -0.176704 -0.944014 
0.407407 -0.031621 -0.927623 
0.270429 0.184747 -0.980255 
0.182332 0.194786 -0.967326 
0.248148 0.046304 -0.981244 
0.368890 -0.121475 -0.945004 
0.320926 0.070179 -0.964903 
0.155854 0.122819 -0.995598 
-0.015576 0.252013 -0.991018 
0.155882 0.141955 -0.998298 
0.213937 0.260580 -0.951598 
0.155283 0.234561 -0.961768 
0.163325 0.044553 -1.004661 
-0.052506 0.066052 -1.019705 
-0.170709 -0.172428 -1.005797 
-0.040562 0.075642 -1.034770 
-0.176724 -0.054218 -1.000470 
-0.010649 0.099740 -1.020450 
0.088446 0.314944 -0.974959 
-0.085432 0.255708 -0.979937 
-0.104605 0.466223 -0.906378 
-0.145029 0.661116 -0.773642 
-0.296693 0.489692 -0.854598 
-0.308912 0.715612 -0.686392 
-0.177394 0.721861 -0.680682 
0.004561 0.821247 -0.610993 
-0.222090 0.869142 -0.508752 
0.004322 0.837874 -0.597578 
-0.172559 0.836436 -0.550671 
-0.392596 0.821972 -0.473815 
-0.472442 0.634456 -0.674932 
-0.535816 0.399129 -0.790404 
-0.557500 0.590491 -0.633296 
-0.663516 0.590159 -0.491770 
-0.862538 0.478157 -0.326534 
-0.651484 0.655690 -0.500430 
-0.676723 0.690933 -0.314086 
-0.560831 0.815389 -0.235437 
-0.645073 0.779402 -0.084818 
-0.646111 0.734348 -0.308101 
