0.730706 0.610384 -0.313848 
0.789045 0.500639 -0.362999 
0.819397 0.500938 -0.299134 
0.821769 0.442209 -0.385695 
0.686015 0.641224 -0.359143 
0.868364 0.402347 -0.350482 
0.641522 0.671379 -0.405089 
0.908931 0.383000 -0.295893 
0.912042 0.418153 -0.234618 
0.800878 0.427850 -0.451705 
0.778915 0.414958 -0.517671 
0.615480 0.664342 -0.470452 
0.727804 0.651256 -0.256220 
0.731566 0.685752 -0.194609 
0.816659 0.356449 -0.530003 
0.897539 0.468241 -0.186860 
0.694462 0.744343 -0.180812 
0.854977 0.298043 -0.540978 
0.732355 0.454548 -0.553235 
0.599447 0.728205 -0.404428 
0.929369 0.466071 -0.123755 
0.859305 0.255906 -0.597597 
0.815008 0.285409 -0.644152 
0.652314 0.801118 -0.180381 
0.552900 0.767688 -0.440129 
0.507056 0.803143 -0.480641 
0.783358 0.559598 -0.283006 
0.810506 0.324431 -0.592748 
0.934629 0.499026 -0.061415 
0.925131 0.331778 -0.341869 
0.829281 0.460570 -0.341393 
0.836973 0.267773 -0.625753 
0.874656 0.314024 -0.474968 
0.777677 0.648965 -0.155615 
0.574113 0.721619 -0.467606 
0.808429 0.253842 -0.707083 
0.762981 0.306435 -0.720062 
0.971994 0.285678 -0.315818 
0.738897 0.296530 -0.785803 
0.716124 0.352629 -0.745955 
0.749657 0.355703 -0.671122 
0.957032 0.470648 -0.058841 
0.621813 0.801065 -0.244176 
0.876454 0.204077 -0.642538 
0.610378 0.631223 -0.532718 
0.712969 0.761862 -0.114853 
0.724950 0.787410 -0.050017 
0.747417 0.250886 -0.839132 
0.891695 0.524413 -0.111536 
0.572196 0.645292 -0.590548 
