-0.803217 0.489312 -0.347011 
-0.742936 0.588414 -0.326826 
-0.846742 0.443568 -0.315183 
-0.869559 0.447473 -0.248368 
-0.740401 0.625552 -0.266707 
-0.726793 0.574447 -0.394238 
-0.884960 0.384400 -0.321395 
-0.692317 0.591736 -0.453504 
-0.690934 0.558920 -0.516124 
-0.878527 0.471130 -0.182339 
-0.658087 0.651181 -0.436344 
-0.893266 0.487079 -0.115045 
-0.931466 0.461198 -0.061465 
-0.917946 0.508933 -0.011081 
-0.709056 0.507472 -0.561120 
-0.816768 0.530858 -0.236812 
-0.689313 0.498792 -0.628462 
-0.626116 0.710183 -0.414058 
-0.584991 0.767512 -0.418767 
-0.894741 0.563884 0.026893 
-0.683558 0.471125 -0.693280 
-0.970288 0.402249 -0.065700 
-0.888728 0.604624 0.084374 
-0.860005 0.662488 0.113125 
-0.565640 0.819868 -0.375358 
-0.559292 0.823910 -0.384726 
-0.517756 0.859559 -0.429491 
-0.706811 0.416145 -0.731182 
-0.733684 0.359137 -0.763243 
-0.772867 0.300352 -0.766237 
-1.006938 0.342766 -0.076590 
-0.828291 0.721420 0.135958 
-0.798367 0.779764 0.162426 
-0.924975 0.326101 -0.321340 
-1.050321 0.298341 -0.042763 
-0.965174 0.267934 -0.320562 
-0.475262 0.898966 -0.470005 
-0.815747 0.246139 -0.751325 
-0.840972 0.190001 -0.786141 
-1.093870 0.252330 -0.011355 
-0.825297 0.776841 0.227742 
-1.005272 0.209693 -0.320179 
-1.046155 0.152113 -0.316556 
-0.450859 0.897630 -0.536358 
-0.837296 0.796533 0.294587 
-1.113839 0.260667 0.055963 
-0.674961 0.428090 -0.793173 
-0.436873 0.880637 -0.603557 
-0.821066 0.846512 0.341902 
-0.830916 0.869034 0.408202 
