0.784109 -0.596376 0.251801 
0.868263 -0.395725 0.397107 
0.778021 -0.510766 0.392526 
0.785406 -0.415221 0.476257 
0.655285 -0.419549 0.670107 
0.799502 -0.341845 0.536554 
0.776954 -0.152833 0.649177 
0.857055 0.047425 0.562701 
0.868568 -0.191338 0.517199 
0.839111 0.022256 0.588313 
0.723315 -0.097055 0.714352 
0.889116 0.052712 0.536474 
0.866296 0.203528 0.482406 
0.795687 0.438438 0.484434 
0.672202 0.485857 0.581489 
0.480181 0.629484 0.660924 
0.424939 0.475590 0.798742 
0.405713 0.498048 0.767281 
0.523223 0.486355 0.711839 
0.489513 0.298649 0.852860 
0.365020 0.130047 0.949966 
0.519131 0.372355 0.829545 
0.328216 0.374113 0.888860 
0.284910 0.292224 0.917881 
0.412104 0.214309 0.898251 
0.403566 0.118278 0.912422 
0.591872 -0.052760 0.846160 
0.397630 -0.005779 0.943455 
0.357696 0.022578 0.934587 
0.486182 0.014062 0.884595 
0.533457 -0.064445 0.849025 
0.470649 -0.299172 0.865021 
0.378096 -0.407126 0.843286 
0.237597 -0.568355 0.816620 
0.435408 -0.467900 0.800282 
0.577414 -0.530350 0.655553 
0.491226 -0.691470 0.566866 
0.306265 -0.764888 0.601270 
0.207872 -0.805618 0.565665 
0.131757 -0.819780 0.562642 
0.213555 -0.715608 0.689959 
-0.074775 -0.726230 0.743529 
-0.105953 -0.566177 0.837812 
-0.267199 -0.448348 0.876761 
-0.271405 -0.557753 0.795846 
-0.248697 -0.500560 0.832237 
-0.262738 -0.383006 0.895720 
0.005960 -0.439968 0.940065 
0.030865 -0.580167 0.832395 
0.239057 -0.632651 0.769680 
