-0.297614 0.662294 0.691226 
-0.409255 0.679593 0.612914 
-0.257311 0.633693 0.741799 
-0.265203 0.714752 0.656619 
-0.224008 0.599592 0.794030 
-0.473706 0.651386 0.605806 
-0.537906 0.622405 0.599609 
-0.189231 0.566570 0.845992 
-0.124513 0.593861 0.854159 
-0.200889 0.514110 0.891950 
-0.599852 0.588308 0.599747 
-0.658086 0.548899 0.607215 
-0.070870 0.637643 0.839819 
-0.723328 0.523791 0.596583 
-0.405423 0.730617 0.564109 
-0.267267 0.764223 0.606138 
-0.404803 0.780844 0.514341 
-0.398645 0.832369 0.466307 
-0.757298 0.471596 0.630075 
-0.347983 0.878266 0.448226 
-0.164391 0.482397 0.943546 
-0.102774 0.672730 0.787368 
-0.821001 0.467110 0.599713 
-0.853029 0.502111 0.547280 
-0.295208 0.922710 0.432750 
-0.290592 0.973909 0.384198 
-0.247470 1.023573 0.358236 
-0.470410 0.767943 0.491333 
-0.777343 0.418424 0.672157 
-0.110287 0.468576 0.986924 
-0.299239 1.040425 0.313114 
-0.266830 0.496056 0.873899 
-0.118527 0.416655 1.034214 
-0.291782 1.092203 0.265538 
-0.057310 0.414787 1.069555 
0.008125 0.426493 1.093662 
-0.353602 1.092718 0.231216 
-0.046804 0.499476 0.990814 
-0.140831 0.363446 1.075097 
-0.367191 1.137988 0.178623 
-0.151421 0.311140 1.121486 
-0.909474 0.512557 0.505991 
-0.206702 0.268734 1.133558 
-0.885205 0.565739 0.466209 
-0.188081 0.225803 1.186569 
-0.198825 0.173474 1.232897 
-0.183095 1.052019 0.365064 
-0.432813 1.115127 0.165543 
-0.327930 0.682162 0.654826 
-0.946258 0.567959 0.430605 
