-0.812023 0.278697 -0.512783 
-0.823302 0.327311 -0.463726 
-0.776455 0.226287 -0.588143 
-0.738204 0.204926 -0.642698 
-0.822960 0.381214 -0.421204 
-0.691647 0.236711 -0.682343 
-0.849248 0.154840 -0.504780 
-0.844727 0.396892 -0.359045 
-0.656656 0.200013 -0.727184 
-0.848822 0.086783 -0.521508 
-0.788039 0.438532 -0.432069 
-0.836093 0.446808 -0.318294 
-0.859029 0.442244 -0.257857 
-0.853158 0.477736 -0.209499 
-0.655997 0.133905 -0.742790 
-0.880237 0.050020 -0.471891 
-0.611598 0.240910 -0.753598 
-0.744735 0.477536 -0.466185 
-0.642887 0.072200 -0.762550 
-0.561600 0.265952 -0.783502 
-0.706938 0.529502 -0.468898 
-0.637801 0.007871 -0.770161 
-0.900811 -0.001995 -0.434207 
-0.891882 -0.066519 -0.447349 
-0.873089 -0.124074 -0.471510 
-0.844817 0.509678 -0.162828 
-0.841217 0.528912 -0.112274 
-0.662547 0.570599 -0.485230 
-0.814607 0.572319 -0.094161 
-0.870901 0.484325 -0.083433 
-0.872797 -0.182186 -0.452806 
-0.805369 0.590622 -0.050473 
-0.720806 0.532329 -0.443920 
-0.900913 -0.179382 -0.395192 
-0.511059 0.283920 -0.811300 
-0.781792 0.610970 -0.124568 
-0.896076 0.441066 -0.050087 
-0.629729 0.617199 -0.471705 
-0.463777 0.312876 -0.828866 
-0.779429 0.625719 -0.031095 
-0.920288 0.390179 -0.028825 
-0.436548 0.365868 -0.821929 
-0.749157 0.642073 -0.162807 
-0.860818 0.439922 -0.255853 
-0.590325 -0.002729 -0.807161 
-0.667153 0.300912 -0.681439 
-0.651576 0.365087 -0.664951 
-0.596849 -0.064804 -0.799732 
-0.601082 0.659909 -0.450799 
-0.898405 -0.231874 -0.372966 
