0.529150 -0.600000 -0.600000 
0.414512 -0.673421 -0.612114 
0.529150 -0.600000 -0.600000 
0.529150 -0.600000 -0.600000 
0.439995 -0.609789 -0.659213 
0.373523 -0.615472 -0.694028 
0.529150 -0.600000 -0.600000 
0.529150 -0.600000 -0.600000 
0.529150 -0.600000 -0.600000 
0.329678 -0.713211 -0.618581 
0.305688 -0.722530 -0.620085 
0.353526 -0.616949 -0.703131 
0.529150 -0.600000 -0.600000 
0.324443 -0.715314 -0.618921 
0.277723 -0.621673 -0.732388 
0.493529 -0.604244 -0.625555 
0.473446 -0.606435 -0.638816 
0.529150 -0.600000 -0.600000 
0.434820 -0.610277 -0.662189 
0.234820 -0.623778 -0.745494 
0.529150 -0.600000 -0.600000 
0.310775 -0.619778 -0.720621 
0.529150 -0.600000 -0.600000 
0.232541 -0.746123 -0.623879 
0.162064 -0.762401 -0.626482 
0.403686 -0.613046 -0.679126 
0.529150 -0.600000 -0.600000 
0.470927 -0.640424 -0.606700 
0.247186 -0.741962 -0.623211 
0.529150 -0.600000 -0.600000 
0.333811 -0.618308 -0.711524 
0.169362 -0.760997 -0.626258 
0.529150 -0.600000 -0.600000 
0.166181 -0.626357 -0.761617 
0.410159 -0.675738 -0.612493 
0.411935 -0.674796 -0.612339 
0.529150 -0.600000 -0.600000 
0.166181 -0.626357 -0.761617 
0.365886 -0.616048 -0.697576 
0.478974 -0.635244 -0.605845 
0.282283 -0.621426 -0.730853 
0.529150 -0.600000 -0.600000 
0.205259 -0.625004 -0.753152 
0.339086 -0.709333 -0.617954 
0.529150 -0.600000 -0.600000 
0.274962 -0.621821 -0.733304 
0.529150 -0.600000 -0.600000 
0.441004 -0.609693 -0.658627 
0.166181 -0.626357 -0.761617 
0.490513 -0.627597 -0.604582 
0.529150 -0.600000 -0.600000 
0.414949 -0.612076 -0.673187 
0.386579 -0.687754 -0.614452 
0.402280 -0.679853 -0.613164 
0.337337 -0.710064 -0.618072 
0.341978 -0.708116 -0.617757 
0.529150 -0.600000 -0.600000 
0.326620 -0.714444 -0.618780 
0.162064 -0.762401 -0.626482 
0.397134 -0.682486 -0.613594 
0.529150 -0.600000 -0.600000 
0.529150 -0.600000 -0.600000 
0.376312 -0.692710 -0.615258 
0.438437 -0.660114 -0.609937 
0.529150 -0.600000 -0.600000 
0.319498 -0.619236 -0.717264 
0.162501 -0.750435 -0.640657 
0.446533 -0.609161 -0.655386 
0.328933 -0.713513 -0.618630 
0.162140 -0.760360 -0.628938 
0.416108 -0.611974 -0.672563 
0.529150 -0.600000 -0.600000 
0.166181 -0.626357 -0.761617 
0.164455 -0.690344 -0.704542 
0.402943 -0.676323 -0.616623 
0.510252 -0.602311 -0.613893 
0.340931 -0.708558 -0.617828 
0.387424 -0.687339 -0.614384 
0.239547 -0.744167 -0.623565 
0.472867 -0.639187 -0.606496 
0.326816 -0.714366 -0.618767 
0.508629 -0.602503 -0.615050 
0.244430 -0.742766 -0.623340 
0.295305 -0.620695 -0.726314 
0.466961 -0.642931 -0.607113 
0.166181 -0.626357 -0.761617 
0.400638 -0.613302 -0.680698 
0.305561 -0.620093 -0.722577 
0.412502 -0.674495 -0.612290 
0.296092 -0.726032 -0.620650 
0.190827 -0.625539 -0.756496 
0.529150 -0.600000 -0.600000 
0.332850 -0.618372 -0.711918 
0.164617 -0.684827 -0.709868 
0.500237 -0.603481 -0.620946 
0.529150 -0.600000 -0.600000 
0.434011 -0.662650 -0.610352 
0.162064 -0.762401 -0.626482 
0.473775 -0.638605 -0.606400 
0.529150 -0.600000 -0.600000 
0.527414 -0.601309 -0.600218 
0.390730 -0.614118 -0.685704 
0.529150 -0.600000 -0.600000 
0.165840 -0.639953 -0.750305 
0.476066 -0.637130 -0.606157 
0.529150 -0.600000 -0.600000 
0.529150 -0.600000 -0.600000 
0.402916 -0.679525 -0.613111 
0.529150 -0.600000 -0.600000 
0.339761 -0.617908 -0.709050 
0.244029 -0.742882 -0.623359 
0.162064 -0.762401 -0.626482 
0.165281 -0.661195 -0.731781 
0.529150 -0.600000 -0.600000 
0.469573 -0.606842 -0.641284 
0.165278 -0.661298 -0.731689 
0.166181 -0.626357 -0.761617 
0.232862 -0.666413 -0.708286 
0.529150 -0.600000 -0.600000 
0.529150 -0.600000 -0.600000 
0.469528 -0.641312 -0.606846 
0.529150 -0.600000 -0.600000 
0.529150 -0.600000 -0.600000 
0.255071 -0.622833 -0.739606 
0.407882 -0.612689 -0.676938 
0.466662 -0.643119 -0.607144 
0.439654 -0.609821 -0.659410 
-0.164472 -0.689761 -0.705109 
0.529150 -0.600000 -0.600000 
0.397212 -0.613587 -0.682446 
0.529150 -0.600000 -0.600000 
0.379081 -0.691389 -0.615043 
0.529150 -0.600000 -0.600000 
0.529150 -0.600000 -0.600000 
0.163416 -0.723697 -0.670490 
0.314220 -0.719308 -0.619566 
0.285141 -0.729876 -0.621269 
0.412047 -0.674737 -0.612329 
0.292033 -0.620883 -0.727476 
0.447853 -0.609033 -0.654604 
0.462612 -0.645647 -0.607560 
-0.163394 -0.724378 -0.669760 
0.163346 -0.725823 -0.668206 
0.336306 -0.710493 -0.618141 
0.318649 -0.717596 -0.619289 
0.529150 -0.600000 -0.600000 
0.332881 -0.618370 -0.711905 
0.270835 -0.734655 -0.622038 
0.529150 -0.600000 -0.600000 
-0.165470 -0.654174 -0.738022 
0.162064 -0.762401 -0.626482 
0.302247 -0.620290 -0.723800 
0.393638 -0.684251 -0.613881 
0.529150 -0.600000 -0.600000 
0.469372 -0.606863 -0.641411 
0.219165 -0.660988 -0.717678 
0.197535 -0.741123 -0.641651 
0.360436 -0.671209 -0.647738 
0.493722 -0.625423 -0.604222 
0.227287 -0.747550 -0.624107 
0.529150 -0.600000 -0.600000 
0.162959 -0.737359 -0.655550 
0.162064 -0.762401 -0.626482 
0.529150 -0.600000 -0.600000 
0.493511 -0.625567 -0.604246 
0.526097 -0.600383 -0.602297 
0.181514 -0.758518 -0.625862 
0.441955 -0.609602 -0.658074 
0.225200 -0.745111 -0.627770 
0.166181 -0.626357 -0.761617 
0.529150 -0.600000 -0.600000 
0.529150 -0.600000 -0.600000 
0.529150 -0.600000 -0.600000 
0.238815 -0.655100 -0.716806 
0.267677 -0.735673 -0.622201 
0.529150 -0.600000 -0.600000 
0.166181 -0.626357 -0.761617 
0.529150 -0.600000 -0.600000 
