-0.729018 0.600101 0.336768 
-0.756539 0.550140 0.378559 
-0.636151 0.705397 0.320511 
-0.773540 0.505798 0.430950 
-0.818291 0.484647 0.380452 
-0.585665 0.740391 0.355534 
-0.571514 0.782921 0.300844 
-0.752440 0.494130 0.497423 
-0.762286 0.596944 0.274452 
-0.591992 0.795275 0.234301 
-0.864167 0.461294 0.331975 
-0.588842 0.829822 0.172684 
-0.631622 0.812247 0.119196 
-0.891218 0.466076 0.266819 
-0.537115 0.872876 0.194376 
-0.681903 0.777969 0.083184 
-0.522985 0.812184 0.343136 
-0.482778 0.825477 0.399764 
-0.727774 0.486516 0.563253 
-0.466861 0.869143 0.346473 
-0.726510 0.549054 0.442568 
-0.908798 0.481548 0.200099 
-0.500332 0.859770 0.295994 
-0.916025 0.507216 0.134609 
-0.679635 0.811812 0.021139 
-0.746557 0.441098 0.614090 
-0.962560 0.482505 0.087451 
-0.445253 0.834650 0.458990 
-0.941567 0.529189 0.038668 
-0.941083 0.433137 0.229023 
-0.676062 0.528684 0.586657 
-0.534821 0.788540 0.365363 
-0.571526 0.780572 0.305452 
-0.728284 0.782246 -0.020803 
-0.766995 0.624885 0.209667 
-0.624349 0.572427 0.606963 
-0.397201 0.862746 0.502598 
-0.803934 0.448288 0.481708 
-0.797886 0.496552 0.399022 
-0.677315 0.845695 -0.040881 
-0.580028 0.592771 0.658167 
-0.349721 0.914904 0.497593 
-0.832104 0.398045 0.522722 
-0.673351 0.652250 0.348645 
-0.412691 0.819351 0.556235 
-0.508863 0.923154 0.153462 
-0.580587 0.776446 0.294918 
-0.488743 0.969347 0.103849 
-0.982138 0.379553 0.250076 
-0.758674 0.550007 0.374425 
