0.201108 -0.162078 -0.966067 
0.353239 -0.138004 -0.925298 
0.493950 0.017413 -0.869316 
0.525959 -0.039145 -0.849609 
0.671369 -0.232862 -0.703590 
0.567346 -0.033038 -0.822816 
0.492084 -0.095687 -0.865273 
0.537058 0.128263 -0.833737 
0.360448 0.261039 -0.895509 
0.160096 0.230737 -0.959755 
0.017920 0.428793 -0.903225 
-0.187061 0.361028 -0.913601 
-0.093126 0.515638 -0.851730 
0.161188 0.553371 -0.817189 
0.125427 0.357662 -0.925390 
0.302880 0.508412 -0.806090 
0.150509 0.581992 -0.799145 
0.111129 0.703917 -0.701535 
0.143008 0.502151 -0.852873 
0.082764 0.318200 -0.944404 
-0.055519 0.080189 -0.995232 
-0.054377 -0.009654 -0.998474 
0.054086 -0.057688 -0.996868 
-0.100213 -0.255410 -0.961625 
-0.137139 -0.298536 -0.944494 
-0.060948 -0.387416 -0.919888 
-0.285682 -0.256020 -0.923493 
-0.416514 -0.292719 -0.860716 
-0.310421 -0.375338 -0.873361 
-0.354870 -0.182422 -0.916946 
-0.413755 -0.178912 -0.892635 
-0.318570 -0.198783 -0.926822 
-0.231378 0.027709 -0.972469 
0.010242 0.224676 -0.974380 
-0.160271 0.144417 -0.976451 
-0.196782 -0.000844 -0.980447 
-0.204227 -0.150119 -0.967345 
-0.209818 -0.380943 -0.900477 
-0.079947 -0.183412 -0.979780 
0.022135 -0.011855 -0.999685 
-0.179777 0.080937 -0.980372 
-0.222735 0.154944 -0.962487 
-0.005741 0.324517 -0.945862 
0.116495 0.232819 -0.965518 
0.030353 0.189135 -0.981482 
0.240997 0.294476 -0.924773 
-0.015313 0.432130 -0.901681 
-0.223702 0.402022 -0.887883 
-0.127017 0.275827 -0.952778 
-0.184255 0.469500 -0.863493 
