0.747025 -0.578827 -0.326975 
0.739428 -0.531796 -0.412843 
0.843206 -0.475375 -0.251043 
0.751718 -0.616270 -0.234802 
0.753567 -0.642472 -0.139164 
0.745940 -0.462816 -0.478931 
0.700248 -0.707946 -0.092011 
0.879404 -0.447071 -0.163636 
0.911838 -0.401495 -0.085748 
0.762863 -0.382157 -0.521533 
0.937556 -0.347432 -0.016719 
0.671275 -0.592768 -0.444989 
0.964589 -0.262742 -0.023140 
0.700255 -0.417836 -0.578841 
0.698430 -0.715676 0.001870 
0.630741 -0.775691 -0.021689 
0.560164 -0.827318 -0.041972 
0.948284 -0.300863 -0.101186 
0.610287 -0.665200 -0.430185 
0.554959 -0.821208 -0.132806 
0.680981 -0.726940 0.088449 
0.746127 -0.579744 -0.327401 
0.753437 -0.419642 -0.506195 
0.545507 -0.729305 -0.412960 
0.945999 -0.317660 0.064633 
0.756147 -0.653272 -0.038443 
0.932220 -0.305580 -0.193875 
0.960801 -0.228782 -0.156591 
0.682255 -0.654844 -0.325125 
0.870386 -0.486730 -0.074306 
0.694657 -0.717486 -0.051619 
0.564888 -0.732132 -0.380636 
0.581553 -0.632614 -0.511464 
0.956985 -0.176357 -0.230388 
0.597446 -0.563468 -0.570581 
0.980413 -0.170582 -0.098453 
0.498327 -0.843596 -0.200040 
0.974406 -0.134788 -0.179905 
0.641648 -0.421391 -0.640873 
0.928542 -0.197379 -0.314405 
0.894630 -0.199759 -0.399668 
0.512635 -0.858447 0.016588 
0.956305 -0.264834 0.123867 
0.546486 -0.677904 -0.491731 
0.727678 -0.670649 0.143926 
0.933040 -0.280039 -0.225864 
0.695363 -0.430686 -0.575308 
0.962350 -0.209967 0.172618 
0.736308 -0.664370 0.128306 
0.813337 -0.578344 -0.063250 
0.920501 -0.124839 -0.370262 
0.715573 -0.661545 0.224305 
0.864390 -0.281410 -0.416700 
0.794293 -0.450644 -0.407455 
0.687516 -0.687977 -0.232399 
0.820339 -0.342554 -0.457931 
0.908573 -0.415663 0.041459 
0.979959 -0.153853 -0.126526 
0.772121 -0.341389 -0.535988 
0.776164 -0.264546 -0.572351 
0.580878 -0.813167 0.036596 
0.897569 -0.438378 -0.046849 
0.946419 -0.256312 -0.196456 
0.818438 -0.320235 -0.477083 
0.581286 -0.632717 -0.511640 
0.928600 -0.197059 -0.314435 
0.688486 -0.520430 -0.505114 
0.576234 -0.637942 -0.510866 
0.871930 -0.479433 0.099406 
0.822331 -0.557106 0.115779 
0.600278 -0.632208 -0.489876 
0.474672 -0.724833 -0.499303 
0.404455 -0.749021 -0.524770 
0.919284 -0.380540 -0.100526 
0.631950 -0.764363 -0.128020 
0.888943 -0.314492 -0.332979 
0.676877 -0.697119 -0.236352 
0.474915 -0.780147 -0.407219 
0.980348 -0.196230 0.020286 
0.721930 -0.551471 -0.417967 
0.918000 -0.201833 -0.341379 
0.860376 -0.402342 -0.312849 
0.701911 -0.360139 -0.614508 
0.756135 -0.347977 -0.554231 
0.864780 -0.166717 -0.473667 
0.887763 -0.107341 -0.447609 
0.641292 -0.485592 -0.594092 
0.746114 -0.622102 -0.237283 
0.440787 -0.756432 -0.483237 
0.525949 -0.788836 -0.317986 
0.927405 -0.342157 0.151161 
0.765781 -0.344422 -0.543096 
0.792781 -0.592514 0.142915 
0.686561 -0.602048 -0.407642 
0.913116 -0.395674 0.098292 
0.911472 -0.411228 -0.010503 
0.607794 -0.740793 -0.286028 
0.572934 -0.810771 0.119982 
0.795088 -0.605941 0.025894 
0.934677 -0.179734 -0.306717 
0.981514 -0.154930 0.112372 
0.859642 -0.338109 -0.383012 
0.384242 -0.806645 -0.449090 
0.829358 -0.240706 -0.504209 
0.771045 -0.609099 0.185710 
0.686826 -0.504816 -0.522907 
0.868424 -0.158759 -0.469719 
0.564421 -0.732191 -0.381215 
