0.129100 0.209669 -0.980125 
0.309372 0.026835 -0.984583 
0.287133 -0.035549 -0.959306 
0.344405 0.011729 -0.941841 
0.552022 0.161267 -0.860966 
0.385201 0.289911 -0.901291 
0.139349 0.305272 -0.976325 
-0.160415 0.455714 -0.937826 
-0.114155 0.305670 -0.956833 
-0.052234 0.452863 -0.905642 
0.069316 0.504415 -0.871308 
-0.137722 0.584781 -0.830637 
-0.110019 0.530227 -0.842622 
-0.181860 0.676788 -0.739083 
-0.347333 0.678578 -0.671222 
-0.650424 0.575666 -0.594664 
-0.474262 0.543994 -0.724809 
-0.571489 0.680583 -0.526445 
-0.489996 0.657196 -0.580540 
-0.415121 0.665273 -0.626799 
-0.455376 0.564666 -0.700694 
-0.579654 0.632215 -0.553174 
-0.607046 0.580397 -0.545619 
-0.527172 0.765675 -0.434587 
-0.448014 0.876538 -0.273480 
-0.596519 0.774828 -0.275207 
-0.672464 0.604620 -0.531331 
-0.573280 0.690494 -0.462712 
-0.599370 0.652045 -0.466554 
-0.702033 0.623134 -0.372841 
-0.726550 0.537699 -0.442298 
-0.763245 0.638554 -0.245098 
-0.749409 0.598390 -0.288812 
-0.706877 0.772664 -0.032732 
-0.593482 0.811049 -0.047404 
-0.664370 0.765605 0.192361 
-0.478151 0.841702 0.362267 
-0.349705 0.946072 0.193439 
-0.352409 0.883882 0.349266 
-0.216011 0.990238 0.178211 
-0.209349 1.002698 -0.050831 
-0.072608 1.010076 0.047640 
-0.289332 0.978949 0.083583 
-0.413049 0.917809 0.074534 
-0.607896 0.815579 0.128660 
-0.713748 0.713757 0.072284 
-0.530176 0.860974 0.263471 
-0.608361 0.771417 0.220799 
-0.717430 0.720547 0.066336 
-0.754676 0.678698 -0.173265 
