-0.347541 0.742434 0.581384 
-0.178718 0.731345 0.665728 
-0.321521 0.812420 0.514864 
-0.105081 0.790031 0.632062 
-0.281533 0.881803 0.454973 
-0.274647 0.647182 0.718140 
-0.441106 0.738001 0.546372 
-0.186475 0.891909 0.484330 
-0.355691 0.908685 0.393509 
-0.494054 0.670869 0.598236 
-0.451518 0.882852 0.381268 
-0.381645 0.967653 0.317029 
-0.101554 0.941337 0.465747 
-0.273398 0.960783 0.370844 
-0.012321 0.935335 0.510484 
-0.094542 0.931038 0.480162 
0.040708 0.890733 0.582585 
-0.298964 0.577236 0.785343 
-0.274652 1.027473 0.296340 
-0.303626 0.509363 0.858634 
-0.205660 0.580864 0.821137 
-0.339909 0.507959 0.844707 
-0.382240 1.034488 0.242646 
-0.550171 0.604584 0.647806 
-0.599761 0.651429 0.574687 
0.053667 0.827132 0.658658 
-0.387103 0.585291 0.738796 
-0.186605 0.950388 0.419412 
0.072856 0.984480 0.492325 
-0.119313 0.569731 0.870333 
-0.684961 0.602310 0.592807 
-0.652112 0.696484 0.502373 
0.025502 0.881799 0.586004 
-0.011240 0.795355 0.666203 
0.100601 0.778650 0.732460 
-0.641269 0.765320 0.430651 
-0.095845 0.745584 0.685301 
-0.095356 0.889867 0.525480 
0.054022 0.710184 0.788521 
0.186665 0.767058 0.782045 
-0.422332 0.455984 0.867181 
-0.241653 0.829336 0.530185 
-0.591078 0.535303 0.707192 
-0.484477 0.938762 0.305190 
-0.254194 1.097243 0.227685 
-0.183017 1.157369 0.191372 
-0.520996 0.706551 0.547162 
-0.777630 0.600499 0.555269 
0.125164 0.805479 0.713186 
-0.063386 0.888465 0.540678 
-0.236552 1.097039 0.235440 
-0.190226 0.803068 0.581266 
-0.180989 0.886748 0.492395 
-0.013148 0.996169 0.442658 
-0.294391 0.444671 0.934328 
-0.499734 0.778631 0.476287 
-0.584473 0.831406 0.381590 
-0.130000 0.799415 0.611020 
-0.446195 0.845615 0.424840 
-0.147323 0.836384 0.562623 
-0.369550 0.565369 0.768382 
-0.223423 0.662573 0.722929 
0.135097 0.923527 0.586491 
0.043554 0.758395 0.730581 
-0.214392 0.712153 0.671792 
-0.558103 0.599919 0.649596 
0.140775 0.699723 0.837146 
0.031902 0.917640 0.548982 
-0.213418 0.505331 0.901602 
0.110146 1.054115 0.431003 
-0.255878 0.782108 0.576497 
0.236921 0.719450 0.856297 
-0.318529 0.812432 0.516127 
-0.585047 0.898244 0.307211 
-0.358444 0.919409 0.380440 
-0.080905 0.516495 0.945770 
0.161217 0.744666 0.796022 
-0.169731 0.650600 0.759121 
-0.350877 0.857052 0.452832 
-0.678277 0.826200 0.347333 
-0.017103 0.857442 0.594839 
-0.468586 0.603546 0.683775 
-0.540294 0.889731 0.335753 
-0.342292 0.376444 0.989560 
-0.347918 1.104323 0.179836 
-0.399189 0.680083 0.628499 
-0.543727 0.779401 0.456659 
-0.118178 0.446859 1.007101 
-0.026154 0.606080 0.869772 
-0.152914 1.147823 0.214806 
-0.679037 0.489589 0.720359 
0.218992 0.908618 0.638830 
-0.374277 0.636609 0.687349 
-0.095481 0.544967 0.907969 
0.046624 0.666155 0.834199 
-0.075716 0.972226 0.442513 
-0.534707 0.852987 0.378891 
-0.276979 1.151634 0.157635 
-0.128820 0.378050 1.078878 
-0.203501 1.166936 0.172019 
-0.091800 1.109098 0.283838 
-0.303797 0.692087 0.655894 
-0.164845 0.501090 0.927035 
-0.053832 0.510273 0.964225 
-0.346243 0.917596 0.387657 
-0.477395 0.389404 0.917530 
-0.428704 1.005144 0.255364 
0.035035 0.554701 0.952872 
-0.061028 0.537190 0.931298 
-0.270339 0.961494 0.371361 
0.095631 0.896286 0.599863 
-0.276396 0.816027 0.530120 
0.103781 0.859529 0.644111 
-0.601882 0.761856 0.451302 
-0.293344 0.882422 0.449246 
-0.419447 0.523528 0.793496 
-0.065430 0.688516 0.761578 
-0.869959 0.599598 0.516867 
-0.352971 0.808136 0.506193 
