0.585363 -0.340234 0.739317 
0.773198 -0.371419 0.598875 
0.473066 -0.367486 0.803843 
0.399585 -0.415336 0.833350 
0.456781 -0.434114 0.786653 
0.427312 -0.554688 0.755546 
0.601061 -0.273573 0.756919 
0.646103 -0.082304 0.807420 
0.624993 -0.208044 0.768463 
0.639360 -0.168705 0.775393 
0.510294 -0.450539 0.743448 
0.547397 -0.461928 0.713492 
0.660695 -0.266215 0.719640 
0.686591 -0.263020 0.703452 
0.567610 -0.202993 0.809471 
0.509539 -0.197882 0.850972 
0.642111 -0.141475 0.785063 
0.650336 -0.109489 0.793039 
0.402059 -0.420732 0.829389 
0.306107 -0.397267 0.904322 
0.509919 -0.199151 0.850177 
0.485026 -0.197493 0.867742 
0.599740 -0.105683 0.828923 
0.572460 -0.082638 0.857163 
0.544390 -0.094026 0.871353 
0.544097 -0.093964 0.871578 
0.404123 -0.355157 0.855765 
0.404603 -0.339888 0.861906 
0.344176 -0.372404 0.889066 
0.334024 -0.375325 0.894706 
0.467224 -0.255281 0.855324 
0.462204 -0.261880 0.855929 
0.708393 -0.294108 0.675517 
0.769500 -0.329841 0.618990 
0.488005 -0.516412 0.730646 
0.449135 -0.631288 0.708320 
0.447637 -0.198502 0.892640 
0.446227 -0.194416 0.895326 
0.598806 -0.400420 0.704720 
0.600741 -0.409083 0.699740 
0.387705 -0.216110 0.925779 
0.326637 -0.234051 0.959546 
0.356009 -0.473671 0.838159 
0.349518 -0.481133 0.839396 
0.540751 -0.534609 0.687210 
0.575377 -0.546555 0.658695 
0.599095 -0.505239 0.660129 
0.612905 -0.498286 0.653719 
0.750666 -0.330028 0.631668 
0.779022 -0.354123 0.602256 
0.723559 -0.394709 0.622634 
0.721611 -0.399358 0.621985 
0.309378 -0.327829 0.931517 
0.277058 -0.286428 0.970945 
0.695162 -0.458973 0.614651 
0.694850 -0.459680 0.614563 
