-0.552806 -0.505525 0.666221 
-0.508449 -0.486096 0.725929 
-0.527634 -0.469429 0.721569 
-0.487829 -0.412350 0.809093 
-0.631806 -0.465258 0.623984 
-0.726561 -0.321054 0.655439 
-0.681465 -0.467665 0.573702 
-0.767434 -0.471831 0.486655 
-0.501966 -0.554043 0.674049 
-0.409943 -0.641861 0.688217 
-0.716104 -0.408433 0.590780 
-0.731138 -0.382725 0.598192 
-0.689071 -0.374137 0.646395 
-0.664361 -0.342788 0.697231 
-0.529752 -0.414737 0.766339 
-0.531424 -0.371557 0.801687 
-0.608698 -0.427260 0.678957 
-0.601304 -0.415102 0.696547 
-0.476224 -0.614294 0.647458 
-0.412271 -0.763983 0.581396 
-0.605957 -0.569902 0.559490 
-0.634941 -0.679039 0.437901 
-0.723387 -0.483875 0.519115 
-0.767311 -0.500860 0.461920 
-0.764065 -0.356517 0.588658 
-0.785631 -0.333172 0.587703 
-0.663026 -0.338875 0.701877 
-0.650734 -0.322233 0.728062 
-0.719578 -0.539294 0.475363 
-0.712374 -0.644133 0.392596 
-0.445222 -0.577226 0.709300 
-0.439688 -0.579487 0.712738 
-0.723547 -0.590973 0.427263 
-0.726704 -0.632096 0.388987 
-0.481478 -0.665257 0.598722 
-0.489559 -0.743652 0.523753 
-0.576211 -0.629962 0.536950 
-0.569570 -0.643371 0.531918 
-0.811680 -0.304262 0.587162 
-0.830812 -0.283265 0.586561 
-0.686696 -0.649580 0.412867 
-0.684443 -0.653164 0.411987 
-0.424601 -0.661660 0.657032 
-0.403314 -0.681192 0.660980 
-0.457241 -0.725482 0.570693 
-0.454826 -0.731483 0.567900 
-0.396222 -0.721831 0.633071 
-0.394366 -0.725766 0.631504 
-0.484885 -0.403223 0.819766 
-0.448314 -0.393838 0.863313 
-0.563323 -0.688462 0.499379 
-0.558174 -0.711832 0.484369 
