0.698490 -0.715751 0.069373 
0.661319 -0.746876 0.120847 
0.777097 -0.623887 0.109022 
0.626645 -0.791740 0.078599 
0.815979 -0.590421 0.060358 
0.579002 -0.839478 0.099841 
0.561220 -0.846753 0.167891 
0.527379 -0.873481 0.223931 
0.622919 -0.807822 0.009842 
0.803728 -0.585777 0.162299 
0.591739 -0.849842 -0.037719 
0.612426 -0.839207 -0.104494 
0.490538 -0.904161 0.275906 
0.830983 -0.586309 -0.008620 
0.448320 -0.942422 0.317784 
0.615216 -0.848477 -0.174539 
0.844901 -0.536199 0.191398 
0.882603 -0.489023 0.228181 
0.580120 -0.893671 -0.216081 
0.410869 -0.973925 0.368823 
0.536215 -0.944836 -0.237400 
0.695639 -0.700255 0.175298 
0.365101 -1.025881 0.354475 
0.660953 -0.804559 -0.205833 
0.874823 -0.545555 -0.046265 
0.349845 -1.030277 0.423380 
0.902296 -0.457228 0.288192 
0.321343 -1.050271 0.484926 
0.511462 -0.871219 0.334872 
0.278725 -1.100734 0.459682 
0.652662 -0.767966 0.053912 
0.917841 -0.506083 -0.086157 
0.244276 -1.128251 0.514964 
0.959001 -0.469383 -0.130418 
0.924839 -0.422793 0.345690 
0.500787 -0.990290 -0.278373 
0.463734 -0.942424 0.222826 
0.977859 -0.460870 -0.198034 
0.472136 -1.030163 -0.329258 
0.898572 -0.440059 0.409030 
0.531560 -0.839045 0.394546 
0.998094 -0.450761 -0.265029 
0.539747 -0.818427 0.461687 
0.208260 -1.157830 0.568142 
0.988328 -0.472958 -0.331451 
0.978577 -0.495140 -0.397881 
0.911774 -0.498937 -0.008037 
0.354544 -1.006587 0.529528 
0.483541 -1.030081 -0.399043 
1.044628 -0.405377 -0.292866 
0.210878 -1.142891 0.637207 
0.556780 -0.878026 0.016903 
0.508610 -1.014259 -0.463240 
0.954729 -0.448281 0.016228 
0.424245 -1.078537 -0.310116 
0.317367 -1.073372 0.377686 
0.191119 -1.152447 0.704424 
0.973256 -0.371797 0.338257 
0.915886 -0.410508 0.470892 
0.696571 -0.758957 -0.165189 
1.087605 -0.365967 -0.332864 
0.578522 -0.792812 0.368913 
0.613889 -0.747405 0.409991 
0.391167 -0.960215 0.568367 
1.130077 -0.327325 -0.374130 
1.173063 -0.287902 -0.414106 
1.207356 -0.243340 -0.371231 
0.744159 -0.711349 -0.186839 
0.658048 -0.819795 -0.274821 
1.020500 -0.324969 0.314276 
0.968024 -0.518120 -0.463915 
0.326638 -1.052299 0.440750 
1.243033 -0.214211 -0.424885 
0.351026 -0.998091 0.599638 
1.049060 -0.285176 0.365275 
0.167210 -1.166881 0.769386 
1.085180 -0.255458 0.312245 
0.777387 -0.685412 -0.243612 
0.227693 -1.106113 0.743354 
0.468713 -1.062992 -0.495385 
1.282220 -0.180320 -0.473007 
0.166529 -1.155383 0.839153 
0.585438 -0.774591 0.430211 
0.400842 -0.938109 0.634832 
1.317365 -0.151892 -0.527382 
0.512955 -0.918757 0.054591 
0.290838 -1.111391 0.324293 
0.437786 -1.104801 -0.543296 
0.922691 -0.497241 -0.065614 
1.124079 -0.221968 0.263611 
0.162819 -1.147093 0.909278 
0.416606 -0.910040 0.697790 
0.451887 -0.864700 0.739015 
0.302640 -1.048295 0.611401 
1.185976 -0.254787 -0.304809 
1.066989 -0.255041 0.426679 
0.473314 -1.075869 -0.597154 
1.052518 -0.258550 0.495804 
1.000703 -0.492886 -0.521320 
0.784545 -0.594666 0.229774 
0.209817 -1.104543 0.862422 
0.376019 -1.127965 -0.294913 
0.687112 -0.799106 -0.335872 
0.699901 -0.797483 -0.405398 
0.950664 -0.502932 -0.270375 
0.879742 -0.440257 0.523888 
