-0.774918 -0.028204 0.631432 
-0.849310 0.029790 0.527053 
-0.743612 0.022782 0.668223 
-0.870792 -0.026626 0.490930 
-0.879689 -0.091435 0.466676 
-0.725337 0.088410 0.682693 
-0.677932 0.108567 0.727064 
-0.752891 -0.091542 0.651748 
-0.736597 0.152614 0.658888 
-0.647445 0.165091 0.744016 
-0.698314 0.199874 0.687319 
-0.729692 -0.154879 0.666005 
-0.633938 0.228981 0.738709 
-0.877942 -0.158556 0.451751 
-0.894175 -0.198756 0.401182 
-0.748118 -0.087272 0.657802 
-0.876861 0.068537 0.475833 
-0.853479 0.127450 0.505302 
-0.710218 -0.219322 0.668946 
-0.907660 0.050659 0.416638 
-0.842069 0.195015 0.502880 
-0.703211 0.261286 0.661229 
-0.662410 -0.221797 0.715555 
-0.921894 -0.178128 0.344066 
-0.914943 -0.016939 0.403227 
-0.856797 0.240367 0.456204 
-0.870945 0.277722 0.405371 
-0.631976 0.290375 0.718532 
-0.583809 0.309684 0.750508 
-0.925392 -0.226520 0.303872 
-0.720908 -0.276542 0.635466 
-0.713991 0.058885 0.697675 
-0.901588 0.238741 0.360752 
-0.680828 -0.320560 0.658570 
-0.708076 0.318569 0.630192 
-0.535306 0.309942 0.785737 
-0.645612 -0.369007 0.668595 
-0.921566 -0.080923 0.379695 
-0.599924 0.148828 0.786093 
-0.945410 -0.169055 0.278605 
-0.900858 -0.280965 0.330927 
-0.961749 -0.163403 0.219858 
-0.945178 -0.070314 0.318896 
-0.868679 0.224603 0.441532 
-0.602492 -0.357056 0.713802 
-0.953413 -0.132356 0.271082 
-0.615070 -0.210951 0.759730 
-0.921087 0.246521 0.301375 
-0.559000 -0.341260 0.755686 
-0.942306 0.227650 0.245429 
