0.468540 -0.631446 -0.617856 
0.518218 -0.608131 -0.601354 
0.529150 -0.600000 -0.600000 
0.529150 -0.600000 -0.600000 
0.529150 -0.600000 -0.600000 
0.529150 -0.600000 -0.600000 
0.529150 -0.600000 -0.600000 
0.483254 -0.605382 -0.632438 
0.442676 -0.609533 -0.657653 
0.426326 -0.666972 -0.611060 
0.366037 -0.697507 -0.616037 
0.529150 -0.600000 -0.600000 
0.529150 -0.600000 -0.600000 
0.386303 -0.614474 -0.687890 
0.309182 -0.721223 -0.619875 
0.439110 -0.609873 -0.659725 
0.340284 -0.617872 -0.708830 
0.250090 -0.741103 -0.623074 
0.511830 -0.612763 -0.602123 
0.200744 -0.754226 -0.625176 
0.501657 -0.619959 -0.603317 
0.529150 -0.600000 -0.600000 
0.421548 -0.611491 -0.669608 
0.529150 -0.600000 -0.600000 
0.162846 -0.740643 -0.651866 
0.435749 -0.610190 -0.661658 
0.332178 -0.712193 -0.618416 
0.466705 -0.643093 -0.607140 
0.170578 -0.760757 -0.626220 
0.162258 -0.757148 -0.632771 
0.415333 -0.612042 -0.672980 
0.372409 -0.668782 -0.643461 
0.162064 -0.762401 -0.626482 
0.375633 -0.615310 -0.693032 
0.492732 -0.626096 -0.604334 
0.419616 -0.670664 -0.611664 
0.529150 -0.600000 -0.600000 
0.162064 -0.762401 -0.626482 
0.162671 -0.745656 -0.646169 
0.162064 -0.762401 -0.626482 
-0.162302 -0.755951 -0.634189 
0.529150 -0.600000 -0.600000 
0.529150 -0.600000 -0.600000 
0.379322 -0.691274 -0.615024 
-0.162064 -0.762401 -0.626482 
0.363531 -0.616223 -0.698652 
0.162216 -0.758304 -0.631396 
0.435820 -0.610183 -0.661617 
0.362586 -0.616292 -0.699081 
0.334699 -0.618249 -0.711158 
