-0.982709 -0.153168 0.104035 
-0.931636 -0.363036 -0.016099 
-0.921635 -0.377992 -0.087812 
-0.880096 -0.474575 -0.014480 
-0.940710 -0.293691 0.169734 
-0.940107 -0.217411 0.262548 
-0.808633 -0.409289 0.422605 
-0.629984 -0.581839 0.514376 
-0.651532 -0.438995 0.618700 
-0.776040 -0.239343 0.583503 
-0.769879 -0.367032 0.522087 
-0.608731 -0.394899 0.688114 
-0.803766 -0.254786 0.537628 
-0.941600 -0.062694 0.330847 
-0.960344 0.079054 0.267376 
-0.929238 -0.026699 0.368515 
-0.949600 0.112028 0.292763 
-0.926749 0.339080 0.161744 
-0.901341 0.431129 0.041385 
-0.799711 0.594786 0.081811 
-0.889521 0.444577 0.105376 
-0.938865 0.342216 -0.037689 
-0.944074 0.303830 -0.128105 
-0.817202 0.517783 -0.253143 
-0.947747 0.315876 -0.044693 
-0.924376 0.345863 -0.160958 
-0.960379 0.274331 0.049143 
-0.986547 0.137900 -0.087800 
-0.899061 0.359622 -0.249723 
-0.963848 0.235890 -0.123908 
-0.962666 0.245471 -0.114094 
-0.948414 0.235609 -0.212130 
-0.886989 0.404792 -0.222248 
-0.883724 0.427484 -0.190496 
-0.824023 0.524127 -0.215118 
-0.925913 0.375139 -0.044226 
-0.811277 0.579619 -0.076624 
-0.909188 0.396114 -0.128337 
-0.809322 0.488325 -0.326400 
-0.816000 0.545467 -0.191334 
-0.878892 0.330261 -0.344205 
-0.910312 0.105261 -0.400315 
-0.859780 -0.083631 -0.503769 
-0.748448 -0.025505 -0.662702 
-0.845936 -0.073054 -0.528257 
-0.935293 0.103575 -0.338376 
-0.913730 0.030502 -0.405175 
-0.844877 -0.105290 -0.524497 
-0.913408 0.047903 -0.404216 
-0.906308 0.186879 -0.379054 
