0.239896 0.623549 -0.744067 
0.283479 0.644509 -0.710104 
0.244356 0.693373 -0.677882 
0.262430 0.734926 -0.625312 
0.175625 0.703488 -0.688665 
0.252708 0.778694 -0.574259 
0.164207 0.698605 -0.696410 
0.165473 0.654042 -0.738138 
0.349649 0.633628 -0.690117 
0.166181 0.626357 -0.761617 
0.272155 0.621969 -0.734225 
0.230146 0.818463 -0.526452 
0.163703 0.714820 -0.679877 
0.401601 0.613221 -0.680203 
0.459289 0.607898 -0.647699 
0.165026 0.670444 -0.723374 
0.236422 0.623706 -0.745047 
0.185106 0.625740 -0.757750 
0.275747 0.831838 -0.481673 
0.162394 0.753408 -0.637185 
0.327533 0.618721 -0.714077 
0.186288 0.625699 -0.757494 
0.315146 0.775155 -0.547556 
0.491813 0.623359 -0.607901 
0.370601 0.775150 -0.511660 
0.531424 0.599712 -0.598275 
0.166181 0.626357 -0.761617 
-0.166181 0.626357 -0.761617 
0.348453 0.730920 -0.586802 
0.245528 0.864892 -0.437810 
0.214262 0.740738 -0.636710 
0.544395 0.598032 -0.588211 
0.162285 0.756407 -0.633650 
-0.161332 0.781399 -0.602816 
0.344284 0.684418 -0.642682 
0.234375 0.891909 -0.386738 
0.166181 0.626357 -0.761617 
0.570746 0.594394 -0.566520 
0.161012 0.789331 -0.592479 
-0.163286 0.727636 -0.666246 
0.430340 0.756496 -0.492464 
0.601636 0.589708 -0.538775 
0.600562 0.589879 -0.539786 
0.356431 0.616741 -0.701846 
-0.166181 0.626357 -0.761617 
0.166181 0.626357 -0.761617 
0.251806 0.695015 -0.673459 
0.193327 0.625449 -0.755935 
0.632400 0.584523 -0.508333 
0.175228 0.807104 -0.563807 
