-0.415416 0.572214 -0.716313 
-0.411667 0.508237 -0.760418 
-0.263380 0.468757 -0.863126 
-0.122740 0.556172 -0.838655 
0.037946 0.614651 -0.806742 
0.046398 0.520295 -0.859460 
0.147371 0.568582 -0.818049 
0.182151 0.828930 -0.622115 
-0.084085 0.776962 -0.680850 
-0.111847 0.701122 -0.708428 
-0.188209 0.620893 -0.771567 
0.036476 0.559842 -0.864932 
0.180949 0.648570 -0.764516 
0.146360 0.398986 -0.959437 
0.198050 0.227197 -0.969019 
0.136773 0.346716 -0.938010 
0.046624 0.099030 -1.032649 
0.075619 0.269104 -0.976381 
0.167111 0.177722 -0.978249 
-0.082063 0.354349 -0.980267 
0.113028 0.497932 -0.896088 
0.095428 0.452714 -0.887351 
-0.039227 0.640965 -0.804973 
-0.199969 0.655488 -0.747537 
-0.280542 0.694881 -0.672269 
-0.451078 0.656516 -0.630678 
-0.654697 0.590155 -0.528362 
-0.626586 0.704233 -0.381984 
-0.590427 0.806796 -0.206713 
-0.500901 0.901447 0.010261 
-0.568222 0.827824 0.044220 
-0.631514 0.781495 -0.016535 
-0.542151 0.844130 -0.171622 
-0.379596 0.981423 0.095774 
-0.192480 0.974858 0.279958 
-0.357917 0.862082 0.439577 
-0.489635 0.749500 0.478587 
-0.678424 0.685592 0.353379 
-0.494583 0.830934 0.345231 
-0.304553 0.938181 0.279734 
-0.428178 0.909323 0.149292 
-0.545714 0.834013 0.161206 
-0.681678 0.683595 0.418776 
-0.662986 0.535897 0.558848 
-0.688155 0.695130 0.341026 
-0.652186 0.776184 0.139382 
-0.618345 0.813652 -0.082323 
-0.596676 0.790597 -0.158364 
-0.689430 0.711932 -0.182173 
-0.702806 0.633499 -0.395784 
