0.180484 -0.354232 -0.920296 
0.192508 -0.480450 -0.858550 
0.226724 -0.533320 -0.826393 
0.125959 -0.319140 -0.948502 
0.243000 -0.594213 -0.794345 
0.056867 -0.330886 -0.957898 
-0.007813 -0.359457 -0.958457 
-0.063849 -0.401874 -0.950664 
0.267633 -0.652030 -0.761936 
0.261047 -0.409266 -0.877129 
0.291817 -0.710041 -0.729533 
0.064445 -0.266613 -0.986385 
-0.115266 -0.449139 -0.939602 
0.296740 -0.351398 -0.896552 
0.050776 -0.204972 -1.018222 
0.250095 -0.764663 -0.712932 
-0.056606 -0.464952 -0.919540 
0.227125 -0.533198 -0.826364 
0.302108 -0.802742 -0.683869 
0.036145 -0.143596 -1.050141 
0.097831 -0.109146 -1.052983 
-0.172447 -0.417595 -0.966717 
0.123538 -0.493279 -0.867412 
0.185145 -0.747487 -0.734989 
0.330128 -0.619009 -0.763933 
0.115831 -0.750053 -0.748736 
0.324489 -0.429964 -0.853746 
0.364906 -0.333729 -0.890131 
0.389068 -0.271704 -0.913988 
0.379297 -0.569748 -0.776415 
0.339048 -0.231466 -0.943634 
-0.149363 -0.355299 -0.990934 
0.457479 -0.276804 -0.896844 
0.523705 -0.290459 -0.876162 
0.399052 -0.194322 -0.948101 
0.443192 -0.141256 -0.963451 
0.158965 -0.073775 -1.056375 
0.135715 -0.159653 -1.021142 
0.593041 -0.281988 -0.865178 
0.006387 -0.088219 -1.082512 
0.586990 -0.346274 -0.836355 
-0.018418 -0.205778 -1.032767 
0.150335 -0.257171 -0.972287 
0.437312 -0.077946 -0.994390 
0.201545 -0.019686 -1.072541 
0.332409 -0.682813 -0.733539 
0.569524 -0.223697 -0.897568 
0.457647 -0.077435 -0.990243 
0.370791 -0.378433 -0.867911 
0.059132 -0.394692 -0.927506 
