-0.309537 0.672449 -0.676740 
-0.090627 0.720606 -0.724593 
-0.293568 0.700781 -0.663812 
-0.251942 0.719474 -0.648928 
-0.208923 0.839314 -0.531046 
-0.013109 0.774909 -0.681317 
-0.084552 0.589148 -0.845047 
-0.244209 0.536029 -0.818878 
-0.478493 0.578670 -0.708622 
-0.439360 0.535462 -0.728939 
-0.542519 0.575195 -0.627883 
-0.407866 0.706969 -0.599376 
-0.322387 0.619330 -0.739583 
-0.469273 0.540047 -0.719991 
-0.481835 0.795149 -0.459723 
-0.574132 0.678295 -0.481185 
-0.477951 0.601055 -0.682627 
-0.501516 0.709214 -0.522910 
-0.342528 0.756457 -0.584421 
-0.436986 0.684714 -0.595109 
-0.408433 0.891747 -0.366113 
-0.317651 0.838967 -0.461736 
-0.196459 0.981231 -0.267076 
-0.031239 0.934638 -0.421224 
0.008995 0.863924 -0.551427 
0.312553 0.917909 -0.349468 
0.128583 0.920206 -0.417380 
0.139355 0.842004 -0.541522 
0.232842 0.828083 -0.515577 
0.001303 0.865009 -0.555244 
0.035530 0.764310 -0.675015 
0.238147 0.897263 -0.454619 
0.365365 0.777718 -0.547364 
0.360133 0.897795 -0.345262 
0.211799 0.853791 -0.533787 
0.256632 0.830640 -0.497215 
0.186566 1.015554 -0.221400 
0.064134 1.032072 0.008303 
-0.014237 0.988032 0.214179 
-0.369513 0.927630 0.247388 
-0.298987 0.932356 0.215912 
-0.315246 0.926750 0.207137 
-0.164178 0.927995 0.399294 
-0.164999 0.990004 0.194589 
-0.161453 0.957078 0.242025 
-0.300073 0.986460 0.032036 
-0.242978 0.998797 -0.000972 
-0.000040 1.038602 -0.047703 
-0.212634 0.982185 -0.095692 
-0.070341 0.936074 -0.414708 
