-0.395055 0.902239 0.172905 
-0.457309 0.875579 0.155659 
-0.302628 0.943892 0.132229 
-0.509116 0.852724 0.116887 
-0.487661 0.847049 0.211412 
-0.558955 0.825114 0.082189 
-0.607566 0.787233 0.105488 
-0.237440 0.964381 0.116584 
-0.325899 0.908295 0.262279 
-0.576682 0.816743 0.019194 
-0.398333 0.907219 0.135219 
-0.224476 0.973237 0.049199 
-0.263541 0.919187 0.292647 
-0.599385 0.799596 -0.037215 
-0.175778 0.984421 0.004051 
-0.218161 0.913171 0.344274 
-0.577553 0.810549 -0.097178 
-0.626645 0.779226 0.011085 
-0.672862 0.739582 0.016596 
-0.539064 0.829571 -0.145675 
-0.515797 0.814747 0.264840 
-0.161368 0.985070 -0.059983 
-0.559710 0.774820 0.293903 
-0.153466 0.918738 0.363825 
-0.548486 0.811804 -0.200342 
-0.585621 0.736502 0.338545 
-0.110362 0.904953 0.410951 
-0.098900 0.992374 -0.073574 
-0.516221 0.818811 -0.251125 
-0.484142 0.860143 -0.160504 
-0.463545 0.849914 -0.250543 
-0.542097 0.789503 -0.287777 
-0.606515 0.697486 0.381646 
-0.584775 0.794693 -0.162793 
-0.049705 0.901927 0.429020 
-0.436851 0.847541 -0.301389 
-0.094223 0.986326 -0.135212 
-0.059883 0.872519 0.484897 
-0.057375 0.982087 -0.179482 
-0.057819 0.970177 -0.235401 
-0.106040 0.846200 0.522208 
-0.021432 0.962137 -0.271721 
-0.119009 0.812044 0.571334 
-0.136108 0.776305 0.615488 
-0.609854 0.664336 0.432131 
-0.656319 0.637143 0.404097 
-0.702273 0.709084 0.063350 
-0.173893 0.974315 0.143077 
-0.612925 0.629410 0.477667 
-0.013085 0.947650 -0.319042 
0.034045 0.965501 -0.258164 
-0.698663 0.605895 0.380475 
-0.258540 0.883094 0.391538 
-0.389764 0.857557 -0.335679 
0.086469 0.962337 -0.257741 
-0.736366 0.670260 0.092287 
-0.760752 0.647322 0.047227 
-0.291932 0.928577 0.229172 
-0.620089 0.591687 0.515166 
-0.419146 0.829238 -0.369704 
0.011039 0.910459 0.413451 
-0.037832 0.930771 -0.363641 
-0.785223 0.619116 0.010959 
-0.092034 0.927002 -0.363588 
-0.700744 0.710153 0.068126 
-0.578022 0.755938 -0.307325 
-0.043181 0.998282 -0.039598 
-0.085312 0.909828 -0.406122 
-0.803785 0.594253 -0.028164 
-0.583192 0.733632 -0.348813 
-0.234386 0.905517 0.353699 
-0.335847 0.883394 0.326835 
-0.088732 0.762745 0.640583 
-0.644229 0.550825 0.530623 
0.064048 0.922010 0.381831 
0.104983 0.903071 0.416462 
-0.730115 0.598750 0.329289 
-0.830579 0.556396 -0.023726 
0.159031 0.901882 0.401645 
-0.383497 0.828259 -0.408556 
-0.656296 0.512290 0.553926 
-0.621431 0.507754 0.596665 
-0.590480 0.495331 0.637167 
0.137498 0.959853 -0.244493 
-0.822747 0.565423 -0.058170 
-0.560253 0.685814 0.464517 
0.196719 0.881356 0.429549 
-0.646348 0.622611 0.441122 
0.173780 0.963872 -0.201872 
-0.546397 0.517402 0.658594 
0.200376 0.951392 -0.233884 
-0.014783 0.917072 -0.398448 
0.221385 0.856811 0.465686 
-0.277310 0.850363 0.447194 
-0.386866 0.806056 -0.447894 
0.165399 0.923648 0.345713 
-0.008071 0.899759 -0.436312 
-0.423551 0.777184 -0.465392 
0.216029 0.961937 -0.167355 
-0.569921 0.721859 -0.392569 
0.181720 0.844500 0.503784 
0.199945 0.933204 0.298585 
-0.113316 0.889230 -0.443203 
-0.718110 0.634157 0.286641 
-0.377163 0.849002 0.370058 
-0.613752 0.783849 -0.094282 
0.035447 0.895133 -0.444387 
-0.219941 0.849213 0.480066 
0.247727 0.832666 0.495277 
-0.644015 0.762223 0.065278 
0.077985 0.890224 -0.448799 
0.291244 0.827115 0.480684 
-0.849712 0.527032 0.015039 
0.067159 0.872522 -0.483938 
0.034746 0.925197 -0.377893 
-0.765482 0.567793 0.302735 
