-0.510381 -0.709477 0.485956 
-0.523489 -0.739206 0.423715 
-0.418712 -0.702370 0.575636 
-0.553189 -0.659113 0.509462 
-0.354731 -0.730170 0.583967 
-0.609073 -0.624018 0.489523 
-0.635035 -0.569856 0.521530 
-0.303363 -0.770903 0.560071 
-0.408545 -0.660074 0.630391 
-0.249359 -0.759703 0.600559 
-0.656608 -0.610228 0.443269 
-0.507533 -0.778763 0.368699 
-0.640106 -0.519635 0.565901 
-0.688455 -0.487053 0.537410 
-0.223176 -0.802335 0.553580 
-0.690430 -0.611883 0.385883 
-0.709726 -0.625238 0.324600 
-0.736738 -0.620487 0.268724 
-0.629153 -0.475920 0.614546 
-0.400332 -0.613797 0.680432 
-0.288335 -0.791532 0.538832 
-0.731528 -0.450199 0.512042 
-0.485912 -0.815263 0.315017 
-0.608722 -0.436739 0.662357 
-0.454759 -0.849704 0.266827 
-0.394527 -0.564433 0.725095 
-0.347350 -0.542748 0.764704 
-0.751780 -0.396274 0.527061 
-0.339528 -0.492813 0.801159 
-0.771061 -0.594050 0.229283 
-0.428150 -0.834207 0.347542 
-0.469108 -0.859058 0.204834 
-0.774322 -0.609089 0.171572 
-0.422286 -0.889699 0.173521 
-0.341271 -0.440458 0.830380 
-0.396413 -0.909719 0.123567 
-0.278715 -0.503005 0.818110 
-0.366672 -0.907904 0.203132 
-0.368549 -0.926414 0.076995 
-0.366324 -0.930187 0.023642 
-0.218292 -0.512985 0.830178 
-0.367077 -0.388585 0.845137 
-0.368260 -0.338265 0.866003 
-0.167702 -0.830372 0.531375 
-0.807849 -0.569004 0.153672 
-0.784749 -0.609117 0.114657 
-0.188977 -0.475353 0.859259 
-0.362268 -0.931699 -0.026442 
-0.785294 -0.356232 0.506372 
-0.186675 -0.760469 0.621964 
-0.311077 -0.946765 0.082871 
-0.741907 -0.573454 0.347455 
-0.133460 -0.474169 0.870260 
-0.743326 -0.352356 0.568605 
-0.334822 -0.940056 -0.064716 
-0.792639 -0.397677 0.462143 
-0.106571 -0.844579 0.524718 
-0.081895 -0.502435 0.860728 
-0.556753 -0.468392 0.686029 
-0.435790 -0.802312 0.407901 
-0.829539 -0.546669 0.114101 
-0.793804 -0.547381 0.265048 
-0.031402 -0.528961 0.848065 
-0.410398 -0.910511 -0.050425 
0.014242 -0.559317 0.828831 
-0.798043 -0.512270 0.317344 
-0.253838 -0.962497 0.095742 
-0.553268 -0.416983 0.721124 
-0.123772 -0.874747 0.468507 
-0.196856 -0.974536 0.107362 
-0.126966 -0.428098 0.894769 
-0.718817 -0.321949 0.616158 
-0.824809 -0.561936 0.062590 
-0.514766 -0.841740 0.162756 
-0.134163 -0.380520 0.914989 
-0.771842 -0.520824 0.364694 
-0.148555 -0.984850 0.089449 
-0.836043 -0.548279 0.020548 
-0.350165 -0.930350 -0.108784 
-0.078954 -0.897502 0.433884 
-0.387884 -0.288859 0.875275 
-0.856796 -0.500327 0.124792 
-0.020994 -0.900658 0.434020 
-0.750090 -0.281485 0.598440 
-0.328149 -0.933517 -0.144447 
-0.732006 -0.243566 0.636272 
-0.711457 -0.207278 0.671464 
-0.076184 -0.923189 0.376720 
-0.440711 -0.270160 0.856030 
-0.818829 -0.461087 0.341933 
-0.699193 -0.560278 0.444092 
-0.484471 -0.288500 0.825866 
-0.825080 -0.368556 0.428263 
-0.854525 -0.519384 -0.005305 
-0.090082 -0.366492 0.926050 
-0.506960 -0.653557 0.562010 
-0.817703 -0.326829 0.473861 
-0.855562 -0.515550 -0.047143 
0.021133 -0.915533 0.401688 
-0.808036 -0.589116 -0.004429 
-0.578762 -0.717017 0.388485 
-0.752831 -0.398269 0.524049 
-0.305330 -0.935723 -0.176626 
-0.459641 -0.223164 0.859609 
-0.497952 -0.239623 0.833442 
-0.102766 -0.986683 0.126076 
0.062172 -0.580836 0.811643 
0.107645 -0.601023 0.791950 
0.150298 -0.620345 0.769794 
-0.467614 -0.177942 0.865837 
-0.775913 -0.313537 0.547407 
