0.620428 -0.146041 -0.770546 
0.553387 -0.038413 -0.832038 
0.645744 -0.201558 -0.736471 
0.564867 0.030337 -0.824624 
0.568279 0.098721 -0.816892 
0.493950 -0.047783 -0.868177 
0.514614 0.127664 -0.847865 
0.527109 0.190048 -0.828274 
0.432780 -0.053214 -0.899928 
0.695892 -0.174080 -0.696729 
0.568350 0.226753 -0.790925 
0.392867 -0.107645 -0.913273 
0.617841 0.240370 -0.748662 
0.340246 -0.074371 -0.937391 
0.667813 0.237664 -0.705366 
0.701620 0.265907 -0.661077 
0.732752 0.289893 -0.615659 
0.720127 -0.223385 -0.656898 
0.281022 -0.061163 -0.957750 
0.609619 -0.023031 -0.792360 
0.764837 -0.209112 -0.609341 
0.227252 -0.035434 -0.973191 
0.376556 -0.174062 -0.909894 
0.752875 0.321767 -0.574148 
0.458677 0.151941 -0.875516 
0.600378 0.149836 -0.785554 
0.776873 -0.261154 -0.572946 
0.789868 0.309635 -0.529372 
0.204659 -0.095691 -0.974145 
0.178112 -0.152553 -0.972113 
0.801980 -0.287342 -0.523701 
0.417181 0.199085 -0.886750 
0.188710 0.010368 -0.981978 
0.175936 -0.214816 -0.960677 
0.776136 -0.346102 -0.527092 
0.699215 0.339215 -0.629310 
0.296715 0.003472 -0.954960 
0.794414 0.348703 -0.497305 
0.696499 0.180190 -0.694565 
0.211048 -0.263201 -0.941373 
0.811808 0.366024 -0.454966 
0.158367 0.060721 -0.985511 
0.663917 0.385430 -0.640826 
0.390038 0.253726 -0.885152 
0.838936 0.355657 -0.411940 
0.122946 -0.154801 -0.980266 
0.621811 0.422294 -0.659559 
0.756763 -0.403037 -0.514656 
0.070642 -0.151790 -0.985885 
0.593558 0.466465 -0.655819 
