0.097949 0.530027 -0.845268 
0.107834 0.471716 -0.884026 
0.178500 0.469900 -0.882297 
-0.030039 0.582234 -0.815538 
0.085824 0.416364 -0.922127 
-0.096890 0.602554 -0.804676 
-0.093575 0.661122 -0.765195 
-0.027175 0.679931 -0.749790 
0.246825 0.453589 -0.890404 
0.067622 0.359999 -0.960749 
0.112871 0.314039 -0.989736 
0.004754 0.388020 -0.944549 
0.138660 0.258892 -1.025704 
0.105174 0.207850 -1.061389 
-0.128143 0.712985 -0.731798 
0.317372 0.455663 -0.886067 
0.048202 0.174223 -1.086355 
0.183534 0.311976 -0.988173 
0.059280 0.116038 -1.124979 
-0.196891 0.700722 -0.742904 
0.159451 0.557749 -0.824079 
-0.063622 0.404170 -0.936554 
-0.002894 0.089337 -1.145509 
-0.134066 0.771589 -0.692678 
-0.259838 0.675259 -0.762636 
0.386334 0.441513 -0.892695 
-0.202588 0.787270 -0.685003 
0.445386 0.472615 -0.869339 
-0.197929 0.845749 -0.645525 
0.509789 0.447207 -0.883719 
-0.013220 0.031470 -1.184813 
-0.264341 0.867094 -0.633958 
-0.072800 0.099283 -1.141745 
-0.274715 0.925355 -0.595253 
0.224760 0.578911 -0.807139 
-0.225132 0.966221 -0.565733 
0.052271 0.008152 -1.197744 
0.203236 0.233804 -1.039864 
-0.138820 0.121494 -1.129579 
-0.042896 -0.021227 -1.221450 
-0.209138 0.128690 -1.127679 
-0.036829 -0.079824 -1.260560 
-0.276990 0.618649 -0.801379 
-0.337637 0.953290 -0.579114 
-0.187967 1.015428 -0.531127 
-0.104374 -0.095776 -1.274094 
-0.130259 -0.149894 -1.311527 
0.090458 0.571786 -0.817528 
0.116852 0.080887 -1.146190 
0.560292 0.405174 -0.909848 
