-0.128819 0.734171 -0.666633 
-0.113375 0.779927 -0.615516 
-0.070135 0.815818 -0.574040 
-0.177600 0.787636 -0.589989 
-0.233440 0.753997 -0.613998 
-0.030127 0.848288 -0.528678 
0.026089 0.867621 -0.496541 
-0.043737 0.671103 -0.740073 
-0.080400 0.624213 -0.777106 
0.091785 0.870165 -0.484136 
-0.000486 0.896360 -0.443327 
-0.103113 0.846419 -0.522439 
0.142410 0.882717 -0.447805 
0.125925 0.837339 -0.531983 
-0.104820 0.571395 -0.813954 
0.024380 0.684563 -0.728546 
-0.282100 0.713636 -0.641205 
-0.143506 0.522953 -0.840194 
-0.323701 0.736532 -0.593917 
-0.112099 0.678339 -0.726148 
-0.208620 0.506705 -0.836498 
-0.256125 0.465411 -0.847226 
-0.220905 0.421657 -0.879435 
-0.377305 0.700286 -0.606003 
-0.220432 0.711443 -0.667277 
-0.160127 0.407345 -0.899127 
0.128905 0.910443 -0.393036 
0.087429 0.932490 -0.350454 
-0.058795 0.735099 -0.675405 
0.020175 0.734104 -0.678737 
0.205308 0.871141 -0.446051 
-0.266978 0.525179 -0.808028 
-0.051780 0.537855 -0.841446 
-0.433525 0.686639 -0.583595 
-0.417850 0.649766 -0.634985 
0.187913 0.816309 -0.546194 
0.092931 0.674340 -0.732550 
-0.136074 0.871865 -0.470463 
-0.096691 0.398348 -0.912124 
0.021773 0.779872 -0.625560 
0.016756 0.921271 -0.388560 
0.010916 0.516670 -0.856115 
0.236191 0.781913 -0.576910 
0.296081 0.762213 -0.575645 
-0.439484 0.599412 -0.668998 
-0.362749 0.651344 -0.666457 
0.129112 0.941431 -0.311510 
-0.393660 0.583225 -0.710549 
-0.422638 0.532806 -0.733140 
0.320648 0.718418 -0.617301 
