-0.522706 0.633322 -0.570686 
-0.437513 0.677540 -0.591204 
-0.401322 0.745866 -0.531625 
-0.624607 0.665238 -0.409054 
-0.691585 0.592246 -0.413467 
-0.321183 0.791576 -0.519855 
-0.339866 0.832979 -0.436620 
-0.512337 0.568379 -0.643782 
-0.365517 0.664593 -0.651701 
-0.560969 0.487827 -0.668833 
-0.556878 0.734305 -0.388179 
-0.634969 0.432046 -0.640430 
-0.755598 0.521441 -0.396448 
-0.569170 0.766283 -0.298086 
-0.332081 0.732043 -0.594840 
-0.484341 0.646014 -0.589982 
-0.589244 0.559328 -0.583048 
-0.434380 0.568053 -0.699021 
-0.250867 0.733439 -0.631770 
-0.545883 0.417141 -0.726640 
-0.585302 0.783529 -0.208576 
-0.725358 0.607500 -0.323728 
-0.623549 0.771135 -0.128599 
-0.247176 0.832690 -0.495511 
-0.174304 0.823414 -0.540007 
-0.501403 0.795899 -0.339321 
-0.455767 0.845807 -0.277284 
-0.562368 0.335110 -0.755939 
-0.770420 0.588675 -0.244776 
-0.565754 0.257476 -0.783344 
-0.779179 0.441852 -0.444576 
-0.624938 0.665480 -0.408152 
-0.443283 0.874733 -0.195812 
-0.463866 0.878644 -0.113191 
-0.115832 0.796609 -0.593294 
-0.363710 0.904180 -0.223994 
-0.180110 0.867739 -0.463238 
-0.713250 0.601398 -0.359994 
-0.645584 0.349936 -0.678798 
-0.601395 0.184793 -0.777288 
-0.632404 0.700455 -0.330798 
-0.395734 0.799690 -0.451543 
-0.809908 0.560854 -0.171731 
-0.658286 0.713275 -0.240621 
-0.546468 0.797574 -0.255438 
-0.518830 0.853339 -0.051266 
-0.580237 0.413118 -0.701896 
-0.368897 0.541216 -0.755646 
-0.701195 0.372492 -0.607927 
-0.636236 0.248258 -0.730460 
-0.351496 0.473201 -0.807794 
-0.259429 0.865387 -0.428722 
-0.518734 0.437563 -0.734476 
-0.799636 0.359597 -0.480908 
-0.301673 0.602909 -0.738576 
-0.281389 0.674365 -0.682680 
-0.363751 0.821064 -0.439931 
-0.374796 0.618885 -0.690296 
-0.492814 0.391906 -0.776881 
-0.459792 0.887910 -0.014406 
-0.514098 0.845184 -0.146172 
-0.117556 0.741526 -0.660545 
-0.722814 0.289388 -0.627530 
-0.647738 0.420800 -0.635109 
-0.405965 0.753654 -0.516912 
-0.356545 0.562302 -0.746118 
-0.663043 0.498597 -0.558369 
-0.619700 0.733675 -0.278735 
-0.506777 0.830356 -0.231702 
-0.606203 0.405963 -0.683895 
-0.077751 0.696389 -0.713440 
-0.654965 0.667941 -0.353378 
-0.422443 0.416086 -0.805242 
-0.424483 0.864980 -0.267625 
-0.838732 0.494294 -0.228480 
-0.229799 0.586139 -0.776939 
-0.504145 0.723713 -0.471251 
-0.844627 0.354213 -0.401421 
-0.315940 0.842397 -0.436520 
-0.870062 0.274711 -0.409301 
-0.437760 0.820611 -0.367376 
-0.178713 0.757333 -0.628099 
-0.284502 0.893956 -0.346267 
-0.298461 0.910784 -0.285297 
-0.543842 0.496440 -0.676597 
-0.131448 0.843134 -0.521389 
-0.696201 0.413754 -0.586610 
-0.439504 0.865883 -0.238921 
-0.719928 0.642596 -0.262249 
-0.785366 0.534563 -0.312158 
-0.280459 0.518914 -0.807509 
-0.324943 0.745193 -0.582323 
-0.706343 0.687855 -0.167139 
-0.183092 0.864921 -0.467322 
-0.854535 0.502494 -0.131415 
-0.532206 0.192694 -0.824394 
-0.736200 0.670878 -0.089058 
-0.759215 0.395310 -0.517033 
-0.446830 0.546024 -0.708661 
-0.870762 0.416529 -0.261298 
-0.434033 0.474459 -0.765835 
-0.896335 0.297714 -0.328558 
-0.681403 0.726026 -0.092606 
-0.376843 0.492328 -0.784603 
-0.513045 0.837084 -0.189937 
-0.249652 0.789078 -0.561275 
-0.402342 0.865838 -0.297399 
-0.459460 0.644666 -0.610985 
-0.578508 0.576349 -0.577191 
-0.584850 0.784911 -0.204612 
-0.722968 0.660050 -0.204086 
-0.591206 0.805475 -0.041049 
-0.137998 0.652512 -0.745107 
-0.502088 0.497825 -0.707162 
-0.811841 0.417686 -0.407986 
-0.849321 0.317567 -0.421670 
-0.199244 0.686545 -0.699255 
-0.558120 0.476415 -0.679361 
-0.857469 0.350283 -0.376894 
-0.772719 0.584623 -0.247228 
-0.351556 0.611846 -0.708557 
-0.700563 0.224505 -0.677355 
-0.370363 0.868012 -0.330737 
-0.397127 0.714475 -0.576035 
-0.769166 0.224019 -0.598497 
