-0.090068 0.808042 -0.582199 
-0.171489 0.717080 -0.675564 
-0.250757 0.741293 -0.622580 
-0.123857 0.855089 -0.503470 
-0.145116 0.651310 -0.744807 
-0.032266 0.877424 -0.478630 
0.016588 0.727842 -0.685544 
-0.333123 0.694966 -0.637221 
-0.336287 0.699688 -0.630356 
0.106373 0.697235 -0.708906 
0.182016 0.649415 -0.738329 
-0.182142 0.578238 -0.795277 
-0.119916 0.524097 -0.843174 
-0.394199 0.632213 -0.667019 
-0.411443 0.704511 -0.578256 
-0.202658 0.868980 -0.451446 
-0.041137 0.827021 -0.560664 
0.239329 0.588907 -0.771952 
-0.024518 0.531951 -0.846420 
0.063962 0.878275 -0.473859 
-0.302031 0.778536 -0.550145 
-0.108599 0.447549 -0.887641 
0.153491 0.854433 -0.496372 
0.232305 0.699940 -0.675366 
0.240092 0.846871 -0.474515 
-0.170145 0.788379 -0.591193 
-0.172540 0.790213 -0.588041 
0.101199 0.911563 -0.398513 
-0.201849 0.907282 -0.368912 
-0.434890 0.748056 -0.501281 
-0.129157 0.937921 -0.321906 
0.218997 0.890674 -0.398422 
-0.096815 0.767765 -0.633375 
-0.279628 0.825768 -0.489811 
0.245790 0.759162 -0.602711 
-0.021385 0.454483 -0.890499 
-0.243299 0.514641 -0.822162 
-0.490925 0.751821 -0.440179 
0.318816 0.561648 -0.763484 
-0.388611 0.629486 -0.672851 
-0.211081 0.787430 -0.579136 
-0.420212 0.699547 -0.577975 
-0.114370 0.555797 -0.823413 
0.206415 0.523040 -0.826936 
-0.497179 0.690751 -0.525048 
-0.118314 0.371837 -0.920728 
-0.193804 0.944366 -0.265729 
0.150247 0.595741 -0.788999 
0.177098 0.453473 -0.873498 
0.313870 0.804888 -0.503628 
0.040917 0.589357 -0.806836 
-0.080124 0.709190 -0.700449 
-0.124030 0.903755 -0.409687 
-0.043802 0.625910 -0.778665 
0.019703 0.916209 -0.400217 
0.385499 0.762882 -0.519039 
-0.073737 0.596961 -0.798874 
-0.458001 0.574590 -0.678293 
-0.060192 0.750648 -0.657955 
-0.037191 0.943723 -0.328638 
-0.366727 0.794433 -0.484136 
0.404937 0.704891 -0.582370 
0.100112 0.819207 -0.564692 
-0.118159 0.513536 -0.849894 
0.090606 0.655876 -0.749412 
-0.286528 0.895288 -0.341117 
0.151613 0.465766 -0.871823 
0.061761 0.490309 -0.869357 
0.032119 0.959678 -0.279260 
-0.072476 0.789475 -0.609488 
-0.178704 0.698535 -0.692902 
0.019993 0.962997 -0.268768 
-0.101686 0.963572 -0.247362 
0.051964 0.642379 -0.764624 
0.115970 0.542049 -0.832306 
-0.559643 0.639606 -0.526976 
-0.116719 0.299576 -0.946906 
-0.525933 0.572336 -0.629147 
0.017861 0.705654 -0.708331 
-0.090956 0.235539 -0.967599 
-0.053872 0.823715 -0.564439 
-0.182030 0.255757 -0.949449 
0.147826 0.763374 -0.628814 
-0.260167 0.610950 -0.747699 
-0.468044 0.631055 -0.618631 
-0.367632 0.565474 -0.738299 
-0.554610 0.701153 -0.448098 
-0.440956 0.807502 -0.391789 
-0.069581 0.961397 -0.266221 
-0.032594 0.560078 -0.827798 
-0.319693 0.469775 -0.822866 
-0.030967 0.361102 -0.932012 
0.135370 0.584176 -0.800258 
0.431228 0.641986 -0.633952 
-0.355193 0.852262 -0.384041 
-0.148128 0.303007 -0.941406 
0.214358 0.596138 -0.773738 
-0.068972 0.449546 -0.890590 
-0.137193 0.687381 -0.713222 
0.031198 0.917726 -0.395986 
-0.519710 0.692735 -0.500019 
-0.240456 0.591233 -0.769821 
0.189751 0.902013 -0.387772 
-0.287557 0.832855 -0.472931 
-0.209141 0.800502 -0.561656 
-0.396321 0.487758 -0.777832 
-0.183105 0.400971 -0.897605 
-0.081924 0.810638 -0.579789 
-0.114781 0.638913 -0.760667 
0.324322 0.490476 -0.808857 
-0.375782 0.782488 -0.496488 
-0.579132 0.675596 -0.456263 
0.228221 0.801323 -0.552989 
-0.207493 0.486039 -0.848948 
-0.081140 0.981159 -0.175336 
0.470469 0.669243 -0.575129 
0.347314 0.685514 -0.639878 
-0.252421 0.890198 -0.379251 
-0.172403 0.965991 -0.192712 
0.235425 0.611330 -0.755547 
0.058277 0.858720 -0.509121 
-0.116652 0.932778 -0.341053 
0.325931 0.748227 -0.577863 
-0.044463 0.628355 -0.776655 
0.315151 0.621013 -0.717650 
