0.467371 0.096202 -0.878812 
0.606750 0.015571 -0.794740 
0.727862 0.178601 -0.662057 
0.764489 0.309807 -0.565311 
0.545666 0.453196 -0.704884 
0.739058 0.380001 -0.556231 
0.785546 0.450075 -0.424677 
0.802601 0.420140 -0.423454 
0.658621 0.498039 -0.564070 
0.618781 0.378796 -0.688204 
0.576879 0.440121 -0.688116 
0.318456 0.557156 -0.766917 
0.229448 0.345790 -0.909826 
0.221684 0.297855 -0.928514 
0.248894 0.066981 -0.966212 
0.190254 -0.101328 -0.976492 
0.182950 -0.103872 -0.977619 
0.080965 -0.249757 -0.964918 
0.269422 -0.359008 -0.893602 
0.072584 -0.515897 -0.853570 
0.103434 -0.285077 -0.952907 
0.109328 -0.427816 -0.897230 
0.080574 -0.612074 -0.786685 
0.085529 -0.785583 -0.612817 
0.161164 -0.698595 -0.697131 
-0.031548 -0.794709 -0.606170 
-0.301341 -0.796059 -0.524865 
-0.165833 -0.709413 -0.685005 
-0.115564 -0.888026 -0.445034 
-0.004559 -0.784800 -0.619733 
0.023971 -0.852831 -0.521637 
0.054531 -0.922216 -0.382811 
-0.096650 -0.953246 -0.286324 
0.080740 -0.967421 -0.239954 
0.048244 -0.918299 -0.392936 
0.155827 -0.887052 -0.434576 
0.230598 -0.944280 -0.234862 
0.043293 -0.983786 -0.174045 
0.060439 -0.945573 -0.319747 
-0.026188 -0.931777 -0.362085 
-0.058752 -0.903144 -0.425298 
-0.176518 -0.859411 -0.479849 
-0.049521 -0.835512 -0.547235 
-0.014315 -0.797443 -0.603225 
0.268893 -0.714288 -0.646134 
0.205009 -0.738906 -0.641864 
0.343586 -0.740085 -0.578120 
0.326338 -0.847527 -0.418570 
0.228970 -0.862323 -0.451632 
0.211725 -0.940965 -0.264116 
