-0.029489 0.971362 0.256098 
0.057918 0.996984 0.112555 
0.157820 0.966744 0.224719 
-0.041512 0.951148 0.353292 
0.204526 0.945415 0.310530 
-0.011679 1.016126 0.043346 
0.059385 1.026794 -0.026196 
-0.128106 0.980354 0.242176 
-0.213085 0.996340 0.191947 
-0.125698 0.944715 0.406878 
0.234712 0.975714 0.161416 
0.159727 0.966162 0.226883 
-0.110192 1.025248 0.028788 
-0.181844 0.965721 0.325231 
0.293922 0.989236 0.081972 
-0.183625 1.043781 -0.036512 
0.304218 0.940710 0.304256 
0.392398 0.986969 0.064730 
0.357563 0.919808 0.386216 
0.426918 1.004730 -0.027427 
0.077051 1.046502 -0.122630 
0.347574 1.022120 -0.085755 
0.306914 1.043719 -0.174525 
-0.069246 1.042083 -0.060878 
-0.031492 0.989874 0.170758 
0.323746 0.901951 0.478614 
-0.091002 0.997756 0.150960 
0.481392 0.972259 0.107901 
-0.265524 0.959093 0.379579 
-0.253521 1.062879 -0.105431 
0.307563 0.882104 0.575280 
0.167816 0.995233 0.089696 
0.117667 0.940076 0.359795 
-0.071075 1.017240 0.054922 
0.092077 0.921200 0.454605 
-0.130771 0.923972 0.504571 
-0.335954 0.948254 0.449737 
0.519243 0.989554 0.016971 
-0.428210 0.961656 0.413555 
0.054877 0.977724 0.202788 
0.225001 0.910773 0.465515 
0.260763 0.866214 0.662212 
0.379920 0.973547 0.130534 
0.442517 1.023114 -0.117137 
0.447259 0.982926 0.068023 
0.206990 0.983929 0.131111 
0.412324 0.887095 0.522584 
-0.173668 1.001742 0.155766 
0.203065 1.005206 0.033479 
-0.523516 0.973455 0.385669 
0.378011 0.922239 0.369167 
-0.173763 1.070917 -0.165215 
-0.044498 0.908365 0.552669 
0.250198 0.969812 0.184438 
-0.185510 0.909534 0.587004 
0.353249 0.852917 0.697844 
0.025549 1.043181 -0.092700 
-0.406263 0.937382 0.520011 
-0.013193 1.060746 -0.163289 
0.504313 0.873573 0.559396 
0.169498 1.005629 0.040980 
0.446425 0.933608 0.297123 
0.366475 0.871044 0.609993 
0.544481 0.931862 0.277579 
0.276036 0.844510 0.758626 
0.331635 0.977266 0.126885 
0.104119 1.065207 -0.217063 
0.190298 1.070834 -0.267476 
-0.505306 0.940502 0.533455 
0.041622 0.952450 0.323814 
-0.312851 1.001409 0.196552 
-0.042777 0.979025 0.224284 
-0.222147 1.022971 0.070919 
0.159889 0.974694 0.187242 
0.036226 1.001419 0.098088 
0.306125 0.837082 0.784611 
-0.237440 1.058390 -0.089134 
-0.007687 0.886647 0.643075 
0.495857 0.916287 0.363563 
0.204038 1.026214 -0.064284 
0.036999 0.933580 0.412684 
0.019990 1.081430 -0.268629 
-0.088593 1.076959 -0.217268 
0.425627 0.907200 0.425534 
0.489194 0.895656 0.461184 
0.182711 0.883878 0.602247 
0.304096 0.903358 0.477626 
0.078934 0.871148 0.690580 
0.216117 0.895860 0.537223 
0.121164 0.904036 0.526053 
0.324896 0.951501 0.248351 
-0.186232 1.087010 -0.236383 
-0.075061 1.021391 0.036785 
0.432904 0.881527 0.542620 
-0.210740 1.001381 0.167892 
-0.314141 1.049662 -0.027006 
0.366445 0.950856 0.239629 
0.091074 0.880843 0.642165 
-0.018314 1.009990 0.073693 
-0.057452 0.972869 0.256990 
0.457250 0.857010 0.649527 
0.153371 1.028436 -0.060312 
-0.152733 0.927528 0.494258 
0.246768 0.887884 0.565597 
-0.203098 0.998611 0.178593 
-0.276459 0.906131 0.628437 
0.551485 0.930549 0.281696 
0.465382 0.901858 0.439116 
-0.095330 1.073028 -0.197126 
0.157546 0.957072 0.269680 
0.004494 1.012386 0.056141 
-0.364195 0.974103 0.337746 
-0.159957 1.049252 -0.068572 
-0.109239 1.006574 0.115179 
-0.019446 1.057448 -0.146224 
0.455671 0.894793 0.474639 
0.487659 0.937758 0.266239 
-0.459648 0.985809 0.310331 
0.183919 1.048015 -0.159783 
0.086542 1.055848 -0.168676 
-0.149860 1.046882 -0.060422 
0.329319 0.880212 0.577926 
-0.266937 1.083886 -0.199134 
0.018950 0.948936 0.346510 
0.275189 0.886440 0.564283 
0.233851 0.867746 0.662693 
0.505251 1.003086 -0.041882 
-0.098075 0.893702 0.635822 
0.302653 1.023756 -0.080684 
0.352568 1.059802 -0.262030 
0.222953 1.003796 0.034413 
-0.128301 1.010342 0.103066 
-0.290553 0.955605 0.402821 
0.399768 0.989125 0.052646 
-0.413495 0.958648 0.423365 
0.046151 0.958925 0.292489 
0.508844 0.936420 0.266475 
0.109745 0.900453 0.545901 
