0.236158 -0.364995 -0.900560 
0.179072 -0.405125 -0.896553 
0.318994 -0.252745 -0.913435 
0.271054 -0.208537 -0.939703 
0.230937 -0.155919 -0.960394 
0.116754 -0.382044 -0.916739 
0.163943 -0.169588 -0.971783 
0.381198 -0.225278 -0.896626 
0.221020 -0.294435 -0.929762 
0.274332 -0.414198 -0.867860 
0.290728 -0.471556 -0.832534 
0.054524 -0.407525 -0.911565 
0.340880 -0.398945 -0.851260 
0.402983 -0.404999 -0.820720 
0.316180 -0.520588 -0.793107 
-0.008842 -0.422166 -0.906475 
0.004633 -0.480657 -0.876897 
-0.028458 -0.362942 -0.931377 
0.216227 -0.090952 -0.972098 
0.307216 -0.575412 -0.757971 
0.365739 -0.295511 -0.882558 
0.175146 -0.040962 -0.983690 
0.430504 -0.178894 -0.884683 
0.181583 0.022516 -0.983118 
-0.054442 -0.496539 -0.866306 
0.163789 0.080176 -0.983232 
0.110225 0.107075 -0.988122 
0.056541 -0.516357 -0.854505 
0.463613 -0.232067 -0.855107 
0.357676 -0.593935 -0.720631 
0.322000 -0.364364 -0.873816 
0.454235 -0.116020 -0.883295 
0.246115 0.023224 -0.968962 
0.511141 -0.101704 -0.853458 
0.518785 -0.245945 -0.818763 
-0.050369 -0.303438 -0.951519 
0.133038 -0.231145 -0.963780 
0.106209 -0.477690 -0.872085 
-0.100935 -0.525860 -0.844561 
0.103006 -0.143975 -0.984206 
0.256613 -0.553460 -0.792358 
-0.045492 -0.421333 -0.905765 
0.367230 -0.180187 -0.912510 
0.072407 -0.204372 -0.976212 
0.418185 -0.570174 -0.707123 
0.532566 -0.042912 -0.845300 
0.472114 -0.568921 -0.673377 
-0.111368 -0.307917 -0.944873 
-0.067980 -0.408967 -0.910014 
0.584516 -0.046978 -0.810021 
