0.743828 -0.365532 0.559559 
0.684464 -0.379473 0.622502 
0.657048 -0.339679 0.672984 
0.659247 -0.468512 0.588124 
0.632851 -0.313731 0.707865 
0.591745 -0.307722 0.745081 
0.634622 -0.314320 0.706015 
0.541204 -0.348612 0.765224 
0.638888 -0.315748 0.701516 
0.626610 -0.311674 0.714296 
0.747820 -0.359092 0.558407 
0.748331 -0.358258 0.558258 
0.748331 -0.358258 0.558258 
0.748331 -0.358258 0.558258 
0.491005 -0.390979 0.778492 
0.434633 -0.409174 0.802291 
0.383071 -0.444212 0.809896 
0.553643 -0.289554 0.780794 
0.359332 -0.398505 0.843845 
0.714661 -0.409176 0.567305 
0.592057 -0.300778 0.747664 
0.625086 -0.515847 0.585807 
0.599212 -0.541050 0.590093 
0.708243 -0.418065 0.568870 
0.748331 -0.358258 0.558258 
0.651607 -0.320089 0.687715 
0.689183 -0.443164 0.573265 
0.649140 0.319237 0.690438 
0.730208 -0.386618 0.563315 
0.566701 -0.293270 0.769963 
0.712378 -0.412365 0.567867 
0.748331 -0.358258 0.558258 
0.748331 -0.358258 0.558258 
0.673639 0.327925 0.662325 
0.679147 -0.455661 0.575441 
0.544440 0.286993 0.788176 
0.654517 -0.484472 0.580426 
0.652695 -0.486506 0.580776 
0.504589 -0.276439 0.817907 
0.684653 -0.332005 0.648863 
0.706710 0.340542 0.620154 
0.732442 0.351213 0.583249 
0.506648 0.276964 0.816455 
0.759995 0.363691 0.538643 
0.357402 -0.499394 0.789221 
0.784301 0.375889 0.493539 
0.748331 -0.358258 0.558258 
0.552373 -0.581824 0.596963 
0.748331 -0.358258 0.558258 
0.317062 -0.543643 0.777126 
