0.507973 -0.800767 -0.317390 
0.548804 -0.794263 -0.260692 
0.574486 -0.720246 -0.388859 
0.448376 -0.823724 -0.347041 
0.469408 -0.808059 -0.355944 
0.605332 -0.671123 -0.427980 
0.562544 -0.670762 -0.483345 
0.569202 -0.625251 -0.533920 
0.385209 -0.848888 -0.361944 
0.538499 -0.602289 -0.589293 
0.338243 -0.882837 -0.325869 
0.495502 -0.834658 -0.240468 
0.605436 -0.758512 -0.241055 
0.583733 -0.553634 -0.593924 
0.658775 -0.717329 -0.226835 
0.585061 -0.505513 -0.634161 
0.624254 -0.593193 -0.508359 
0.670726 -0.545990 -0.502018 
0.582354 -0.458604 -0.671227 
0.587208 -0.580712 -0.563879 
0.620020 -0.761220 -0.190051 
0.492659 -0.593472 -0.636457 
0.709005 -0.546036 -0.446270 
0.477577 -0.859999 -0.179783 
0.707921 -0.673352 -0.213180 
0.596955 -0.407046 -0.691345 
0.364288 -0.828555 -0.425195 
0.496249 -0.544753 -0.676004 
0.332622 -0.905877 -0.262202 
0.436921 -0.630871 -0.641172 
0.412685 -0.681108 -0.604800 
0.355729 -0.717629 -0.598720 
0.492767 -0.650988 -0.577404 
0.624986 -0.690767 -0.363639 
0.352420 -0.799283 -0.486771 
0.743038 -0.648620 -0.164884 
0.270093 -0.922998 -0.274089 
0.438644 -0.888594 -0.134135 
0.645176 -0.381520 -0.661959 
0.776345 -0.618296 -0.122465 
0.392019 -0.914721 -0.098017 
0.211018 -0.930604 -0.299079 
0.356646 -0.921503 -0.153738 
0.503792 -0.742587 -0.441314 
0.469802 -0.879448 -0.076533 
0.641435 -0.756552 -0.127239 
0.379901 -0.924232 -0.038360 
0.322743 -0.946035 -0.029225 
0.296870 -0.943541 -0.146967 
0.401609 -0.858013 -0.320192 
