0.768318 -0.149725 -0.626315 
0.729731 -0.186961 -0.672408 
0.703808 -0.141095 -0.719571 
0.671572 -0.107587 -0.772844 
0.849898 -0.101592 -0.521874 
0.631930 -0.099371 -0.830818 
0.889167 -0.111825 -0.463967 
0.605028 -0.160128 -0.855002 
0.902231 -0.173240 -0.431446 
0.777974 -0.213799 -0.598008 
0.865090 -0.032774 -0.516102 
0.783757 -0.280282 -0.574632 
0.635035 -0.029676 -0.842351 
0.942411 -0.143634 -0.381355 
0.688270 -0.202742 -0.727471 
0.973714 -0.088755 -0.349601 
0.954567 -0.205808 -0.349945 
0.635286 0.039334 -0.857766 
0.856241 0.031854 -0.543394 
0.765619 -0.347858 -0.584856 
0.930522 -0.269382 -0.369443 
0.942403 -0.143641 -0.381366 
0.905862 -0.043584 -0.455939 
0.893538 0.073550 -0.500146 
0.594495 -0.056889 -0.893498 
0.733923 -0.402098 -0.617312 
0.819057 0.051042 -0.600396 
0.889459 0.140896 -0.521307 
0.871962 -0.036426 -0.505544 
1.010037 -0.110937 -0.293133 
0.627758 0.104810 -0.883381 
0.669260 0.117433 -0.827539 
0.917607 0.200201 -0.495028 
0.886697 -0.241936 -0.437729 
0.756115 -0.453528 -0.574156 
0.705401 -0.460938 -0.644226 
0.800863 -0.373424 -0.529141 
0.937208 -0.335361 -0.344904 
0.962958 -0.381508 -0.297921 
0.973421 -0.088291 -0.350123 
0.949029 0.254889 -0.463062 
0.828065 -0.417125 -0.480662 
0.664103 -0.466811 -0.701323 
0.864973 -0.437305 -0.423824 
0.933178 0.016706 -0.431062 
0.890422 0.003264 -0.488492 
0.796486 0.101954 -0.643969 
0.899308 0.256448 -0.533777 
0.633966 -0.523466 -0.731021 
0.591363 -0.229417 -0.858503 
