-0.112153 0.959736 -0.267074 
-0.052023 0.934288 -0.359721 
-0.182305 0.952950 -0.261369 
-0.065426 0.909499 -0.424574 
-0.236807 0.931908 -0.301204 
0.016656 0.937004 -0.376331 
-0.297627 0.913263 -0.332079 
-0.040109 0.890189 -0.487710 
-0.093538 0.984694 -0.203587 
-0.350687 0.922889 -0.286340 
-0.395677 0.899650 -0.335695 
-0.465195 0.895243 -0.323538 
0.017374 0.882971 -0.528251 
-0.486219 0.915539 -0.259149 
-0.065336 1.009572 -0.143706 
0.086548 0.942510 -0.385535 
-0.131961 1.009635 -0.120020 
-0.156864 1.029045 -0.056750 
-0.525716 0.930754 -0.202505 
-0.593147 0.916611 -0.218414 
-0.210661 1.038296 -0.011802 
0.150187 0.959639 -0.359909 
-0.509737 0.871929 -0.373263 
0.060450 0.869035 -0.582567 
0.053366 0.844636 -0.648556 
0.152604 0.936192 -0.426576 
-0.480002 0.953866 -0.153760 
0.009046 0.821286 -0.698461 
0.210895 0.978336 -0.328846 
0.229768 1.003299 -0.265437 
-0.400100 0.875474 -0.401997 
0.254230 1.028271 -0.203972 
-0.570560 0.853286 -0.404133 
0.213147 0.930924 -0.462725 
-0.279693 1.034942 0.003141 
-0.658704 0.917802 -0.191940 
0.038335 0.802985 -0.760164 
-0.506619 0.972857 -0.091063 
0.066295 0.784336 -0.822377 
-0.174177 1.062642 0.043662 
-0.619074 0.830719 -0.450361 
-0.392758 0.852693 -0.468533 
-0.675051 0.810147 -0.488354 
-0.307211 1.053705 0.065517 
0.282789 0.935653 -0.474024 
-0.045768 0.800340 -0.737915 
0.320172 0.959911 -0.419123 
-0.718506 0.923569 -0.154652 
0.278414 1.053247 -0.142398 
-0.650108 0.790747 -0.551611 
