0.541091 0.401480 -0.742317 
0.558002 0.336957 -0.765786 
0.646000 0.366522 -0.673309 
0.525946 0.298512 -0.815730 
0.495376 0.454880 -0.749967 
0.610122 0.459515 -0.649306 
0.545686 0.233965 -0.836799 
0.522101 0.187261 -0.884365 
0.702291 0.336287 -0.643024 
0.740048 0.367857 -0.592253 
0.528489 0.124295 -0.915901 
0.627681 0.510968 -0.604093 
0.590796 0.571172 -0.600209 
0.622773 0.609704 -0.550281 
0.635376 0.664463 -0.507356 
0.599625 0.194294 -0.814064 
0.590125 0.718351 -0.514324 
0.439730 0.488601 -0.777653 
0.502275 0.079940 -0.964331 
0.480223 0.031946 -1.011345 
0.425062 0.067671 -1.037441 
0.788434 0.317665 -0.580438 
0.539596 0.563561 -0.648382 
0.589467 0.779561 -0.478929 
0.709926 0.273022 -0.673672 
0.487772 0.608159 -0.666416 
0.533658 0.812506 -0.507211 
0.731292 0.208542 -0.693313 
0.473957 -0.026317 -1.050920 
0.830405 0.343231 -0.529597 
0.878573 0.292748 -0.518139 
0.921332 0.317080 -0.467350 
0.513850 0.068618 -0.961102 
0.766658 0.147570 -0.698944 
0.407298 0.450573 -0.827674 
0.626289 0.812346 -0.428241 
0.368112 0.089096 -1.073464 
0.350840 0.463623 -0.868197 
0.682068 0.508778 -0.558958 
0.655626 0.853669 -0.378927 
0.798268 0.085071 -0.708678 
0.975634 0.315216 -0.422096 
0.847849 0.036593 -0.694837 
0.311805 0.100947 -1.114562 
0.696392 0.881046 -0.328049 
0.904290 0.007417 -0.663802 
0.496338 0.872472 -0.503838 
0.294260 0.491659 -0.900020 
0.693152 0.943125 -0.294348 
0.432110 0.641805 -0.694161 
0.909234 -0.055166 -0.696345 
0.875138 0.233169 -0.556069 
0.255184 0.128597 -1.146648 
0.237476 0.508164 -0.938791 
0.552341 0.686818 -0.565098 
0.680464 1.007291 -0.267484 
0.515963 -0.083145 -1.048449 
0.181995 0.542604 -0.965915 
0.509551 -0.141336 -1.088105 
1.030006 0.276810 -0.398249 
0.561751 -0.185174 -1.069303 
0.752624 0.850432 -0.298038 
0.440786 0.906607 -0.531202 
0.682738 1.067365 -0.230255 
0.965027 -0.088195 -0.668127 
0.453760 -0.132780 -1.130698 
1.021619 -0.102463 -0.628205 
0.628723 1.106822 -0.253179 
0.566596 0.622475 -0.590727 
0.155524 0.606455 -0.951000 
1.078236 -0.116982 -0.588410 
0.561430 -0.246023 -1.105322 
1.133458 -0.122658 -0.544611 
0.198735 0.141565 -1.187211 
0.596884 1.169241 -0.243687 
0.632554 1.203474 -0.193133 
0.976470 -0.152187 -0.695951 
0.100999 0.644381 -0.975261 
0.677917 1.223426 -0.142694 
0.047620 0.685531 -0.996648 
0.197199 0.203085 -1.152383 
1.115795 -0.058111 -0.521769 
-0.008324 0.717794 -1.025445 
0.602046 0.281888 -0.760543 
0.108617 0.581119 -1.005920 
0.745367 0.948001 -0.246917 
1.188268 -0.159648 -0.519558 
-0.044571 0.778332 -1.020821 
0.397574 0.545308 -0.780323 
0.763351 0.087936 -0.736797 
0.606107 -0.300486 -1.099182 
0.222335 0.248425 -1.104294 
-0.022597 0.826390 -0.973835 
1.084575 0.273914 -0.353374 
0.630244 -0.254260 -1.051426 
0.627443 1.004801 -0.314202 
0.140692 0.231741 -1.183780 
0.535091 0.123056 -0.910993 
1.238734 -0.150206 -0.470937 
0.679714 1.151715 -0.183285 
1.015056 -0.211412 -0.697807 
0.086216 0.269824 -1.207905 
0.666548 0.328696 -0.677992 
0.192432 0.083320 -1.226805 
