0.816393 0.073346 -0.572820 
0.718313 -0.083135 -0.690735 
0.765418 0.022112 -0.643153 
0.786726 -0.150541 -0.598665 
0.917497 0.027040 -0.396824 
0.801383 0.232431 -0.551145 
0.687699 0.325892 -0.648741 
0.738819 0.263669 -0.620182 
0.655821 0.035341 -0.754089 
0.645218 0.250804 -0.721659 
0.673991 0.127991 -0.727567 
0.674595 0.362561 -0.643017 
0.783731 0.239192 -0.573196 
0.772536 0.458269 -0.439520 
0.738620 0.553304 -0.385092 
0.653446 0.715034 -0.248465 
0.460707 0.787028 -0.410289 
0.307064 0.893454 -0.327799 
0.131547 0.861268 -0.490828 
0.298903 0.810881 -0.503120 
0.366239 0.606290 -0.705891 
0.387283 0.717763 -0.578644 
0.322367 0.581480 -0.746968 
0.317082 0.507098 -0.801443 
0.306927 0.353765 -0.883542 
0.209058 0.524282 -0.825483 
0.285525 0.693602 -0.661356 
0.251820 0.460662 -0.851104 
0.039447 0.431004 -0.901487 
-0.092851 0.501451 -0.860189 
-0.125348 0.591010 -0.796866 
-0.252774 0.430841 -0.866303 
-0.385812 0.591688 -0.707852 
-0.494609 0.422016 -0.759779 
-0.478286 0.179752 -0.859611 
-0.316068 -0.039723 -0.947905 
-0.454578 -0.124798 -0.881921 
-0.533172 0.034257 -0.845313 
-0.385123 0.220126 -0.896228 
-0.245924 -0.033211 -0.968720 
-0.450348 -0.040334 -0.891941 
-0.362031 -0.010845 -0.932103 
-0.428741 0.159710 -0.889198 
-0.426075 0.069536 -0.902012 
-0.224668 0.166750 -0.960062 
-0.140110 0.299599 -0.943721 
-0.263962 0.449618 -0.853328 
-0.180150 0.603573 -0.776689 
-0.252450 0.777684 -0.575740 
-0.524395 0.680565 -0.511704 
