0.182638 0.529548 -0.828385 
0.317707 0.493470 -0.809660 
0.117699 0.554946 -0.823518 
0.363820 0.526500 -0.768396 
0.052956 0.576088 -0.815671 
-0.012990 0.584680 -0.811160 
0.373137 0.579658 -0.724407 
0.408182 0.474088 -0.780146 
0.342572 0.633704 -0.693588 
0.298046 0.680259 -0.669639 
0.465185 0.480499 -0.743454 
0.414021 0.412423 -0.811476 
0.520432 0.478136 -0.707486 
0.246937 0.572560 -0.781791 
0.449326 0.506697 -0.735775 
0.378740 0.366614 -0.849794 
-0.059708 0.619688 -0.782574 
0.432304 0.327235 -0.840257 
0.301330 0.558072 -0.773146 
0.087565 0.622489 -0.777715 
0.232461 0.700186 -0.675057 
0.212905 0.471909 -0.855554 
0.536898 0.523352 -0.661697 
0.346287 0.316070 -0.883281 
-0.040330 0.533003 -0.845151 
0.311419 0.720699 -0.619364 
0.304247 0.762053 -0.571585 
0.281820 0.312107 -0.907285 
0.335684 0.783311 -0.523202 
-0.121650 0.615884 -0.778388 
0.539790 0.571932 -0.617673 
0.236481 0.363209 -0.901197 
0.336597 0.254478 -0.906611 
0.482811 0.288716 -0.826763 
0.534912 0.262711 -0.803027 
0.585885 0.257552 -0.768379 
0.350219 0.425729 -0.834327 
0.572775 0.317079 -0.755903 
0.169079 0.360869 -0.917162 
0.324797 0.816843 -0.476733 
0.549734 0.420360 -0.721866 
-0.002599 0.646502 -0.762908 
-0.093394 0.499887 -0.861040 
0.164960 0.592804 -0.788271 
-0.014036 0.694338 -0.719512 
0.146923 0.645020 -0.749908 
0.113883 0.328188 -0.937723 
0.028364 0.730203 -0.682641 
0.573178 0.588939 -0.569752 
0.404506 0.286044 -0.868650 
