0.161223 0.486585 -0.877648 
0.128358 0.701369 -0.708180 
0.191563 0.533686 -0.853610 
0.195223 0.477980 -0.877233 
0.369204 0.619436 -0.720352 
0.256851 0.594114 -0.772963 
0.002961 0.741628 -0.724431 
0.491677 0.671131 -0.646715 
0.249228 0.647471 -0.768004 
-0.005638 0.671998 -0.782908 
-0.290991 0.504231 -0.839790 
-0.335926 0.729127 -0.620856 
-0.286354 0.929507 -0.388069 
-0.008389 0.940525 -0.439485 
0.053360 0.976037 -0.321028 
-0.005552 0.931474 -0.409873 
-0.005930 0.938457 -0.377771 
-0.112698 1.018489 -0.129942 
-0.121891 1.020507 0.012474 
-0.214745 0.903781 0.450138 
-0.025107 0.881356 0.511655 
-0.191799 0.752688 0.661870 
-0.455938 0.666592 0.651646 
-0.292872 0.690076 0.681645 
-0.360668 0.580419 0.743876 
-0.326340 0.740964 0.621526 
-0.485827 0.587725 0.686484 
-0.746294 0.488153 0.548515 
-0.840615 0.455140 0.359939 
-0.889847 0.327722 0.351403 
-0.706657 0.439497 0.603693 
-0.687013 0.476942 0.551592 
-0.749171 0.438865 0.503728 
-0.887901 0.409064 0.315806 
-0.839015 0.315944 0.455867 
-0.801810 0.627750 0.252375 
-0.811383 0.575942 0.200084 
-0.653796 0.719749 0.294641 
-0.662852 0.661537 0.357452 
-0.757296 0.523616 0.430880 
-0.940802 0.394470 0.226308 
-0.805656 0.601274 0.237823 
-0.810802 0.616983 0.131622 
-0.735088 0.464729 0.557639 
-0.819425 0.289848 0.530892 
-0.736631 0.266387 0.641499 
-0.589259 0.252070 0.796986 
-0.504363 0.122496 0.879222 
-0.460583 0.152678 0.882071 
-0.350447 0.399268 0.862369 
