0.628597 -0.610627 0.540813 
0.593377 -0.430169 0.699826 
0.652014 -0.361581 0.672922 
0.706086 -0.417412 0.584062 
0.675315 -0.168200 0.787410 
0.530478 -0.227391 0.826610 
0.692333 -0.251999 0.708932 
0.670667 -0.405537 0.630317 
0.611180 -0.520229 0.610630 
0.731843 -0.336639 0.632251 
0.686084 -0.168103 0.739299 
0.677930 -0.166005 0.732768 
0.663997 -0.077364 0.782795 
0.615102 -0.300208 0.730548 
0.659403 -0.515655 0.601268 
0.602852 -0.684384 0.466048 
0.382626 -0.617542 0.716413 
0.055530 -0.714212 0.778874 
0.067717 -0.758863 0.659470 
0.108822 -0.862998 0.522861 
-0.064223 -0.723044 0.718630 
-0.118243 -0.469855 0.935127 
-0.303583 -0.284653 0.944842 
-0.399879 -0.386637 0.847738 
-0.554334 -0.265999 0.813243 
-0.498295 -0.190590 0.853825 
-0.414231 -0.496043 0.799473 
-0.506403 -0.702815 0.587406 
-0.289224 -0.778728 0.601115 
-0.345987 -0.818003 0.490504 
-0.430828 -0.612400 0.684173 
-0.528496 -0.667714 0.552008 
-0.476848 -0.668577 0.573957 
-0.301852 -0.754200 0.615523 
-0.459476 -0.635256 0.649988 
-0.667000 -0.516319 0.590691 
-0.481470 -0.555350 0.711534 
-0.466356 -0.702814 0.573613 
-0.338504 -0.768841 0.565364 
-0.157907 -0.640084 0.792434 
-0.369351 -0.606005 0.737733 
-0.303670 -0.489393 0.833554 
-0.214249 -0.384590 0.911643 
-0.176315 -0.223307 0.974854 
-0.307899 -0.283306 0.921138 
-0.464488 -0.129582 0.903214 
-0.522585 -0.163400 0.848510 
-0.637273 -0.340097 0.720098 
-0.653831 -0.194098 0.746123 
-0.586899 -0.172365 0.805683 
