0.837586 -0.546222 -0.009574 
0.843659 -0.525749 -0.108756 
0.892138 -0.442968 -0.088714 
0.809827 -0.565831 -0.154972 
0.787570 -0.575926 -0.219188 
0.827113 -0.558983 0.058503 
0.921001 -0.384435 -0.062991 
0.942922 -0.322382 -0.083478 
0.770831 -0.621379 -0.140387 
0.789161 -0.607670 0.089229 
0.961046 -0.273547 -0.039527 
0.782704 -0.602358 0.156654 
0.745485 -0.636294 0.198448 
0.703077 -0.674059 0.226555 
0.968935 -0.230298 -0.090158 
0.760068 -0.599168 0.251582 
0.660748 -0.705653 0.255864 
0.972552 -0.232384 0.011873 
0.749292 -0.607299 -0.264101 
0.628642 -0.746338 0.218607 
0.601684 -0.780024 0.171869 
0.641754 -0.700846 0.311394 
0.973316 -0.184709 -0.136158 
0.704397 -0.651370 -0.282032 
0.935134 -0.319993 -0.152080 
0.558886 -0.815439 0.150681 
0.538529 -0.837089 0.096277 
0.748168 -0.578885 -0.324248 
0.811074 -0.552051 0.193386 
0.973841 -0.139605 -0.179290 
0.493113 -0.864106 0.100798 
0.661140 -0.680519 -0.315892 
0.727599 -0.569024 -0.383161 
0.450692 -0.888810 0.083021 
0.621502 -0.697711 -0.356280 
0.972163 -0.092555 -0.215248 
0.732101 -0.527497 -0.431017 
0.426690 -0.903757 0.034042 
0.719521 -0.656161 -0.227470 
0.974507 -0.211571 0.074665 
0.974231 -0.183122 0.131680 
0.721817 -0.497274 -0.481352 
0.686853 -0.503479 -0.524158 
0.603400 -0.718764 0.345380 
0.747317 -0.441694 -0.496412 
0.981349 -0.125445 0.145661 
0.758689 -0.388822 -0.522693 
0.961320 -0.066906 -0.267186 
0.561338 -0.743059 0.364366 
0.944172 -0.061385 -0.323684 
