-0.632525 0.426735 0.650238 
-0.580876 0.469829 0.672037 
-0.657507 0.521485 0.548396 
-0.529643 0.514069 0.692482 
-0.708019 0.514342 0.499431 
-0.477963 0.557074 0.714385 
-0.761163 0.477012 0.471463 
-0.774498 0.523767 0.420119 
-0.668350 0.366424 0.659143 
-0.715056 0.314137 0.649948 
-0.713146 0.259686 0.695019 
-0.654699 0.578376 0.506497 
-0.696477 0.215679 0.747797 
-0.424692 0.593675 0.743066 
-0.678321 0.172977 0.801153 
-0.401922 0.655948 0.718498 
-0.527595 0.509290 0.698470 
-0.767037 0.229513 0.660591 
-0.349105 0.672549 0.762485 
-0.820442 0.193772 0.631086 
-0.295463 0.706391 0.793746 
-0.873103 0.154156 0.605446 
-0.698454 0.110913 0.828406 
-0.812241 0.543551 0.363691 
-0.686800 0.062862 0.878956 
-0.801133 0.603692 0.328199 
-0.809009 0.654446 0.279599 
-0.247839 0.705411 0.846004 
-0.722329 0.002439 0.888270 
-0.794540 0.715509 0.247011 
-0.457697 0.516308 0.768491 
-0.800919 0.767256 0.199245 
-0.683927 -0.016321 0.944602 
-0.854789 0.741326 0.161488 
-0.393560 0.715164 0.680768 
-0.653975 -0.046714 1.000986 
-0.866059 0.518676 0.325157 
-0.758102 -0.057891 0.897246 
-0.222976 0.767724 0.823667 
-0.857122 0.795538 0.116148 
-0.560282 0.429375 0.726253 
-0.919817 0.486106 0.292765 
-0.169061 0.795238 0.860221 
-0.863330 0.847395 0.068480 
-0.515103 0.575149 0.659958 
-0.972993 0.448955 0.264621 
-1.026100 0.411423 0.236853 
-0.924735 0.111013 0.583703 
-0.786977 -0.119938 0.915036 
-0.600255 -0.023252 1.040530 
