0.748331 -0.358258 0.558258 
0.748331 -0.358258 0.558258 
0.748331 -0.358258 0.558258 
0.748331 -0.358258 0.558258 
0.709745 -0.341758 0.616006 
0.682800 -0.451166 0.574659 
0.699147 -0.337557 0.630277 
0.748331 -0.358258 0.558258 
0.746541 -0.357444 0.561168 
0.741365 -0.369445 0.560258 
0.597030 -0.302297 0.743083 
0.543515 -0.300896 0.783616 
0.440084 -0.472313 0.763706 
0.675973 -0.338924 0.654363 
0.670882 -0.326921 0.665613 
0.559152 -0.291110 0.776276 
0.705581 -0.340093 0.621685 
0.622979 -0.498078 0.603172 
0.445651 -0.466982 0.763756 
0.573766 -0.321925 0.753098 
0.390226 -0.250618 0.885954 
0.445691 -0.283340 0.849163 
0.600053 -0.303228 0.740262 
0.566449 -0.293198 0.770176 
0.369908 -0.246691 0.895718 
0.395631 -0.251695 0.883247 
0.510658 -0.277992 0.813603 
0.597274 -0.491625 0.633694 
0.492504 -0.318459 0.809953 
0.370228 -0.468764 0.801992 
0.275910 -0.447481 0.850667 
0.447832 -0.517385 0.729218 
0.471753 -0.397677 0.786958 
0.604324 -0.388020 0.695868 
0.637477 -0.350623 0.686066 
0.742140 -0.355466 0.568218 
0.570999 -0.345175 0.744859 
0.734217 -0.355889 0.578160 
0.673273 -0.462765 0.576674 
0.650176 -0.401516 0.645024 
0.615073 -0.525848 0.587511 
0.534778 -0.595710 0.599285 
0.580030 -0.558457 0.593036 
0.522432 -0.605029 0.600838 
0.421315 -0.669736 0.611512 
0.507459 -0.505133 0.698088 
0.428498 -0.665761 0.610862 
0.380451 -0.552638 0.741518 
0.579936 -0.395442 0.712250 
0.449868 -0.594707 0.666290 
