0.583601 0.527196 0.617636 
0.514390 0.397295 0.759973 
0.440666 0.544839 0.713418 
0.361223 0.665882 0.652778 
0.460938 0.709103 0.533581 
0.353139 0.621084 0.699677 
0.439449 0.704497 0.557287 
0.495163 0.762269 0.416844 
0.457859 0.763530 0.455397 
0.294925 0.804709 0.515231 
0.414956 0.841815 0.345194 
0.365350 0.926409 0.091028 
0.315695 0.894006 0.317946 
0.292273 0.848179 0.441779 
0.446165 0.849593 0.281298 
0.485243 0.873052 0.048163 
0.473697 0.855116 0.210681 
0.322016 0.940589 0.107696 
0.389817 0.896944 0.208648 
0.211589 0.916926 0.338343 
0.081604 0.980632 0.178050 
-0.046368 0.988732 0.142334 
-0.108069 0.991590 0.071211 
-0.015023 0.960638 0.277396 
0.182204 0.966179 0.182480 
0.107304 0.987386 0.116423 
0.108777 0.989504 0.095124 
0.171399 0.977335 -0.124255 
0.222145 0.973773 0.049172 
0.064027 0.983174 0.171085 
-0.135460 0.989037 0.058797 
0.000687 0.999829 0.018453 
0.159121 0.982314 0.098685 
0.024349 0.995888 0.087257 
0.094307 0.986451 0.134241 
0.194390 0.980902 0.006549 
0.026863 0.981510 -0.189518 
-0.091343 0.951452 -0.293931 
-0.098154 0.923647 -0.370461 
-0.220857 0.856299 -0.466878 
-0.179852 0.945975 -0.269786 
-0.021859 0.940616 -0.338768 
-0.055834 0.862842 -0.502381 
-0.191506 0.876932 -0.440812 
-0.299801 0.705264 -0.642435 
-0.438527 0.769376 -0.464494 
-0.396240 0.731500 -0.554889 
-0.468113 0.723744 -0.507015 
-0.219731 0.798576 -0.560352 
-0.295609 0.664842 -0.686003 
