0.950628 0.198065 0.249152 
0.971409 0.198205 0.148594 
0.983641 0.086679 0.173023 
0.995123 0.016984 0.169738 
0.994244 -0.037495 0.214807 
0.962723 0.108881 0.257506 
0.932966 0.235516 0.306471 
0.998225 0.084905 0.103856 
0.965165 0.159738 0.207596 
1.015866 0.048438 0.045899 
0.990140 -0.083021 0.268757 
0.919825 0.228096 0.375553 
0.992775 -0.145092 0.302524 
0.902858 0.251372 0.440131 
0.892630 0.228917 0.506397 
1.011868 -0.083480 0.164064 
1.022293 0.086256 -0.013502 
0.876791 0.290894 0.536528 
0.898083 0.162433 0.529853 
0.986089 -0.181976 0.362481 
0.990594 -0.247151 0.389534 
1.038090 0.075114 -0.081519 
0.860755 0.304156 0.604108 
1.054578 0.057428 -0.147967 
0.974200 -0.112482 0.367881 
1.006330 -0.309543 0.360215 
0.959433 -0.109411 0.436965 
1.027886 -0.144696 0.132505 
0.890668 0.128250 0.591307 
0.949412 -0.132808 0.502936 
0.873447 0.354220 0.505245 
1.069281 -0.008169 -0.169894 
1.057346 0.106900 -0.198414 
1.083443 -0.074953 -0.188315 
1.054324 0.169667 -0.230836 
1.001326 -0.352213 0.416378 
0.963119 0.267430 0.136798 
0.954097 0.337041 0.128255 
1.090498 -0.143216 -0.171272 
0.885280 0.285616 0.499447 
0.861013 0.423329 0.513570 
1.103264 -0.212018 -0.181432 
1.010819 -0.090144 0.174131 
0.844398 0.481348 0.550418 
1.071093 0.148852 -0.296300 
1.078172 0.184293 -0.357077 
0.844490 0.319591 0.671169 
1.042935 -0.149831 0.063605 
0.948530 0.403670 0.105243 
0.882643 0.347690 0.465685 
0.914566 0.186263 0.432319 
1.036641 0.208437 -0.174407 
1.017873 -0.410654 0.380173 
0.949739 0.457322 0.059200 
0.949110 0.515334 0.018774 
0.833059 0.551097 0.552969 
1.119865 -0.270128 -0.218143 
0.939679 0.585094 0.012099 
0.870274 0.329780 0.538895 
1.137523 -0.307369 -0.275600 
0.827684 0.509649 0.610006 
1.142387 -0.373061 -0.249892 
0.967355 0.421865 0.000612 
0.845081 0.564735 0.484636 
0.949658 0.608678 -0.053812 
1.126382 -0.360075 -0.182252 
0.817323 0.613490 0.582287 
0.828817 0.329673 0.739380 
1.110456 -0.347810 -0.114458 
1.150834 -0.300954 -0.344750 
0.964013 0.608470 -0.123050 
0.801500 0.624854 0.650261 
0.934094 -0.125609 0.571591 
0.929841 -0.170673 0.625916 
1.090493 -0.039403 -0.249032 
0.966747 0.658037 -0.173405 
0.972799 0.697178 -0.231983 
0.962895 -0.042721 0.370261 
1.094681 0.125613 -0.392912 
1.166105 -0.364971 -0.370607 
1.008550 0.082481 0.055757 
1.039836 0.052985 -0.073379 
1.182966 -0.386894 -0.435685 
1.044457 -0.202992 0.096076 
0.927827 0.118031 0.419339 
1.095543 0.133193 -0.402761 
0.968266 0.762394 -0.258934 
0.961948 0.829908 -0.278980 
0.965756 0.876339 -0.332175 
1.110598 -0.404725 -0.072497 
1.152888 -0.249514 -0.393223 
1.042293 0.171572 -0.174106 
0.926235 -0.217709 0.678590 
0.840466 0.630072 0.457994 
1.200115 -0.440638 -0.478318 
0.852980 0.641053 0.389271 
1.088149 0.088172 -0.333284 
0.827851 0.699021 0.467313 
1.125054 -0.228063 -0.274744 
0.934302 -0.286790 0.691349 
0.821413 0.766666 0.447748 
0.805056 0.826205 0.482208 
0.783942 0.658514 0.709916 
0.769143 0.723871 0.732488 
1.212014 -0.510126 -0.483770 
1.096103 -0.403570 -0.003298 
0.951120 -0.308185 0.626085 
0.930373 0.558545 0.076972 
0.884922 0.398520 0.416582 
1.019113 -0.469980 0.418630 
0.819160 0.479830 0.673553 
