0.729916 -0.438107 0.529419 
0.737104 -0.491848 0.484029 
0.744362 -0.313144 0.594026 
0.783365 -0.478335 0.432286 
0.827189 -0.428380 0.408121 
0.690057 -0.530487 0.519997 
0.716913 -0.281715 0.651112 
0.642828 -0.567845 0.557061 
0.784429 -0.536449 0.392017 
0.618508 -0.633192 0.545305 
0.708033 -0.229358 0.697801 
0.802727 -0.579627 0.339094 
0.850422 -0.547758 0.297746 
0.570755 -0.662081 0.588723 
0.796250 -0.402395 0.466152 
0.542351 -0.726574 0.582904 
0.871786 -0.380288 0.381695 
0.753083 -0.182512 0.669945 
0.906163 -0.318621 0.377776 
0.791900 -0.193175 0.611812 
0.691924 -0.183808 0.749432 
0.851968 -0.605563 0.257050 
0.782462 -0.254578 0.583141 
0.512545 -0.790592 0.579244 
0.951714 -0.308609 0.324626 
0.493142 -0.856077 0.560934 
0.504421 -0.906341 0.512495 
0.822915 -0.129653 0.613551 
0.651224 -0.177779 0.806940 
0.867084 -0.652138 0.206037 
0.878850 -0.701956 0.157254 
0.996134 -0.303209 0.269875 
0.874224 -0.409980 0.358632 
0.895076 -0.499819 0.271142 
1.043863 -0.276080 0.225311 
1.060344 -0.210910 0.247249 
1.108080 -0.180351 0.204971 
1.137553 -0.116212 0.209149 
0.637768 -0.129557 0.856875 
1.154887 -0.050921 0.230046 
0.633424 -0.073664 0.899969 
0.618118 -0.027283 0.951102 
0.528065 -0.943048 0.456876 
0.606891 -0.226540 0.832572 
0.548891 -0.623105 0.643520 
0.648049 0.036687 0.954565 
0.859436 -0.069611 0.605729 
1.136642 -0.007683 0.282939 
1.179815 0.043648 0.260550 
0.768905 -0.117450 0.692675 
