0.623948 0.542915 -0.566509 
0.626996 0.494646 -0.618091 
0.651342 0.438080 -0.652842 
0.655763 0.389049 -0.703601 
0.592196 0.641470 -0.492767 
0.651527 0.345311 -0.758999 
0.611921 0.337419 -0.817043 
0.633525 0.646711 -0.435632 
0.625323 0.697688 -0.387320 
0.686632 0.288084 -0.781198 
0.598024 0.754728 -0.355678 
0.680076 0.667110 -0.354654 
0.734777 0.637193 -0.321295 
0.678008 0.501857 -0.546718 
0.786977 0.590897 -0.309811 
0.538415 0.665233 -0.532047 
0.578587 0.810098 -0.316227 
0.571368 0.330966 -0.874609 
0.739152 0.242460 -0.768548 
0.823357 0.533817 -0.330265 
0.483638 0.701439 -0.558288 
0.438537 0.702610 -0.612737 
0.599880 0.453502 -0.698818 
0.383755 0.738736 -0.639076 
0.725986 0.205412 -0.827320 
0.857390 0.549416 -0.270277 
0.594823 0.844540 -0.256644 
0.348761 0.724385 -0.698822 
0.309153 0.716497 -0.756864 
0.766534 0.655630 -0.260867 
0.784517 0.188523 -0.774284 
0.693980 0.187278 -0.887709 
0.789379 0.231834 -0.718601 
0.655352 0.269070 -0.841696 
0.505206 0.648588 -0.592215 
0.369646 0.792292 -0.595113 
0.579112 0.809942 -0.315756 
0.527398 0.385706 -0.866227 
0.346214 0.848672 -0.559445 
0.912009 0.520341 -0.236053 
0.723169 0.598884 -0.379585 
0.321525 0.799455 -0.646427 
0.714563 0.514114 -0.487443 
0.580346 0.371311 -0.817236 
0.649674 0.809865 -0.228555 
0.550705 0.899201 -0.248537 
0.652482 0.182305 -0.944746 
0.362791 0.693405 -0.716994 
0.929499 0.553673 -0.176193 
0.968132 0.562999 -0.117708 
