0.655147 -0.483766 0.580304 
0.665325 -0.422327 0.615615 
0.705585 -0.365626 0.607015 
0.713730 -0.343372 0.610480 
0.645904 -0.493977 0.582061 
0.603332 -0.524754 0.600520 
0.686551 -0.332720 0.646487 
0.695492 -0.336137 0.635061 
0.659161 -0.322729 0.679229 
0.634274 -0.506379 0.584188 
0.591955 -0.547757 0.591229 
0.588824 -0.550604 0.591710 
0.617808 -0.308821 0.723148 
0.575497 -0.562422 0.593704 
0.536932 -0.594049 0.599007 
0.555134 -0.575401 0.600616 
0.574607 -0.295569 0.763194 
0.495014 -0.624542 0.604076 
0.504384 -0.571197 0.647558 
0.615656 -0.308132 0.725275 
0.525278 -0.602911 0.600485 
0.452537 -0.564040 0.690702 
0.726112 -0.348509 0.592708 
0.393432 -0.578987 0.714133 
0.347324 -0.622091 0.701690 
0.730130 -0.350219 0.586735 
0.508691 -0.615006 0.602496 
0.529776 -0.283010 0.799526 
0.596173 -0.302034 0.743877 
0.748331 -0.358258 0.558258 
0.290141 -0.636026 0.715045 
0.525251 -0.281805 0.802931 
0.495046 -0.274036 0.824520 
0.481722 -0.633447 0.605549 
0.748331 -0.358258 0.558258 
0.748331 -0.358258 0.558258 
0.511545 -0.612967 0.602157 
0.748331 -0.358258 0.558258 
0.670992 -0.465482 0.577145 
0.473102 0.268687 0.839036 
0.265276 -0.682121 0.681424 
0.504418 -0.618027 0.602997 
0.429932 0.258860 0.864957 
0.598075 0.302618 0.742110 
0.460588 -0.507304 0.728355 
0.643299 -0.317239 0.696796 
0.748331 -0.358258 0.558258 
0.278400 -0.721839 0.633595 
0.544129 -0.588421 0.598067 
0.748331 -0.358258 0.558258 
