0.629924 -0.595639 -0.498408 
0.663614 -0.505004 -0.551894 
0.646322 -0.464005 -0.605779 
0.707480 -0.558945 -0.432496 
0.702927 -0.602558 -0.377912 
0.719864 -0.619314 -0.313440 
0.576579 -0.639704 -0.508267 
0.549277 -0.613795 -0.567054 
0.708984 -0.452356 -0.541033 
0.530234 -0.688481 -0.494818 
0.756477 -0.417331 -0.503565 
0.782149 -0.438909 -0.442269 
0.820165 -0.420002 -0.388495 
0.717206 -0.392869 -0.575560 
0.685790 -0.364911 -0.629708 
0.492448 -0.629696 -0.600815 
0.850967 -0.408454 -0.330183 
0.565500 -0.699870 -0.436339 
0.601905 -0.703625 -0.377654 
0.762429 -0.564688 -0.315958 
0.489842 -0.677139 -0.549124 
0.701224 -0.661972 -0.264722 
0.627129 -0.712399 -0.314954 
0.560314 -0.560102 -0.610192 
0.644830 -0.347993 -0.680511 
0.434124 -0.654083 -0.619445 
0.793368 -0.361425 -0.489836 
0.592820 -0.479369 -0.647125 
0.638535 -0.653466 -0.406517 
0.798858 -0.506518 -0.324446 
0.619806 -0.741478 -0.257004 
0.527930 -0.531018 -0.662805 
0.831226 -0.345159 -0.435809 
0.739032 -0.489579 -0.462757 
0.862807 -0.351117 -0.363704 
0.768588 -0.332046 -0.546825 
