0.537440 0.425351 -0.750489 
0.604355 0.643066 -0.557013 
0.519932 0.480324 -0.754862 
0.390157 0.351010 -0.878794 
0.598606 0.342701 -0.762107 
0.637314 0.103601 -0.801589 
0.737444 0.189307 -0.673286 
0.654483 0.280627 -0.713790 
0.788835 0.092201 -0.653008 
0.651408 0.144474 -0.767248 
0.504063 0.000088 -0.897276 
0.659032 -0.207404 -0.776785 
0.635568 -0.229378 -0.737849 
0.604569 -0.206461 -0.771010 
0.720490 -0.450385 -0.613117 
0.829952 -0.242004 -0.555886 
0.854469 -0.450859 -0.376935 
0.817963 -0.386820 -0.434355 
0.981345 -0.233882 -0.254395 
0.908705 -0.246729 -0.357527 
0.944977 -0.050826 -0.380255 
0.942990 0.047965 -0.345073 
0.925963 -0.057514 -0.390855 
0.906247 0.145591 -0.450145 
0.918517 -0.039991 -0.434807 
0.875814 -0.027154 -0.486386 
0.901727 0.029978 -0.438429 
0.805428 -0.092469 -0.637746 
0.855448 -0.279193 -0.496557 
0.747314 -0.278605 -0.625701 
0.739525 -0.164656 -0.663536 
0.860711 -0.011773 -0.555604 
0.817140 -0.128854 -0.575391 
0.685923 -0.289860 -0.712253 
0.682272 -0.355918 -0.644843 
0.584074 -0.382361 -0.727934 
0.353767 -0.539051 -0.818536 
0.367477 -0.369350 -0.870925 
0.457606 -0.388978 -0.807239 
0.552481 -0.296161 -0.790513 
0.415059 -0.394313 -0.838439 
0.461931 -0.652372 -0.675404 
0.477338 -0.456827 -0.781711 
0.747930 -0.322654 -0.664079 
0.605294 -0.510535 -0.652801 
0.593654 -0.667348 -0.499699 
0.793766 -0.595906 -0.309315 
0.719580 -0.519702 -0.513279 
0.738306 -0.562618 -0.392935 
0.698563 -0.701062 -0.248899 
