-0.554007 -0.715582 0.425462 
-0.597324 -0.665371 0.447755 
-0.477787 -0.802765 0.356773 
-0.420563 -0.816859 0.394801 
-0.364603 -0.823392 0.434846 
-0.317201 -0.859269 0.401299 
-0.556780 -0.770206 0.311092 
-0.305948 -0.888922 0.340901 
-0.648189 -0.618962 0.443551 
-0.578196 -0.638064 0.508492 
-0.672141 -0.566082 0.477260 
-0.607077 -0.748221 0.267624 
-0.719011 -0.541337 0.435863 
-0.602432 -0.771979 0.202791 
-0.320856 -0.905822 0.276654 
-0.761724 -0.514320 0.394021 
-0.262600 -0.859165 0.439177 
-0.799910 -0.486259 0.351705 
-0.244175 -0.832352 0.497563 
-0.183180 -0.843868 0.504313 
-0.824513 -0.484329 0.292580 
-0.303448 -0.927758 0.217221 
-0.655006 -0.733414 0.181855 
-0.608188 -0.781986 0.136404 
-0.850113 -0.469005 0.239464 
-0.124892 -0.848206 0.514731 
-0.661764 -0.528954 0.531296 
-0.674564 -0.476637 0.563720 
-0.249085 -0.948600 0.195230 
-0.206638 -0.965641 0.157603 
-0.865767 -0.466513 0.181142 
-0.246367 -0.795778 0.553210 
-0.169839 -0.978505 0.116974 
-0.168777 -0.963300 0.208728 
-0.227577 -0.951824 0.205525 
-0.181460 -0.981652 0.058574 
-0.889884 -0.431191 0.148932 
-0.232107 -0.972333 0.026372 
-0.642304 -0.456933 0.615352 
-0.778752 -0.462120 0.424253 
-0.630300 -0.415497 0.655808 
-0.069685 -0.859944 0.505608 
-0.907716 -0.405388 0.108225 
-0.233080 -0.760760 0.605738 
-0.622468 -0.584589 0.520374 
-0.246748 -0.965710 0.080740 
-0.585270 -0.412269 0.698207 
-0.017420 -0.856974 0.515064 
-0.112201 -0.970862 0.211748 
-0.131229 -0.990304 0.045568 
