0.113141 0.405611 -0.909769 
0.071129 0.358345 -0.941407 
0.160736 0.504983 -0.850973 
0.166425 0.567564 -0.818550 
0.102760 0.598161 -0.815293 
0.033305 0.608911 -0.823075 
0.066589 0.295600 -0.973694 
0.223167 0.599991 -0.791552 
0.231071 0.662207 -0.758892 
0.300397 0.650270 -0.751729 
0.237768 0.724629 -0.726356 
0.103425 0.239126 -0.994998 
0.001314 0.667513 -0.799787 
0.107301 0.175706 -1.026029 
0.277114 0.773835 -0.694252 
0.000377 0.280835 -0.993641 
0.308257 0.828036 -0.661201 
0.352098 0.603932 -0.765138 
-0.060475 0.316306 -0.987410 
0.165770 0.262687 -0.971379 
-0.129786 0.314755 -1.001325 
0.253187 0.870986 -0.650127 
0.045966 0.150307 -1.050377 
-0.079982 0.266734 -1.015937 
0.410748 0.565301 -0.773369 
-0.000874 0.107034 -1.080931 
-0.172869 0.367732 -0.982958 
0.235726 0.425164 -0.876738 
0.271411 0.930628 -0.616800 
0.208836 0.963250 -0.612322 
0.016267 0.401520 -0.930181 
-0.066466 0.657860 -0.817470 
-0.051864 0.067789 -1.110253 
0.461589 0.518182 -0.787333 
0.164448 0.326000 -0.939918 
0.531019 0.507180 -0.779682 
0.373694 0.844879 -0.640360 
-0.241735 0.363117 -0.998323 
-0.104013 0.029787 -1.139173 
0.170678 0.144553 -1.029619 
0.159199 1.011413 -0.597608 
0.431269 0.463552 -0.820443 
0.305479 0.983203 -0.584008 
0.238497 0.124756 -1.026678 
-0.310872 0.360230 -1.012875 
-0.113678 -0.032092 -1.171998 
0.589160 0.537653 -0.753397 
0.605242 0.597951 -0.720147 
0.109079 1.059164 -0.583191 
-0.160218 0.428945 -0.949899 
