-0.121726 -0.279464 -0.952409 
-0.047388 -0.166010 -0.984985 
-0.024773 -0.276584 -0.960670 
-0.169037 -0.325849 -0.930187 
0.033310 -0.313652 -0.948954 
-0.049093 -0.096680 -0.994104 
0.010804 -0.062268 -0.998001 
-0.227147 -0.287279 -0.930524 
-0.010362 -0.365142 -0.930894 
0.035602 0.000177 -0.999366 
0.036162 -0.410921 -0.910954 
0.103797 -0.403259 -0.909180 
0.091444 -0.039091 -0.995043 
0.007885 -0.466436 -0.884520 
0.148810 -0.074587 -0.986049 
-0.200953 -0.380057 -0.902870 
-0.269882 -0.232855 -0.934314 
-0.222146 -0.435556 -0.872320 
-0.021400 0.037381 -0.999072 
0.210652 -0.094530 -0.972980 
0.071225 0.054381 -0.995977 
-0.140826 -0.253153 -0.957122 
0.165333 -0.375625 -0.911905 
-0.151500 -0.389301 -0.908566 
0.071033 -0.058035 -0.995784 
-0.301325 -0.172046 -0.937872 
0.254602 -0.050315 -0.965736 
0.069853 0.117219 -0.990646 
0.228441 -0.361640 -0.903898 
-0.311422 -0.105172 -0.944434 
-0.258943 -0.477130 -0.839819 
-0.360205 -0.190272 -0.913263 
-0.409650 -0.151757 -0.899531 
-0.206123 -0.216282 -0.954325 
0.294229 -0.099696 -0.950521 
0.136435 0.053950 -0.989179 
0.203432 -0.306980 -0.929720 
-0.266806 -0.056672 -0.962082 
0.297147 -0.164095 -0.940626 
0.288605 -0.351745 -0.890496 
0.352413 -0.174230 -0.919483 
0.123124 0.146418 -0.981531 
-0.248008 -0.531852 -0.809707 
0.120612 -0.332714 -0.935283 
0.181140 0.159257 -0.970477 
-0.283714 -0.564465 -0.775168 
-0.193542 -0.566518 -0.800999 
-0.310387 -0.010013 -0.950558 
0.021287 -0.181061 -0.983241 
-0.320406 -0.456200 -0.830193 
