0.804678 -0.059975 -0.590674 
0.752287 -0.169124 -0.636758 
0.840052 -0.024497 -0.541952 
0.722381 -0.082146 -0.686599 
0.691955 -0.029545 -0.721335 
0.785782 -0.202123 -0.584545 
0.641360 -0.044873 -0.765927 
0.588264 -0.050718 -0.807077 
0.812748 -0.238026 -0.531774 
0.822400 -0.289837 -0.489543 
0.557107 -0.108578 -0.823312 
0.740733 -0.023694 -0.671381 
0.839050 0.044823 -0.542205 
0.859099 -0.254621 -0.443979 
0.874051 0.046406 -0.483613 
0.816996 0.105138 -0.566977 
0.893816 0.090551 -0.439197 
0.885217 0.155457 -0.438434 
0.808096 0.170979 -0.563690 
0.854428 0.153856 -0.496267 
0.552565 -0.001944 -0.833467 
0.640877 -0.056884 -0.765533 
0.523867 -0.164572 -0.835751 
0.712323 -0.217896 -0.667171 
0.799787 0.233534 -0.552994 
0.520425 -0.229842 -0.822393 
0.804305 0.083351 -0.588342 
0.697583 0.039524 -0.715413 
0.484888 -0.281597 -0.828002 
0.882024 -0.271068 -0.385429 
0.465720 -0.340071 -0.816980 
0.909503 -0.252256 -0.330411 
0.500724 -0.377876 -0.778771 
0.510827 0.038178 -0.858835 
0.760396 0.269207 -0.591038 
0.855092 0.107625 -0.507183 
0.586910 -0.118910 -0.800873 
0.827607 0.255679 -0.499695 
0.538161 -0.267349 -0.799317 
0.508420 -0.431257 -0.745337 
0.486848 0.094908 -0.868316 
0.734868 -0.147103 -0.662065 
0.542986 0.090510 -0.834850 
0.906013 0.177348 -0.384303 
0.440758 -0.319868 -0.838700 
0.663204 0.090849 -0.742904 
0.414613 -0.270775 -0.868779 
0.663277 -0.246086 -0.706757 
0.471827 -0.152300 -0.868438 
0.616685 -0.227492 -0.753622 
