0.535012 -0.693183 0.488118 
0.423279 -0.742837 0.523477 
0.549511 -0.724165 0.426232 
0.531692 -0.656085 0.548224 
0.605086 -0.716041 0.383273 
0.552835 -0.610078 0.597583 
0.573482 -0.763748 0.341737 
0.456380 -0.781354 0.431513 
0.508931 -0.602775 0.652530 
0.364666 -0.756837 0.560469 
0.416708 -0.829204 0.397801 
0.492701 -0.572858 0.714510 
0.405142 -0.872475 0.343084 
0.608189 -0.779971 0.282305 
0.410778 -0.908411 0.282448 
0.522451 -0.525340 0.757602 
0.667021 -0.740767 0.283680 
0.725902 -0.701633 0.284899 
0.565415 -0.642204 0.535861 
0.363359 -0.955013 0.258370 
0.786648 -0.681900 0.254557 
0.306177 -0.770560 0.597763 
0.348316 -0.882834 0.383871 
0.275688 -0.750790 0.658422 
0.287059 -0.904495 0.411770 
0.819362 -0.634105 0.295121 
0.608917 -0.567894 0.606263 
0.365460 -0.992701 0.198577 
0.668870 -0.550577 0.573011 
0.213620 -0.780030 0.675528 
0.489341 -0.507740 0.817552 
0.721743 -0.546716 0.526218 
0.234347 -0.908121 0.458763 
0.433858 -0.587380 0.750933 
0.183472 -0.909176 0.507860 
0.152377 -0.801631 0.703505 
0.778512 -0.623628 0.351880 
0.879450 -0.616408 0.262316 
0.756764 -0.597335 0.413813 
0.507840 -0.462385 0.868549 
0.567091 -0.446896 0.833201 
0.161953 -0.835467 0.642158 
0.470652 -0.891314 0.248941 
0.839416 -0.678191 0.207635 
0.591680 -0.471180 0.771511 
0.157957 -0.956073 0.461496 
0.445809 -0.492309 0.884571 
0.589075 -0.400699 0.882012 
0.476700 -0.697328 0.539898 
0.560902 -0.538152 0.699659 
